<?xml version="1.0" encoding="UTF-8"?>
<smile version="1.0" id="Network1" numsamples="10000" discsamples="10000">
	<nodes>
		<cpt id="Season">
			<state id="Winter" />
			<state id="Spring" />
			<state id="Summer" />
			<state id="Fall" />
			<probabilities>0.3500000000000001 0.2 0.2 0.25</probabilities>
		</cpt>
		<cpt id="Icecover">
			<state id="Large_Presence" />
			<state id="Small_small_or_No" />
			<probabilities>0.5875 0.4125</probabilities>
		</cpt>
		<cpt id="Temperature">
			<state id="High" />
			<state id="Moderate" />
			<state id="Low" />
			<probabilities>0.2000000000000001 0.2 0.6</probabilities>
			<property id="DSL_OUTCOME_ORDER">1</property>
		</cpt>
		<cpt id="Geography_of_voyage">
			<state id="Heavily_ice" />
			<state id="Medium_ice" />
			<state id="Low_ice" />
			<probabilities>0.5 0.3 0.2</probabilities>
		</cpt>
		<cpt id="Experienceofcrew">
			<state id="Low_level_of_experience" />
			<state id="Experienced" />
			<probabilities>0.6375 0.3625</probabilities>
		</cpt>
		<cpt id="Hull">
			<state id="Single_Hull" />
			<state id="Double_Hull" />
			<probabilities>0.172727 0.827273</probabilities>
		</cpt>
		<cpt id="Material_ship_is_made_of">
			<state id="Thin" />
			<state id="Thick" />
			<probabilities>0.4 0.6</probabilities>
		</cpt>
		<cpt id="Holesize">
			<state id="Big" />
			<state id="Small" />
			<parents>Hull Material_ship_is_made_of</parents>
			<probabilities>0.8 0.2 0.7 0.3 0.3 0.6999999999999998 0.2 0.8</probabilities>
		</cpt>
		<cpt id="Accident">
			<state id="Yes" />
			<state id="No" />
			<parents>Season Icecover Temperature Geography_of_voyage Experienceofcrew Holesize</parents>
			<probabilities>0.7 0.3 0.6 0.4 0.6 0.4 0.5 0.5 0.6 0.4 0.5 0.5 0.5 0.5 0.4 0.6 0.5 0.5 0.4 0.6 0.3 0.7 0.3 0.7 0.6 0.4 0.55 0.45 0.5600000000000001 0.4399999999999999 0.4 0.6 0.5600000000000001 0.4399999999999999 0.45 0.55 0.45 0.55 0.34 0.6599999999999999 0.45 0.55 0.34 0.6599999999999999 0.23 0.7699999999999999 0.2 0.7999999999999999 0.5600000000000001 0.4399999999999999 0.45 0.55 0.46 0.54 0.34 0.6599999999999999 0.46 0.54 0.35 0.65 0.34 0.6599999999999999 0.24 0.76 0.35 0.65 0.24 0.76 0.13 0.87 0.12 0.88 0.7 0.3 0.75 0.25 0.78 0.22 0.77 0.23 0.7 0.3 0.6 0.4000000000000001 0.6 0.4000000000000001 0.7 0.3 0.7 0.3 0.68 0.3199999999999999 0.68 0.3199999999999999 0.58 0.4200000000000001 0.6899999999999999 0.3100000000000001 0.71 0.29 0.74 0.26 0.72 0.28 0.68 0.32 0.59 0.41 0.58 0.42 0.68 0.32 0.67 0.33 0.65 0.35 0.58 0.42 0.48 0.52 0.46 0.54 0.35 0.65 0.36 0.64 0.24 0.76 0.36 0.64 0.25 0.75 0.24 0.76 0.14 0.86 0.25 0.75 0.14 0.86 0.11 0.89 0.1 0.9 0.36 0.64 0.25 0.75 0.26 0.74 0.14 0.86 0.26 0.74 0.15 0.85 0.14 0.86 0.1 0.9 0.15 0.85 0.1 0.9 0.09 0.91 0.06 0.9399999999999999 0.35 0.65 0.23 0.77 0.3 0.7000000000000001 0.14 0.86 0.16 0.84 0.05 0.9500000000000001 0.04 0.96 0.01 0.99 0.05 0.9500000000000001 0.01 0.99 0.008999999999999999 0.991 0.006 0.994 0.45 0.55 0.33 0.6699999999999998 0.4 0.6 0.24 0.76 0.26 0.74 0.15 0.85 0.14 0.86 0.11 0.89 0.15 0.85 0.11 0.89 0.01 0.99 0.007 0.993 0.16 0.84 0.05 0.9499999999999998 0.06 0.9400000000000001 0.04 0.96 0.03 0.97 0.01 0.9900000000000001 0.094 0.9059999999999999 0.01 0.99 0.05 0.9500000000000001 0.01 0.99 0.008999999999999999 0.991 0.006 0.994 0.15 0.85 0.03 0.97 0.1 0.9000000000000001 0.04 0.96 0.06 0.9399999999999999 0.01 0.9899999999999999 0.002 0.998 0.001 0.999 0.01 0.9899999999999999 0.001 0.999 0.002 0.998 0.001 0.999 0.05 0.9499999999999998 0.03 0.97 0.1 0.9000000000000001 0.04 0.9600000000000001 0.06 0.9400000000000001 0.02 0.98 0.04 0.96 0.01 0.99 0.05 0.9500000000000001 0.01 0.99 0.001 0.999 0.0007 0.9993 0.39 0.61 0.29 0.71 0.29 0.71 0.16 0.84 0.29 0.71 0.18 0.8200000000000001 0.16 0.84 0.2 0.8 0.18 0.8200000000000001 0.2 0.8 0.1 0.9 0.07000000000000001 0.9299999999999999 0.4 0.6 0.3 0.6999999999999998 0.4 0.6 0.2 0.8 0.21 0.79 0.09 0.91 0.05 0.95 0.04 0.96 0.08 0.92 0.04 0.96 0.05 0.95 0.02 0.98 0.49 0.51 0.36 0.64 0.9 0.09999999999999998 0.29 0.71 0.28 0.72 0.17 0.83 0.17 0.83 0.1 0.9 0.19 0.8100000000000001 0.1 0.9 0.04 0.96 0.008 0.992 0.19 0.8100000000000001 0.09 0.91 0.08 0.92 0.08 0.92 0.04 0.96 0.03 0.97 0.01 0.99 0.02 0.98 0.06 0.9399999999999999 0.02 0.98 0.01 0.99 0.007 0.993 0.17 0.83 0.04 0.96 0.2 0.8 0.06 0.9399999999999999 0.08 0.92 0.03 0.97 0.004 0.996 0.003 0.997 0.03 0.97 0.003 0.997 0.004 0.996 0.002 0.998 0.07000000000000001 0.9299999999999999 0.04 0.96 0.2 0.8 0.06 0.9399999999999999 0.08 0.92 0.04 0.96 0.06 0.9399999999999999 0.03 0.97 0.07000000000000001 0.9299999999999999 0.03 0.97 0.003 0.997 0.0009 0.9991 0.38 0.62 0.28 0.72 0.28 0.72 0.14 0.86 0.26 0.74 0.16 0.8400000000000001 0.14 0.86 0.09 0.91 0.14 0.86 0.09 0.91 0.08 0.92 0.05 0.9500000000000001 0.3 0.7 0.2 0.8 0.3 0.7 0.1 0.9 0.11 0.89 0.07000000000000001 0.9299999999999999 0.02 0.98 0.01 0.99 0.05 0.95 0.02 0.98 0.02 0.98 0.008999999999999999 0.991 0.46 0.54 0.34 0.6599999999999999 0.7 0.3 0.23 0.77 0.25 0.7500000000000001 0.14 0.86 0.15 0.85 0.09 0.91 0.16 0.84 0.09 0.91 0.02 0.98 0.005 0.995 0.16 0.84 0.07000000000000001 0.9299999999999999 0.05 0.95 0.07000000000000001 0.9299999999999999 0.02 0.98 0.01 0.99 0.008999999999999999 0.991 0.008999999999999999 0.991 0.04 0.96 0.01 0.99 0.008999999999999999 0.991 0.004 0.996 0.15 0.85 0.02 0.98 0.1 0.9 0.06 0.9399999999999999 0.06 0.9399999999999999 0.02 0.98 0.001 0.999 0.0009 0.9991 0.01 0.99 0.001 0.999 0.001 0.999 0.0009 0.9991 0.05 0.9500000000000001 0.02 0.98 0.2 0.8000000000000002 0.06 0.9399999999999999 0.04 0.96 0.01 0.99 0.04 0.96 0.01 0.99 0.05 0.9500000000000001 0.01 0.99 0.001 0.999 0.0005 0.9995000000000001</probabilities>
		</cpt>
		<cpt id="Quantityofoil">
			<state id="T_greatherthan_700" />
			<state id="T_7_700" />
			<state id="T_lessthan_7" />
			<parents>Accident</parents>
			<probabilities>0.04999999999999994 0.15 0.8 0.001000000000000001 0.05 0.949</probabilities>
			<property id="DSL_OUTCOME_ORDER">1</property>
		</cpt>
		<cpt id="Cleanup_cost">
			<state id="High" />
			<state id="Low" />
			<parents>Quantityofoil</parents>
			<probabilities>0.99 0.01000000000000001 0.475 0.525 0.01 0.9900000000000001</probabilities>
		</cpt>
		<cpt id="Typeofoil">
			<state id="Extra_Heavy" />
			<state id="Heavy" />
			<state id="Medium" />
			<state id="Light" />
			<probabilities>0.1 0.2 0.2 0.5</probabilities>
			<property id="DSL_OUTCOME_ORDER">1</property>
		</cpt>
		<cpt id="Type_of_hydrocarbon_released">
			<state id="Toxic" />
			<state id="Non_toxic" />
			<parents>Typeofoil</parents>
			<probabilities>0.6 0.4 0.6 0.4 0.7 0.3 0.8 0.2</probabilities>
		</cpt>
		<cpt id="Age_of_vessel">
			<state id="T15_20" />
			<state id="T10_15" />
			<state id="T5_10" />
			<state id="T1_5" />
			<probabilities>0.6 0.25 0.09999999999999999 0.05000000000000003</probabilities>
		</cpt>
		<cpt id="Size_of_ship">
			<state id="Big" />
			<state id="Small" />
			<probabilities>0.7 0.3</probabilities>
		</cpt>
		<cpt id="Daysexpectedtospendatsea">
			<state id="T15_25" />
			<state id="T5_15" />
			<parents>Age_of_vessel Experienceofcrew Size_of_ship</parents>
			<probabilities>0.506 0.494 0.71 0.29 0.506 0.494 0.71 0.29 0.73 0.27 0.777 0.223 0.55 0.45 0.71 0.29 0.506 0.494 0.71 0.29 0.506 0.494 0.71 0.29 0.73 0.27 0.777 0.223 0.55 0.45 0.71 0.29</probabilities>
		</cpt>
		<cpt id="Sea_State">
			<state id="Rough" />
			<state id="Calm" />
			<probabilities>0.3 0.7</probabilities>
		</cpt>
		<cpt id="Release">
			<state id="High" />
			<state id="Low" />
			<parents>Hull Accident Sea_State Quantityofoil</parents>
			<probabilities>0.737894528 0.262105472 0.588 0.412 0.35 0.65 0.57624 0.42376 0.588 0.412 0.35 0.65 0.5647152 0.4352848 0.588 0.412 0.3 0.7000000000000001 0.57624 0.42376 0.588 0.412 0.3 0.7000000000000001 0.553420896 0.446579104 0.392 0.608 0.1 0.9 0.38416 0.6158400000000001 0.392 0.608 0.1 0.9 0.3764768 0.6235232000000001 0.392 0.608 0.05 0.9500000000000001 0.38416 0.6158400000000001 0.392 0.608 0.05 0.9500000000000001</probabilities>
		</cpt>
		<cpt id="NORDREG_Zone">
			<state id="Yes" />
			<state id="No" />
			<probabilities>0.202531646 0.797468354</probabilities>
		</cpt>
		<cpt id="Legal_cost">
			<state id="High" />
			<state id="Low" />
			<parents>NORDREG_Zone</parents>
			<probabilities>0.9 0.1 0.6 0.4</probabilities>
		</cpt>
		<cpt id="Costofcompensation">
			<state id="High" />
			<state id="Low" />
			<parents>Release Legal_cost Cleanup_cost</parents>
			<probabilities>0.96 0.04000000000000004 0.85 0.15 0.88 0.12 0.95 0.05000000000000004 0.35 0.65 0.6 0.4 0.2 0.8 0.99 0.01000000000000001</probabilities>
		</cpt>
		<cpt id="VoyageSafety">
			<state id="Low" />
			<state id="High" />
			<parents>Experienceofcrew Geography_of_voyage</parents>
			<probabilities>0.85 0.15 0.4399999999999999 0.5600000000000001 0.23 0.77 0.15 0.85 0.09999999999999998 0.9 0.01000000000000001 0.99</probabilities>
		</cpt>
		<cpt id="ExposureToDanger">
			<state id="High" />
			<state id="Low" />
			<parents>Material_ship_is_made_of Daysexpectedtospendatsea Age_of_vessel</parents>
			<probabilities>0.679 0.321 0.675 0.325 0.65 0.3499999999999999 0.62 0.38 0.67 0.33 0.62 0.38 0.59 0.41 0.57 0.43 0.48 0.52 0.45 0.55 0.375 0.625 0.35 0.65 0.44 0.5600000000000001 0.375 0.625 0.355 0.645 0.33 0.6699999999999999</probabilities>
		</cpt>
		<cpt id="Economic_effect">
			<state id="High" />
			<state id="Low" />
			<parents>Costofcompensation Quantityofoil VoyageSafety ExposureToDanger</parents>
			<probabilities>0.956 0.044 0.844 0.156 0.91 0.09 0.884 0.116 0.772 0.228 0.652 0.348 0.672 0.328 0.665 0.335 0.621 0.379 0.509 0.491 0.553 0.447 0.521 0.479 0.215 0.785 0.327 0.673 0.211 0.789 0.259 0.741 0.205 0.795 0.205 0.795 0.189 0.8110000000000001 0.115 0.885 0.19 0.8100000000000001 0.18 0.82 0.15 0.85 0.05 0.95</probabilities>
		</cpt>
		<cpt id="Soil_damage">
			<state id="High" />
			<state id="Low" />
			<probabilities>0.9 0.1</probabilities>
		</cpt>
		<cpt id="Decreaseinwatersupply">
			<state id="High" />
			<state id="Low" />
			<parents>Release Soil_damage</parents>
			<probabilities>0.6333333 0.3666667 0.3666667 0.6333333 0.35 0.65 0.113333 0.886667</probabilities>
		</cpt>
		<cpt id="Locationofresponseequipment">
			<state id="Near_less_than_1km" />
			<state id="Far_More_than_1km" />
			<probabilities>0.4625 0.5375</probabilities>
		</cpt>
		<cpt id="Number_of_response_equipment">
			<state id="Near_less_than_1km" />
			<state id="Far_More_than_1km" />
			<probabilities>0.3 0.7</probabilities>
		</cpt>
		<cpt id="Time">
			<state id="Near_less_than_1km" />
			<state id="Far_More_than_1km" />
			<probabilities>0.7 0.3</probabilities>
		</cpt>
		<cpt id="Personnel">
			<state id="Near_less_than_1km" />
			<state id="Far_More_than_1km" />
			<probabilities>0.7 0.3</probabilities>
		</cpt>
		<cpt id="Response">
			<state id="Slow" />
			<state id="Prompt" />
			<parents>Locationofresponseequipment Number_of_response_equipment Time Personnel Release</parents>
			<probabilities>0.0533 0.9467 0.27 0.73 0.9 0.1 0.8500000000000001 0.15 0.7999999999999999 0.2 0.83 0.17 0.8 0.2 0.87 0.13 0.9 0.1 0.87 0.13 0.95 0.05 0.96 0.04 0.9199999999999999 0.08 0.9199999999999999 0.08 0.95 0.05 0.96 0.04 0.25 0.75 0.2179 0.7821 0.8899999999999999 0.11 0.87 0.13 0.75 0.25 0.85 0.15 0.86 0.14 0.83 0.17 0.34 0.66 0.38 0.62 0.8 0.2 0.88 0.12 0.65 0.35 0.88 0.12 0.8972 0.1028 0.95 0.05</probabilities>
		</cpt>
		<cpt id="Exposure_to_oil">
			<state id="High" />
			<state id="Low" />
			<parents>Quantityofoil Release Daysexpectedtospendatsea</parents>
			<probabilities>0.99 0.01 0.95 0.05 0.9 0.1 0.87 0.13 0.89 0.11 0.85 0.15 0.86 0.14 0.82 0.18 0.35 0.65 0.25 0.75 0.05 0.95 0.01 0.99</probabilities>
		</cpt>
		<cpt id="Destruction_of_flora_and_fauna">
			<state id="High" />
			<state id="Low" />
			<parents>Response Type_of_hydrocarbon_released Exposure_to_oil</parents>
			<probabilities>0.99 0.01000000000000001 0.8 0.2 0.66 0.34 0.1 0.9 0.77 0.23 0.25 0.75 0.25 0.7499999999999999 0.01 0.99</probabilities>
		</cpt>
		<cpt id="Environmentaleffect">
			<state id="High" />
			<state id="Low" />
			<parents>Decreaseinwatersupply Destruction_of_flora_and_fauna</parents>
			<probabilities>0.99 0.01000000000000001 0.8606 0.1394 0.87 0.13 0.01 0.99</probabilities>
		</cpt>
		<cpt id="Leveloftrust">
			<state id="Low" />
			<state id="High" />
			<parents>Response</parents>
			<probabilities>0.66 0.3399999999999999 0.22 0.7799999999999999</probabilities>
		</cpt>
		<cpt id="Hunting_disruption">
			<state id="High" />
			<state id="Low" />
			<parents>Response Release</parents>
			<probabilities>0.8888 0.1112 0.265 0.7350000000000001 0.615 0.385 0.15 0.85</probabilities>
		</cpt>
		<cpt id="Disruptioninassociation">
			<state id="High" />
			<state id="Low" />
			<parents>Response</parents>
			<probabilities>0.9 0.09999999999999998 0.569231 0.430769</probabilities>
		</cpt>
		<cpt id="Cultureinteference">
			<state id="High_impact" />
			<state id="Low_impact" />
			<parents>Release</parents>
			<probabilities>0.728125 0.271875 0.4375 0.5625</probabilities>
		</cpt>
		<cpt id="RiseInFoodCost">
			<state id="Low" />
			<state id="High" />
			<probabilities>0.65 0.35</probabilities>
		</cpt>
		<cpt id="Rise_in_health_expenses">
			<state id="Low" />
			<state id="High" />
			<probabilities>0.75 0.25</probabilities>
		</cpt>
		<cpt id="Psychologicaleffect">
			<state id="High" />
			<state id="Low" />
			<parents>Response RiseInFoodCost Rise_in_health_expenses</parents>
			<probabilities>0.2 0.8000000000000002 0.63 0.37 0.3 0.7 0.65 0.35 0.15 0.8500000000000001 0.55 0.45 0.25 0.75 0.6 0.4000000000000001</probabilities>
		</cpt>
		<cpt id="Social_disruption">
			<state id="High" />
			<state id="Low" />
			<parents>Response</parents>
			<probabilities>0.2 0.8 0.15 0.85</probabilities>
		</cpt>
		<cpt id="Impact">
			<state id="High" />
			<state id="Low" />
			<parents>Social_disruption Psychologicaleffect Disruptioninassociation Cultureinteference Leveloftrust Decreaseinwatersupply Hunting_disruption Quantityofoil</parents>
			<probabilities>0.927 0.073 0.7385 0.2615 0.3493 0.6506999999999999 0.924 0.076 0.737 0.263 0.3486 0.6514 0.921 0.079 0.7355 0.2645 0.3479 0.6521 0.918 0.082 0.734 0.266 0.3472 0.6528 0.915 0.08500000000000001 0.7325 0.2675 0.3465 0.6535 0.912 0.08799999999999999 0.731 0.269 0.3458 0.6542 0.909 0.091 0.7295 0.2705 0.3451 0.6549 0.906 0.094 0.728 0.272 0.3444 0.6556 0.903 0.097 0.7265 0.2735 0.3437 0.6563 0.9 0.1 0.725 0.275 0.343 0.657 0.897 0.103 0.7235 0.2765 0.3423 0.6577 0.894 0.106 0.722 0.278 0.3416 0.6584 0.891 0.109 0.7205 0.2795 0.3409 0.6591 0.888 0.112 0.719 0.281 0.3402 0.6598000000000001 0.885 0.115 0.7175 0.2825 0.3395 0.6605 0.882 0.118 0.716 0.284 0.3388 0.6612 0.879 0.121 0.7145 0.2855 0.3381 0.6619 0.876 0.124 0.713 0.287 0.3374 0.6626 0.873 0.127 0.7115 0.2885 0.3367 0.6633 0.87 0.13 0.71 0.29 0.336 0.664 0.867 0.133 0.7085 0.2915 0.3353 0.6647 0.864 0.136 0.707 0.293 0.3346 0.6654 0.861 0.139 0.7055 0.2945 0.3339 0.6661 0.858 0.142 0.704 0.296 0.3332 0.6667999999999999 0.855 0.145 0.7025 0.2975 0.3325 0.6675 0.852 0.148 0.701 0.299 0.3318 0.6682 0.849 0.151 0.6995 0.3005 0.3311 0.6689000000000001 0.846 0.154 0.698 0.302 0.3304 0.6696 0.843 0.157 0.6965 0.3035 0.3297 0.6703 0.84 0.16 0.695 0.305 0.329 0.671 0.837 0.163 0.6935 0.3065 0.3283 0.6717 0.834 0.166 0.6919999999999999 0.308 0.3276 0.6724 0.831 0.169 0.6905 0.3095 0.3269 0.6731 0.828 0.172 0.6889999999999999 0.311 0.3262 0.6738 0.825 0.175 0.6875 0.3125 0.3255 0.6745 0.822 0.178 0.6860000000000001 0.314 0.3248 0.6752 0.819 0.181 0.6845 0.3155 0.3241 0.6758999999999999 0.8159999999999999 0.184 0.6830000000000001 0.317 0.3234 0.6766 0.8129999999999999 0.187 0.6815 0.3185 0.3227 0.6773 0.8100000000000001 0.19 0.68 0.32 0.322 0.678 0.8070000000000001 0.193 0.6785 0.3215 0.3213 0.6787 0.804 0.196 0.677 0.323 0.3206 0.6794 0.801 0.199 0.6755 0.3245 0.3199 0.6801 0.798 0.202 0.674 0.326 0.3192 0.6808 0.795 0.205 0.6725 0.3275 0.3185 0.6815 0.792 0.208 0.671 0.329 0.3178 0.6822 0.789 0.211 0.6695 0.3305 0.3171 0.6829 0.786 0.214 0.668 0.332 0.3164 0.6836 0.783 0.217 0.6665 0.3335 0.3157 0.6843 0.78 0.22 0.665 0.335 0.315 0.6850000000000001 0.777 0.223 0.6635 0.3365 0.3143 0.6857 0.774 0.226 0.662 0.338 0.3136 0.6864 0.771 0.229 0.6605 0.3395 0.3129 0.6871 0.768 0.232 0.659 0.341 0.3122 0.6878 0.765 0.235 0.6575 0.3425 0.3115 0.6885 0.762 0.238 0.656 0.344 0.3108 0.6892 0.759 0.241 0.6545 0.3455 0.3101 0.6899 0.756 0.244 0.653 0.347 0.3094 0.6906 0.753 0.247 0.6515 0.3485 0.3087 0.6913 0.75 0.25 0.65 0.35 0.308 0.6919999999999999 0.747 0.253 0.6485 0.3515 0.3073 0.6927 0.744 0.256 0.647 0.353 0.3066 0.6934 0.741 0.259 0.6455 0.3545 0.3059 0.6941000000000001 0.738 0.262 0.644 0.356 0.3052 0.6948 0.735 0.265 0.6425 0.3575 0.3045 0.6955 0.732 0.268 0.641 0.359 0.3038 0.6962 0.729 0.271 0.6395 0.3605 0.3031 0.6969 0.726 0.274 0.638 0.362 0.3024 0.6976 0.723 0.277 0.6365 0.3635 0.3017 0.6983 0.72 0.28 0.635 0.365 0.301 0.699 0.717 0.283 0.6335 0.3665 0.3003 0.6997 0.714 0.286 0.632 0.368 0.2996 0.7004 0.711 0.289 0.6304999999999999 0.3695 0.2989 0.7010999999999999 0.708 0.292 0.629 0.371 0.2982 0.7018 0.705 0.295 0.6274999999999999 0.3725 0.2975 0.7025 0.702 0.298 0.626 0.374 0.2968 0.7032 0.699 0.301 0.6245000000000001 0.3755 0.2961 0.7039 0.696 0.304 0.623 0.377 0.2954 0.7046 0.6929999999999999 0.307 0.6215000000000001 0.3785 0.2947 0.7053 0.6899999999999999 0.31 0.62 0.38 0.294 0.706 0.6870000000000001 0.313 0.6185 0.3815 0.2933 0.7067 0.6840000000000001 0.316 0.617 0.383 0.2926 0.7074 0.681 0.319 0.6155 0.3845 0.2919 0.7081 0.678 0.322 0.614 0.386 0.2912 0.7088 0.675 0.325 0.6125 0.3875 0.2905 0.7095 0.672 0.328 0.611 0.389 0.2898 0.7102000000000001 0.669 0.331 0.6095 0.3905 0.2891 0.7109 0.666 0.334 0.608 0.392 0.2884 0.7116 0.663 0.337 0.6065 0.3935 0.2877 0.7123 0.66 0.34 0.605 0.395 0.287 0.713 0.657 0.343 0.6035 0.3965 0.2863 0.7137 0.654 0.346 0.602 0.398 0.2856 0.7144 0.651 0.349 0.6005 0.3995 0.2849 0.7151 0.648 0.352 0.599 0.401 0.2842 0.7158 0.645 0.355 0.5975 0.4025 0.2835 0.7165 0.642 0.358 0.596 0.404 0.2828 0.7171999999999999 0.639 0.361 0.5945 0.4055 0.2821 0.7179 0.636 0.364 0.593 0.407 0.2814 0.7186 0.633 0.367 0.5915 0.4085 0.2807 0.7193000000000001 0.63 0.37 0.59 0.41 0.28 0.72 0.627 0.373 0.5885 0.4115 0.2793 0.7207 0.624 0.376 0.587 0.413 0.2786 0.7214 0.621 0.379 0.5855 0.4145 0.2779 0.7221 0.618 0.382 0.584 0.416 0.2772 0.7228 0.615 0.385 0.5825 0.4175 0.2765 0.7235 0.612 0.388 0.581 0.419 0.2758 0.7242 0.609 0.391 0.5795 0.4205 0.2751 0.7249 0.606 0.394 0.578 0.422 0.2744 0.7256 0.603 0.397 0.5765 0.4235 0.2737 0.7262999999999999 0.6 0.4 0.575 0.425 0.273 0.727 0.597 0.403 0.5735 0.4265 0.2723 0.7277 0.594 0.406 0.572 0.428 0.2716 0.7284 0.591 0.409 0.5705 0.4295 0.2709 0.7291 0.588 0.412 0.569 0.431 0.2702 0.7298 0.585 0.415 0.5675 0.4325 0.2695 0.7305 0.582 0.418 0.5659999999999999 0.434 0.2688 0.7312 0.579 0.421 0.5645 0.4355 0.2681 0.7319 0.576 0.424 0.5629999999999999 0.437 0.2674 0.7326 0.573 0.427 0.5615 0.4385 0.2667 0.7333 0.57 0.43 0.5600000000000001 0.44 0.266 0.734 0.5669999999999999 0.433 0.5585 0.4415 0.2653 0.7347 0.5639999999999999 0.436 0.5570000000000001 0.443 0.2646 0.7354000000000001 0.5610000000000001 0.439 0.5555 0.4445 0.2639 0.7361 0.5580000000000001 0.442 0.554 0.446 0.2632 0.7368 0.555 0.445 0.5525 0.4475 0.2625 0.7375 0.552 0.448 0.551 0.449 0.2618 0.7382 0.549 0.451 0.5495 0.4505 0.2611 0.7389 0.546 0.454 0.548 0.452 0.2604 0.7396</probabilities>
		</cpt>
		<decision id="Recovery_method">
			<state id="Insitu" />
			<state id="Mechanical" />
			<state id="Natural_Attenuation" />
			<state id="Dispersant" />
			<parents>Response</parents>
		</decision>
		<utility id="EnvImp">
			<parents>Recovery_method Environmentaleffect</parents>
			<utilities>280776472 1063138 280701120 1062747 280706584.3 1063496 280700214 1062913</utilities>
		</utility>
		<utility id="EcoImp">
			<parents>Economic_effect Recovery_method</parents>
			<utilities>188250162.8 187521805 189025509.5 187508289.1 140701606.3603216 140698026.3603216 140695776.3603216 140694116.3603216</utilities>
		</utility>
		<utility id="SocImp">
			<parents>Impact Recovery_method</parents>
			<utilities>4784540.4 4775065.6 4789049.85 4783033.6 10634960 10631380 10629130 10627470</utilities>
		</utility>
	</nodes>
	<extensions>
		<genie version="1.0" app="GeNIe 4.1.3724.2 1da4ef968a02580" name="Network1" arccolor="ff6600">
			<node id="Quantityofoil">
				<name>Quantity of oil</name>
				<interior color="e5f6f7" />
				<outline color="000080" />
				<font color="000000" name="Arial" size="9" />
				<position>442 416 510 463</position>
				<barchart width="128" height="76" />
			</node>
			<node id="Typeofoil">
				<name>Type of oil</name>
				<interior color="e5f6f7" />
				<outline color="000080" />
				<font color="000000" name="Arial" size="9" />
				<position>134 218 202 255</position>
				<barchart width="128" height="95" />
			</node>
			<node id="Season">
				<name>Season</name>
				<interior color="e5f6f7" />
				<outline color="000080" />
				<font color="000000" name="Arial" size="9" />
				<position>288 128 350 166</position>
				<barchart width="128" height="95" />
			</node>
			<node id="Temperature">
				<name>Temperature</name>
				<interior color="e5f6f7" />
				<outline color="000080" />
				<font color="000000" name="Arial" size="9" />
				<position>150 169 244 213</position>
				<barchart width="128" height="76" />
			</node>
			<node id="Icecover">
				<name>Ice cover</name>
				<interior color="e5f6f7" />
				<outline color="000080" />
				<font color="000000" name="Arial" size="9" />
				<position>210 121 279 171</position>
				<barchart width="128" height="64" />
			</node>
			<node id="Holesize">
				<name>Hole size</name>
				<interior color="e5f6f7" />
				<outline color="000080" />
				<font color="000000" name="Arial" size="9" />
				<position>365 163 431 202</position>
				<barchart width="128" height="64" />
			</node>
			<node id="Accident">
				<name>Accident</name>
				<interior color="e5f6f7" />
				<outline color="000080" />
				<font color="000000" name="Arial" size="9" />
				<position>252 216 316 259</position>
				<barchart width="128" height="64" />
			</node>
			<node id="Type_of_hydrocarbon_released">
				<name>Type of hydrocarbon released</name>
				<interior color="e5f6f7" />
				<outline color="000080" />
				<font color="000000" name="Arial" size="9" />
				<position>131 281 252 341</position>
				<barchart width="128" height="64" />
			</node>
			<node id="Age_of_vessel">
				<name>Age of vessel</name>
				<interior color="e5f6f7" />
				<outline color="000080" />
				<font color="000000" name="Arial" size="9" />
				<position>818 207 887 253</position>
				<barchart width="128" height="95" />
			</node>
			<node id="Material_ship_is_made_of">
				<name>Material strength</name>
				<interior color="e5f6f7" />
				<outline color="000080" />
				<font color="000000" name="Arial" size="9" />
				<position>694 272 785 323</position>
				<barchart width="128" height="64" />
			</node>
			<node id="Size_of_ship">
				<name>Size of ship</name>
				<interior color="e5f6f7" />
				<outline color="000080" />
				<font color="000000" name="Arial" size="9" />
				<position>835 117 915 158</position>
				<barchart width="128" height="64" />
			</node>
			<node id="Geography_of_voyage">
				<name>Geography of voyage</name>
				<interior color="e5f6f7" />
				<outline color="000080" />
				<font color="000000" name="Arial" size="9" />
				<position>444 259 556 300</position>
				<barchart width="128" height="76" />
			</node>
			<node id="Daysexpectedtospendatsea">
				<name>Days spent at sea</name>
				<interior color="e5f6f7" />
				<outline color="000080" />
				<font color="000000" name="Arial" size="9" />
				<position>686 201 781 253</position>
				<barchart width="128" height="90" />
			</node>
			<node id="Experienceofcrew">
				<name>Experience of crew</name>
				<interior color="e5f6f7" />
				<outline color="000080" />
				<font color="000000" name="Arial" size="9" />
				<position>585 256 675 304</position>
				<barchart width="128" height="64" />
			</node>
			<node id="Decreaseinwatersupply">
				<name>Effect on water supply</name>
				<interior color="e5f6f7" />
				<outline color="000080" />
				<font color="000000" name="Arial" size="9" />
				<position>409 350 503 396</position>
				<barchart width="128" height="64" />
			</node>
			<node id="Leveloftrust">
				<name>Level of trust</name>
				<interior color="e5f6f7" />
				<outline color="000080" />
				<font color="000000" name="Arial" size="9" />
				<position>1056 357 1141 395</position>
				<barchart width="128" height="64" />
			</node>
			<node id="Hunting_disruption">
				<name>Hunting disruption</name>
				<interior color="e5f6f7" />
				<outline color="000080" />
				<font color="000000" name="Arial" size="9" />
				<position>915 329 1010 374</position>
				<barchart width="128" height="64" />
			</node>
			<node id="Disruptioninassociation">
				<name>Disruption in association</name>
				<interior color="e5f6f7" />
				<outline color="000080" />
				<font color="000000" name="Arial" size="9" />
				<position>995 289 1100 339</position>
				<barchart width="128" height="64" />
			</node>
			<node id="Cultureinteference">
				<name>Culture disruption</name>
				<interior color="e5f6f7" />
				<outline color="000080" />
				<font color="000000" name="Arial" size="9" />
				<position>814 281 910 332</position>
				<barchart width="128" height="64" />
			</node>
			<node id="Psychologicaleffect">
				<name>Psychological effect</name>
				<interior color="e5f6f7" />
				<outline color="000080" />
				<font color="000000" name="Arial" size="9" />
				<position>1139 294 1255 340</position>
				<barchart width="128" height="64" />
			</node>
			<node id="Social_disruption">
				<name>Social disruption</name>
				<interior color="e5f6f7" />
				<outline color="000080" />
				<font color="000000" name="Arial" size="9" />
				<position>1074 216 1165 261</position>
				<barchart width="128" height="64" />
			</node>
			<node id="Hull">
				<name>Hull</name>
				<interior color="e5f6f7" />
				<outline color="000080" />
				<font color="000000" name="Arial" size="9" />
				<position>363 105 427 143</position>
				<barchart width="128" height="64" />
			</node>
			<node id="Locationofresponseequipment">
				<name>Location</name>
				<interior color="e5f6f7" />
				<outline color="000080" />
				<font color="000000" name="Arial" size="9" />
				<position>1035 116 1118 156</position>
				<barchart width="128" height="64" />
			</node>
			<node id="Costofcompensation">
				<name>Cost of compensation</name>
				<interior color="e5f6f7" />
				<outline color="000080" />
				<font color="000000" name="Arial" size="9" />
				<position>508 87 616 143</position>
				<barchart width="128" height="64" />
			</node>
			<node id="Legal_cost">
				<name>Legal cost</name>
				<interior color="e5f6f7" />
				<outline color="000080" />
				<font color="000000" name="Arial" size="9" />
				<position>634 58 722 98</position>
				<barchart width="128" height="64" />
			</node>
			<node id="Impact">
				<name>Social effect</name>
				<interior color="e5f6f7" />
				<outline color="000080" />
				<font color="000000" name="Arial" size="9" />
				<position>925 434 1042 479</position>
				<barchart width="128" height="64" />
			</node>
			<node id="Response">
				<name>Response</name>
				<interior color="e5f6f7" />
				<outline color="000080" />
				<font color="000000" name="Arial" size="9" />
				<position>954 174 1043 212</position>
				<barchart width="128" height="64" />
			</node>
			<node id="Release">
				<name>Release</name>
				<interior color="e5f6f7" />
				<outline color="000080" />
				<font color="000000" name="Arial" size="9" />
				<position>668 146 750 181</position>
				<barchart width="128" height="64" />
			</node>
			<node id="Economic_effect">
				<name>Economic effect</name>
				<interior color="e5f6f7" />
				<outline color="000080" />
				<font color="000000" name="Arial" size="9" />
				<position>596 440 720 492</position>
				<barchart width="128" height="64" />
			</node>
			<node id="Environmentaleffect">
				<name>Environmental effect</name>
				<interior color="e5f6f7" />
				<outline color="000080" />
				<font color="000000" name="Arial" size="9" />
				<position>310 441 437 489</position>
				<barchart width="128" height="64" />
			</node>
			<node id="Destruction_of_flora_and_fauna">
				<name>Destruction of flora and fauna</name>
				<interior color="e5f6f7" />
				<outline color="000080" />
				<font color="000000" name="Arial" size="9" />
				<position>220 370 334 424</position>
				<barchart width="128" height="64" />
			</node>
			<node id="Number_of_response_equipment">
				<name>Response equipment</name>
				<interior color="e5f6f7" />
				<outline color="000080" />
				<font color="000000" name="Arial" size="9" />
				<position>892 65 998 119</position>
				<barchart width="128" height="64" />
			</node>
			<node id="Time">
				<name>Time</name>
				<interior color="e5f6f7" />
				<outline color="000080" />
				<font color="000000" name="Arial" size="9" />
				<position>1007 76 1092 116</position>
				<barchart width="128" height="64" />
			</node>
			<node id="Personnel">
				<name>Personnel</name>
				<interior color="e5f6f7" />
				<outline color="000080" />
				<font color="000000" name="Arial" size="9" />
				<position>1109 161 1194 201</position>
				<barchart width="128" height="64" />
			</node>
			<node id="NORDREG_Zone">
				<name>NORDREG_Zone</name>
				<interior color="e5f6f7" />
				<outline color="000080" />
				<font color="000000" name="Arial" size="9" />
				<position>787 61 875 117</position>
				<barchart width="128" height="64" />
			</node>
			<node id="Sea_State">
				<name>Sea State</name>
				<interior color="e5f6f7" />
				<outline color="000080" />
				<font color="000000" name="Arial" size="9" />
				<position>715 95 776 133</position>
				<barchart width="128" height="64" />
			</node>
			<textbox>
				<caption>Updated model</caption>
				<font color="000000" name="Arial" size="9" bold="true" />
				<position>1411 727 1496 742</position>
			</textbox>
			<node id="RiseInFoodCost">
				<name>Rise in food cost</name>
				<interior color="e5f6f7" />
				<outline color="000080" />
				<font color="000000" name="Arial" size="9" />
				<position>1186 214 1261 263</position>
				<barchart width="128" height="64" />
			</node>
			<node id="Rise_in_health_expenses">
				<name>Rise in health expenses</name>
				<interior color="e5f6f7" />
				<outline color="000080" />
				<font color="000000" name="Arial" size="9" />
				<position>1192 361 1297 419</position>
				<barchart width="128" height="64" />
			</node>
			<node id="Cleanup_cost">
				<name>Cleanup cost</name>
				<interior color="e5f6f7" />
				<outline color="000080" />
				<font color="000000" name="Arial" size="9" />
				<position>456 151 531 197</position>
				<barchart width="128" height="64" />
			</node>
			<node id="Soil_damage">
				<name>Soil damage</name>
				<interior color="e5f6f7" />
				<outline color="000080" />
				<font color="000000" name="Arial" size="9" />
				<position>357 274 433 321</position>
				<barchart width="128" height="64" />
			</node>
			<node id="ExposureToDanger">
				<name>ExposureToDanger</name>
				<interior color="e5f6f7" />
				<outline color="000080" />
				<font color="000000" name="Arial" size="9" />
				<position>683 349 809 409</position>
				<barchart width="128" height="64" />
			</node>
			<node id="VoyageSafety">
				<name>VoyageSafety</name>
				<interior color="e5f6f7" />
				<outline color="000080" />
				<font color="000000" name="Arial" size="9" />
				<position>523 354 626 418</position>
				<barchart width="128" height="64" />
			</node>
			<node id="EnvImp">
				<name>Enviromental Impact</name>
				<interior color="e5f6f7" />
				<outline color="000080" />
				<font color="000000" name="Arial" size="9" />
				<position>458 563 567 595</position>
				<barchart width="128" height="64" />
			</node>
			<node id="EcoImp">
				<name>Economic Impact</name>
				<interior color="e5f6f7" />
				<outline color="000080" />
				<font color="000000" name="Arial" size="9" />
				<position>594 563 706 595</position>
				<barchart width="128" height="64" />
			</node>
			<node id="SocImp">
				<name>Social Impact</name>
				<interior color="e5f6f7" />
				<outline color="000080" />
				<font color="000000" name="Arial" size="9" />
				<position>735 563 842 595</position>
				<barchart width="128" height="64" />
			</node>
			<node id="Recovery_method">
				<name>Recovery method</name>
				<interior color="e5f6f7" />
				<outline color="000080" />
				<font color="000000" name="Arial" size="9" />
				<position>739 504 846 543</position>
				<barchart width="128" height="95" />
			</node>
			<node id="Exposure_to_oil">
				<name>Exposure to oil</name>
				<interior color="e5f6f7" />
				<outline color="000080" />
				<font color="000000" name="Arial" size="9" />
				<position>262 293 344 344</position>
			</node>
			<arcformat parent="Hull" child="Holesize" width="1" color="000000" />
			<arcformat parent="Material_ship_is_made_of" child="Holesize" width="1" color="000000" />
			<arcformat parent="Season" child="Accident" width="1" color="000000" />
			<arcformat parent="Icecover" child="Accident" width="1" color="000000" />
			<arcformat parent="Temperature" child="Accident" width="1" color="000000" />
			<arcformat parent="Geography_of_voyage" child="Accident" width="1" color="000000" />
			<arcformat parent="Experienceofcrew" child="Accident" width="1" color="000000" />
			<arcformat parent="Holesize" child="Accident" width="1" color="000000" />
			<arcformat parent="Accident" child="Quantityofoil" width="1" color="000000" />
			<arcformat parent="Quantityofoil" child="Cleanup_cost" width="1" color="000000" />
			<arcformat parent="Typeofoil" child="Type_of_hydrocarbon_released" width="1" color="000000" />
			<arcformat parent="Age_of_vessel" child="Daysexpectedtospendatsea" width="1" color="000000" />
			<arcformat parent="Experienceofcrew" child="Daysexpectedtospendatsea" width="1" color="000000" />
			<arcformat parent="Size_of_ship" child="Daysexpectedtospendatsea" width="1" color="000000" />
			<arcformat parent="Hull" child="Release" width="1" color="000000" />
			<arcformat parent="Accident" child="Release" width="1" color="000000" />
			<arcformat parent="Sea_State" child="Release" width="1" color="000000" />
			<arcformat parent="Quantityofoil" child="Release" width="1" color="000000" />
			<arcformat parent="NORDREG_Zone" child="Legal_cost" width="1" color="000000" />
			<arcformat parent="Release" child="Costofcompensation" width="1" color="000000" />
			<arcformat parent="Legal_cost" child="Costofcompensation" width="1" color="000000" />
			<arcformat parent="Cleanup_cost" child="Costofcompensation" width="1" color="000000" />
			<arcformat parent="Experienceofcrew" child="VoyageSafety" width="1" color="000000" />
			<arcformat parent="Geography_of_voyage" child="VoyageSafety" width="1" color="000000" />
			<arcformat parent="Material_ship_is_made_of" child="ExposureToDanger" width="1" color="000000" />
			<arcformat parent="Daysexpectedtospendatsea" child="ExposureToDanger" width="1" color="000000" />
			<arcformat parent="Age_of_vessel" child="ExposureToDanger" width="1" color="000000" />
			<arcformat parent="Costofcompensation" child="Economic_effect" width="1" color="000000" />
			<arcformat parent="Quantityofoil" child="Economic_effect" width="1" color="000000" />
			<arcformat parent="VoyageSafety" child="Economic_effect" width="1" color="000000" />
			<arcformat parent="ExposureToDanger" child="Economic_effect" width="1" color="000000" />
			<arcformat parent="Release" child="Decreaseinwatersupply" width="1" color="000000" />
			<arcformat parent="Soil_damage" child="Decreaseinwatersupply" width="1" color="000000" />
			<arcformat parent="Locationofresponseequipment" child="Response" width="1" color="000000" />
			<arcformat parent="Number_of_response_equipment" child="Response" width="1" color="000000" />
			<arcformat parent="Time" child="Response" width="1" color="000000" />
			<arcformat parent="Personnel" child="Response" width="1" color="000000" />
			<arcformat parent="Release" child="Response" width="1" color="000000" />
			<arcformat parent="Quantityofoil" child="Exposure_to_oil" width="1" color="000000" />
			<arcformat parent="Release" child="Exposure_to_oil" width="1" color="000000" />
			<arcformat parent="Daysexpectedtospendatsea" child="Exposure_to_oil" width="1" color="000000" />
			<arcformat parent="Response" child="Destruction_of_flora_and_fauna" width="1" color="000000" />
			<arcformat parent="Type_of_hydrocarbon_released" child="Destruction_of_flora_and_fauna" width="1" color="000000" />
			<arcformat parent="Exposure_to_oil" child="Destruction_of_flora_and_fauna" width="1" color="000000" />
			<arcformat parent="Decreaseinwatersupply" child="Environmentaleffect" width="1" color="000000" />
			<arcformat parent="Destruction_of_flora_and_fauna" child="Environmentaleffect" width="1" color="000000" />
			<arcformat parent="Response" child="Leveloftrust" width="1" color="000000" />
			<arcformat parent="Response" child="Hunting_disruption" width="1" color="000000" />
			<arcformat parent="Release" child="Hunting_disruption" width="1" color="000000" />
			<arcformat parent="Response" child="Disruptioninassociation" width="1" color="000000" />
			<arcformat parent="Release" child="Cultureinteference" width="1" color="000000" />
			<arcformat parent="Response" child="Psychologicaleffect" width="1" color="000000" />
			<arcformat parent="RiseInFoodCost" child="Psychologicaleffect" width="1" color="000000" />
			<arcformat parent="Rise_in_health_expenses" child="Psychologicaleffect" width="1" color="000000" />
			<arcformat parent="Response" child="Social_disruption" width="1" color="000000" />
			<arcformat parent="Social_disruption" child="Impact" width="1" color="000000" />
			<arcformat parent="Psychologicaleffect" child="Impact" width="1" color="000000" />
			<arcformat parent="Disruptioninassociation" child="Impact" width="1" color="000000" />
			<arcformat parent="Cultureinteference" child="Impact" width="1" color="000000" />
			<arcformat parent="Leveloftrust" child="Impact" width="1" color="000000" />
			<arcformat parent="Decreaseinwatersupply" child="Impact" width="1" color="000000" />
			<arcformat parent="Hunting_disruption" child="Impact" width="1" color="000000" />
			<arcformat parent="Quantityofoil" child="Impact" width="1" color="000000" />
			<arcformat parent="Response" child="Recovery_method" width="1" color="000000" />
			<arcformat parent="Recovery_method" child="EnvImp" width="1" color="a0a0a0" />
			<arcformat parent="Environmentaleffect" child="EnvImp" width="1" color="000000" />
			<arcformat parent="Economic_effect" child="EcoImp" width="1" color="000000" />
			<arcformat parent="Recovery_method" child="EcoImp" width="1" color="000000" />
			<arcformat parent="Impact" child="SocImp" width="1" color="000000" />
			<arcformat parent="Recovery_method" child="SocImp" width="1" color="000000" />
		</genie>
	</extensions>
</smile>
