<?xml version="1.0" encoding="UTF-8"?>
<smile version="1.0" id="Network1" numsamples="10000" discsamples="10000">
	<nodes>
		<cpt id="Season">
			<state id="Winter" />
			<state id="Spring" />
			<state id="Summer" />
			<state id="Fall" />
			<probabilities>0.3500000000000001 0.2 0.2 0.25</probabilities>
		</cpt>
		<cpt id="Icecover">
			<state id="Large_Presence" />
			<state id="Small_small_or_No" />
			<probabilities>0.5875 0.4125</probabilities>
		</cpt>
		<cpt id="Temperature">
			<state id="High" />
			<state id="Moderate" />
			<state id="Low" />
			<probabilities>0.2000000000000001 0.2 0.6</probabilities>
			<property id="DSL_OUTCOME_ORDER">1</property>
		</cpt>
		<cpt id="Piracy">
			<state id="Presence_of_pirates" />
			<state id="No_pirates" />
			<probabilities>0.1888889 0.8111111</probabilities>
		</cpt>
		<cpt id="Geography_of_voyage">
			<state id="Heavily_ice" />
			<state id="Medium_ice" />
			<state id="Low_ice" />
			<probabilities>0.5 0.4 0.1</probabilities>
		</cpt>
		<cpt id="Experienceofcrew">
			<state id="Low_level_of_experience" />
			<state id="Experience" />
			<probabilities>0.6375 0.3625</probabilities>
		</cpt>
		<cpt id="Hull">
			<state id="Single_Hull" />
			<state id="Double_Hull" />
			<probabilities>0.172727 0.827273</probabilities>
		</cpt>
		<cpt id="Material_ship_is_made_of">
			<state id="Thick" />
			<state id="Thin" />
			<probabilities>0.6 0.4</probabilities>
		</cpt>
		<cpt id="Holesize">
			<state id="Big" />
			<state id="Small" />
			<parents>Hull Material_ship_is_made_of</parents>
			<probabilities>0.7 0.3 0.9 0.09999999999999998 0.3 0.7 0.8 0.2</probabilities>
		</cpt>
		<cpt id="Node7">
			<state id="Yes" />
			<state id="No" />
			<parents>Season Icecover Temperature Piracy Geography_of_voyage Experienceofcrew Holesize</parents>
			<probabilities>0.7 0.3 0.6 0.4 0.6 0.4 0.5 0.5 0.6 0.4 0.5 0.5 0.5 0.5 0.4 0.6 0.5 0.5 0.4 0.6 0.3 0.7 0.3 0.7 0.7 0.3 0.6 0.4 0.6 0.4 0.5 0.5 0.6 0.4 0.5 0.5 0.4 0.6 0.4 0.6 0.7 0.3 0.7 0.3 0.6 0.4000000000000001 0.7 0.3 0.6 0.4 0.55 0.45 0.5600000000000001 0.4399999999999999 0.4 0.6 0.5600000000000001 0.4399999999999999 0.45 0.55 0.45 0.55 0.34 0.6599999999999999 0.45 0.55 0.34 0.6599999999999999 0.23 0.7699999999999999 0.2 0.7999999999999999 0.6 0.4 0.55 0.45 0.46 0.54 0.45 0.55 0.5600000000000001 0.4399999999999999 0.45 0.55 0.34 0.6599999999999999 0.3 0.7 0.7 0.3 0.7 0.3 0.6 0.4000000000000001 0.55 0.45 0.5600000000000001 0.4399999999999999 0.45 0.55 0.46 0.54 0.34 0.6599999999999999 0.46 0.54 0.35 0.65 0.34 0.6599999999999999 0.24 0.76 0.35 0.65 0.24 0.76 0.13 0.87 0.12 0.88 0.5600000000000001 0.4399999999999999 0.45 0.55 0.36 0.64 0.35 0.65 0.46 0.54 0.35 0.65 0.24 0.76 0.2 0.7999999999999999 0.6 0.4 0.6 0.4 0.55 0.45 0.45 0.55 0.7 0.3 0.75 0.25 0.78 0.22 0.77 0.23 0.7 0.3 0.6 0.4000000000000001 0.6 0.4000000000000001 0.7 0.3 0.7 0.3 0.68 0.3199999999999999 0.68 0.3199999999999999 0.58 0.4200000000000001 0.6899999999999999 0.3100000000000001 0.7 0.3 0.6899999999999999 0.3100000000000001 0.67 0.33 0.6 0.4 0.5 0.5 0.5600000000000001 0.4399999999999999 0.67 0.33 0.57 0.43 0.58 0.42 0.58 0.42 0.48 0.52 0.6899999999999999 0.3100000000000001 0.71 0.29 0.74 0.26 0.72 0.28 0.68 0.32 0.59 0.41 0.58 0.42 0.68 0.32 0.67 0.33 0.65 0.35 0.58 0.42 0.48 0.52 0.59 0.41 0.6 0.4 0.65 0.35 0.6 0.4 0.5 0.5 0.4 0.6 0.46 0.54 0.57 0.43 0.47 0.53 0.38 0.62 0.48 0.52 0.38 0.62 0.46 0.54 0.35 0.65 0.36 0.64 0.24 0.76 0.36 0.64 0.25 0.75 0.24 0.76 0.14 0.86 0.25 0.75 0.14 0.86 0.11 0.89 0.1 0.9 0.46 0.54 0.35 0.65 0.26 0.74 0.25 0.75 0.36 0.64 0.25 0.75 0.14 0.86 0.1 0.9 0.55 0.45 0.5600000000000001 0.4399999999999999 0.57 0.43 0.34 0.6599999999999999 0.36 0.64 0.25 0.75 0.26 0.74 0.14 0.86 0.26 0.74 0.15 0.85 0.14 0.86 0.1 0.9 0.15 0.85 0.1 0.9 0.09 0.91 0.06 0.9399999999999999 0.36 0.64 0.25 0.75 0.16 0.84 0.15 0.85 0.26 0.74 0.15 0.85 0.1 0.9 0.09 0.91 0.45 0.55 0.46 0.54 0.47 0.53 0.24 0.76 0.35 0.65 0.23 0.77 0.3 0.7000000000000001 0.14 0.86 0.16 0.84 0.05 0.9500000000000001 0.04 0.96 0.01 0.99 0.05 0.9500000000000001 0.01 0.99 0.008999999999999999 0.991 0.006 0.994 0.26 0.74 0.15 0.85 0.06 0.9399999999999999 0.05 0.9500000000000001 0.16 0.84 0.05 0.9500000000000001 0.01 0.99 0.008999999999999999 0.991 0.35 0.65 0.36 0.64 0.37 0.63 0.14 0.86 0.45 0.55 0.33 0.6699999999999998 0.4 0.6 0.24 0.76 0.26 0.74 0.15 0.85 0.14 0.86 0.11 0.89 0.15 0.85 0.11 0.89 0.01 0.99 0.007 0.993 0.36 0.64 0.25 0.75 0.07000000000000001 0.9299999999999999 0.06 0.9399999999999999 0.17 0.83 0.06 0.9399999999999999 0.02 0.98 0.01 0.99 0.4 0.6 0.46 0.54 0.47 0.53 0.24 0.76 0.16 0.84 0.05 0.9499999999999998 0.06 0.9400000000000001 0.04 0.96 0.03 0.97 0.01 0.9900000000000001 0.094 0.9059999999999999 0.01 0.99 0.05 0.9500000000000001 0.01 0.99 0.008999999999999999 0.991 0.006 0.994 0.16 0.84 0.05 0.9499999999999998 0.006 0.994 0.005 0.995 0.06 0.9400000000000001 0.03 0.9700000000000001 0.01 0.99 0.008999999999999999 0.991 0.15 0.85 0.16 0.84 0.17 0.83 0.04 0.9600000000000001 0.15 0.85 0.03 0.97 0.1 0.9000000000000001 0.04 0.96 0.06 0.9399999999999999 0.01 0.9899999999999999 0.002 0.998 0.001 0.999 0.01 0.9899999999999999 0.001 0.999 0.002 0.998 0.001 0.999 0.06 0.9400000000000001 0.05 0.9500000000000001 0.02 0.98 0.01 0.9899999999999999 0.01 0.99 0.002 0.998 0.001 0.999 0.0009 0.9991 0.15 0.85 0.16 0.84 0.17 0.8300000000000001 0.04 0.96 0.05 0.9499999999999998 0.03 0.97 0.1 0.9000000000000001 0.04 0.9600000000000001 0.06 0.9400000000000001 0.02 0.98 0.04 0.96 0.01 0.99 0.05 0.9500000000000001 0.01 0.99 0.001 0.999 0.0007 0.9993 0.16 0.84 0.05 0.9499999999999998 0.05 0.9500000000000001 0.04 0.96 0.15 0.85 0.03 0.97 0.001 0.999 0.001 0.999 0.1 0.9000000000000001 0.1 0.9 0.2 0.8 0.1 0.9 0.39 0.61 0.29 0.71 0.29 0.71 0.16 0.84 0.29 0.71 0.18 0.8200000000000001 0.16 0.84 0.2 0.8 0.18 0.8200000000000001 0.2 0.8 0.1 0.9 0.07000000000000001 0.9299999999999999 0.39 0.61 0.3 0.6999999999999998 0.2 0.8 0.2 0.8 0.3 0.7000000000000001 0.2 0.8 0.2 0.8 0.1 0.9 0.5 0.5 0.5 0.5 0.49 0.51 0.26 0.74 0.4 0.6 0.3 0.6999999999999998 0.4 0.6 0.2 0.8 0.21 0.79 0.09 0.91 0.05 0.95 0.04 0.96 0.08 0.92 0.04 0.96 0.05 0.95 0.02 0.98 0.29 0.71 0.19 0.8100000000000001 0.08 0.92 0.07000000000000001 0.9299999999999999 0.19 0.8100000000000001 0.08 0.92 0.05 0.9500000000000001 0.01 0.99 0.38 0.62 0.38 0.62 0.39 0.61 0.18 0.8200000000000001 0.49 0.51 0.36 0.64 0.9 0.09999999999999998 0.29 0.71 0.28 0.72 0.17 0.83 0.17 0.83 0.1 0.9 0.19 0.8100000000000001 0.1 0.9 0.04 0.96 0.008 0.992 0.38 0.62 0.28 0.7200000000000001 0.09 0.91 0.08 0.92 0.18 0.8200000000000001 0.08 0.92 0.03 0.97 0.02 0.98 0.5 0.5 0.47 0.53 0.49 0.51 0.27 0.73 0.19 0.8100000000000001 0.09 0.91 0.08 0.92 0.08 0.92 0.04 0.96 0.03 0.97 0.01 0.99 0.02 0.98 0.06 0.9399999999999999 0.02 0.98 0.01 0.99 0.007 0.993 0.18 0.8200000000000002 0.07000000000000001 0.9299999999999999 0.008 0.992 0.006 0.994 0.08 0.92 0.04 0.96 0.03 0.97 0.01 0.99 0.18 0.8200000000000001 0.18 0.8200000000000002 0.17 0.83 0.06 0.9399999999999999 0.17 0.83 0.04 0.96 0.2 0.8 0.06 0.9399999999999999 0.08 0.92 0.03 0.97 0.004 0.996 0.003 0.997 0.03 0.97 0.003 0.997 0.004 0.996 0.002 0.998 0.09 0.91 0.08 0.92 0.05 0.95 0.03 0.97 0.05 0.9500000000000001 0.004 0.996 0.003 0.997 0.001 0.999 0.19 0.8100000000000001 0.19 0.8100000000000001 0.19 0.8100000000000001 0.06 0.9399999999999999 0.07000000000000001 0.9299999999999999 0.04 0.96 0.2 0.8 0.06 0.9399999999999999 0.08 0.92 0.04 0.96 0.06 0.9399999999999999 0.03 0.97 0.07000000000000001 0.9299999999999999 0.03 0.97 0.003 0.997 0.0009 0.9991 0.18 0.8200000000000002 0.07000000000000001 0.9299999999999999 0.08 0.92 0.06 0.9399999999999999 0.17 0.83 0.05 0.9500000000000001 0.003 0.997 0.002 0.998 0.18 0.8200000000000002 0.06 0.9399999999999999 0.004 0.996 0.003 0.997 0.38 0.62 0.28 0.72 0.28 0.72 0.14 0.86 0.26 0.74 0.16 0.8400000000000001 0.14 0.86 0.09 0.91 0.14 0.86 0.09 0.91 0.08 0.92 0.05 0.9500000000000001 0.25 0.75 0.1 0.9 0.09 0.91 0.09 0.91 0.15 0.8500000000000001 0.09 0.91 0.01 0.99 0.008999999999999999 0.991 0.4 0.6 0.4 0.6 0.3 0.7 0.24 0.76 0.3 0.7 0.2 0.8 0.3 0.7 0.1 0.9 0.11 0.89 0.07000000000000001 0.9299999999999999 0.02 0.98 0.01 0.99 0.05 0.95 0.02 0.98 0.02 0.98 0.008999999999999999 0.991 0.19 0.8100000000000002 0.15 0.85 0.04 0.96 0.05 0.9500000000000001 0.15 0.85 0.06 0.9399999999999999 0.02 0.98 0.008999999999999999 0.991 0.34 0.6599999999999999 0.33 0.6699999999999999 0.32 0.6799999999999999 0.17 0.83 0.46 0.54 0.34 0.6599999999999999 0.7 0.3 0.23 0.77 0.25 0.7500000000000001 0.14 0.86 0.15 0.85 0.09 0.91 0.16 0.84 0.09 0.91 0.02 0.98 0.005 0.995 0.34 0.6599999999999999 0.24 0.7599999999999999 0.001 0.999 0.0009 0.9991 0.15 0.85 0.06 0.9399999999999999 0.01 0.99 0.01 0.99 0.3 0.7 0.43 0.5700000000000001 0.44 0.5600000000000001 0.24 0.76 0.16 0.84 0.07000000000000001 0.9299999999999999 0.05 0.95 0.07000000000000001 0.9299999999999999 0.02 0.98 0.01 0.99 0.008999999999999999 0.991 0.008999999999999999 0.991 0.04 0.96 0.01 0.99 0.008999999999999999 0.991 0.004 0.996 0.15 0.8500000000000001 0.05 0.9500000000000001 0.004 0.996 0.006 0.994 0.05 0.95 0.02 0.98 0.01 0.99 0.008999999999999999 0.991 0.15 0.85 0.16 0.84 0.16 0.84 0.04 0.96 0.15 0.85 0.02 0.98 0.1 0.9 0.06 0.9399999999999999 0.06 0.9399999999999999 0.02 0.98 0.001 0.999 0.0009 0.9991 0.01 0.99 0.001 0.999 0.001 0.999 0.0009 0.9991 0.06 0.9399999999999999 0.02 0.98 0.01 0.9900000000000001 0.008999999999999999 0.991 0.01 0.9899999999999999 0.001 0.999 0.002 0.998 0.0009 0.9991 0.15 0.85 0.12 0.8800000000000001 0.14 0.86 0.04 0.96 0.05 0.9500000000000001 0.02 0.98 0.2 0.8000000000000002 0.06 0.9399999999999999 0.04 0.96 0.01 0.99 0.04 0.96 0.01 0.99 0.05 0.9500000000000001 0.01 0.99 0.001 0.999 0.0005 0.9995000000000001 0.14 0.86 0.05 0.9500000000000001 0.05 0.95 0.04 0.96 0.15 0.85 0.02 0.98 0.003 0.997 0.002 0.998 0.16 0.84 0.04 0.96 0.002 0.998 0.001 0.999</probabilities>
		</cpt>
		<cpt id="Quantityofoil">
			<state id="T_greatherthan_700" />
			<state id="T_7_700" />
			<parents>Node7</parents>
			<probabilities>0.6 0.4 0.4 0.6</probabilities>
			<property id="DSL_OUTCOME_ORDER">1</property>
		</cpt>
		<cpt id="Typeofoil">
			<state id="Light" />
			<state id="Medium" />
			<state id="Heavy" />
			<state id="Extra_Heavy" />
			<probabilities>0.5 0.2 0.2 0.1</probabilities>
			<property id="DSL_OUTCOME_ORDER">1</property>
		</cpt>
		<cpt id="Type_of_hydrocarbon_released">
			<state id="Toxic" />
			<state id="Non_toxic" />
			<parents>Typeofoil</parents>
			<probabilities>0.8 0.2 0.7 0.3 0.6 0.4 0.6 0.4</probabilities>
		</cpt>
		<cpt id="Type_of_ship">
			<state id="Cruise" />
			<state id="Oil_tanker" />
			<state id="Boats" />
			<probabilities>0.7 0.1 0.2</probabilities>
		</cpt>
		<cpt id="Type_of_engine">
			<state id="High_energy" />
			<state id="Low_energy" />
			<probabilities>0.8 0.2</probabilities>
		</cpt>
		<cpt id="Age_of_vessel">
			<state id="T1_5" />
			<state id="T5_10" />
			<state id="T10_15" />
			<state id="T15_20" />
			<probabilities>0.1 0.1 0.3 0.5</probabilities>
		</cpt>
		<cpt id="Size_of_ship">
			<state id="Big" />
			<state id="Small" />
			<probabilities>0.7 0.3</probabilities>
		</cpt>
		<cpt id="Year_of_manufacture_of_ship">
			<state id="T2000_2005" />
			<state id="T2005_2010" />
			<state id="T2010_2015" />
			<state id="T2015_2020" />
			<probabilities>0.4 0.1 0.4 0.1</probabilities>
		</cpt>
		<cpt id="Daysexpectedtospendatsea">
			<state id="T5_10" />
			<state id="T10_15" />
			<state id="T15_20" />
			<state id="T20_25" />
			<parents>Age_of_vessel Experienceofcrew Size_of_ship Year_of_manufacture_of_ship</parents>
			<probabilities>0.1 0.2 0.3 0.4 0.1499999999999999 0.15 0.2 0.5 0.1099999999999999 0.16 0.18 0.55 0.09999999999999998 0.15 0.15 0.6 0.03999999999999992 0.16 0.2 0.6 0.05999999999999994 0.15 0.2 0.59 0.07799999999999996 0.145 0.197 0.58 0.09200000000000008 0.139 0.19 0.579 0.15 0.25 0.35 0.25 0.2 0.2 0.3 0.3000000000000001 0.2 0.25 0.3 0.2500000000000001 0.15 0.25 0.25 0.35 0.06 0.18 0.3 0.4600000000000001 0.09 0.18 0.25 0.4799999999999999 0.09 0.2 0.26 0.45 0.1 0.21 0.27 0.42 0.09999999999999998 0.3 0.3 0.3 0.22 0.24 0.27 0.27 0.229 0.265 0.238 0.268 0.3400000000000001 0.22 0.22 0.22 0.16 0.22 0.22 0.4 0.09 0.18 0.25 0.4799999999999999 0.09 0.2 0.26 0.45 0.1 0.21 0.27 0.42 0.2000000000000001 0.2 0.2 0.4 0.22 0.24 0.27 0.27 0.229 0.265 0.238 0.268 0.3400000000000001 0.22 0.22 0.22 0.16 0.22 0.22 0.4 0.09 0.18 0.25 0.4799999999999999 0.09 0.2 0.26 0.45 0.1 0.21 0.27 0.42 0.1 0.2 0.3 0.4 0.1499999999999999 0.15 0.2 0.5 0.1099999999999999 0.16 0.18 0.55 0.09999999999999998 0.15 0.15 0.6 0.03999999999999992 0.16 0.2 0.6 0.05999999999999994 0.15 0.2 0.59 0.07799999999999996 0.145 0.197 0.58 0.09200000000000008 0.139 0.19 0.579 0.15 0.25 0.35 0.25 0.2 0.2 0.3 0.3000000000000001 0.2 0.25 0.3 0.2500000000000001 0.15 0.25 0.25 0.35 0.06 0.18 0.3 0.4600000000000001 0.09 0.18 0.25 0.4799999999999999 0.09 0.2 0.26 0.45 0.1 0.21 0.27 0.42 0.09999999999999998 0.3 0.3 0.3 0.22 0.24 0.27 0.27 0.229 0.265 0.238 0.268 0.3400000000000001 0.22 0.22 0.22 0.16 0.22 0.22 0.4 0.09 0.18 0.25 0.4799999999999999 0.09 0.2 0.26 0.45 0.1 0.21 0.27 0.42 0.2000000000000001 0.2 0.2 0.4 0.22 0.24 0.27 0.27 0.229 0.265 0.238 0.268 0.3400000000000001 0.22 0.22 0.22 0.16 0.22 0.22 0.4 0.09 0.18 0.25 0.4799999999999999 0.09 0.2 0.26 0.45 0.1 0.21 0.27 0.42</probabilities>
		</cpt>
		<cpt id="Sea_State">
			<state id="Rough" />
			<state id="Calm" />
			<probabilities>0.3 0.7</probabilities>
		</cpt>
		<cpt id="Release">
			<state id="High" />
			<state id="Low" />
			<parents>Hull Node7 Sea_State</parents>
			<probabilities>0.9 0.09999999999999998 0.7 0.3 0.6 0.4 0.2 0.8 0.7 0.3 0.6 0.4 0.4 0.6 0.3 0.7</probabilities>
		</cpt>
		<cpt id="NORDREG_Zone">
			<state id="Yes" />
			<state id="No" />
			<probabilities>0.202531646 0.797468354</probabilities>
		</cpt>
		<cpt id="Legal_cost">
			<state id="High" />
			<state id="Low" />
			<parents>NORDREG_Zone</parents>
			<probabilities>0.9 0.1 0.6 0.4</probabilities>
		</cpt>
		<cpt id="Costofcompensation">
			<state id="High" />
			<state id="Low" />
			<parents>Release Legal_cost</parents>
			<probabilities>0.96 0.04000000000000004 0.8 0.2 0.6 0.4 0.2 0.8</probabilities>
		</cpt>
		<cpt id="Economic_effect">
			<state id="High" />
			<state id="Low" />
			<parents>Experienceofcrew Geography_of_voyage Type_of_engine Age_of_vessel Material_ship_is_made_of Daysexpectedtospendatsea Costofcompensation</parents>
			<probabilities>0.7 0.3 0.5 0.5 0.8 0.2 0.55 0.45 0.85 0.15 0.65 0.35 0.87 0.13 0.68 0.32 0.65 0.35 0.45 0.55 0.78 0.22 0.45 0.55 0.75 0.25 0.55 0.45 0.77 0.23 0.58 0.42 0.75 0.25 0.55 0.45 0.85 0.15 0.6 0.4 0.9 0.09999999999999998 0.75 0.25 0.97 0.03000000000000003 0.78 0.22 0.75 0.25 0.55 0.45 0.88 0.12 0.55 0.45 0.85 0.15 0.65 0.35 0.87 0.13 0.68 0.32 0.85 0.15 0.65 0.35 0.95 0.05000000000000004 0.7 0.3 0.95 0.05000000000000004 0.85 0.15 1 0 0.88 0.12 0.85 0.15 0.65 0.35 0.98 0.02000000000000002 0.65 0.35 0.95 0.05000000000000004 0.75 0.25 0.97 0.03000000000000003 0.78 0.22 0.95 0.05000000000000004 0.75 0.25 1 0 0.75 0.25 1 0 0.9 0.09999999999999998 1 0 0.98 0.02000000000000002 0.95 0.05000000000000004 0.75 0.25 0.99 0.01000000000000001 0.75 0.25 1 0 0.85 0.15 1 0 0.88 0.12 0.6 0.4 0.4 0.6 0.7 0.3 0.45 0.55 0.75 0.25 0.55 0.45 0.77 0.23 0.58 0.42 0.55 0.45 0.35 0.65 0.68 0.32 0.55 0.45 0.65 0.35 0.45 0.55 0.67 0.33 0.48 0.52 0.65 0.35 0.45 0.55 0.75 0.25 0.5 0.5 0.8 0.2 0.65 0.35 0.87 0.13 0.68 0.32 0.65 0.35 0.65 0.35 0.78 0.22 0.45 0.55 0.75 0.25 0.55 0.45 0.77 0.23 0.58 0.42 0.75 0.25 0.55 0.45 0.85 0.15 0.6 0.4 0.85 0.15 0.75 0.25 0.9 0.09999999999999998 0.78 0.22 0.75 0.25 0.55 0.45 0.88 0.12 0.55 0.45 0.85 0.15 0.65 0.35 0.87 0.13 0.68 0.32 0.85 0.15 0.65 0.35 0.9 0.09999999999999998 0.65 0.35 0.9 0.09999999999999998 0.8 0.2 0.9 0.09999999999999998 0.68 0.32 0.85 0.15 0.6 0.4 0.89 0.11 0.65 0.35 0.9 0.09999999999999998 0.89 0.11 0.9 0.09999999999999998 0.78 0.22 0.75 0.25 0.55 0.45 0.89 0.11 0.55 0.45 0.89 0.11 0.78 0.22 0.89 0.11 0.58 0.42 0.75 0.25 0.5 0.5 0.79 0.21 0.55 0.45 0.89 0.11 0.79 0.21 0.89 0.11 0.68 0.32 0.6 0.4 0.4 0.6 0.7 0.3 0.45 0.55 0.75 0.25 0.55 0.45 0.77 0.23 0.58 0.42 0.55 0.45 0.35 0.65 0.68 0.32 0.55 0.45 0.65 0.35 0.45 0.55 0.87 0.13 0.48 0.52 0.65 0.35 0.45 0.55 0.75 0.25 0.5 0.5 0.8 0.2 0.65 0.35 0.87 0.13 0.68 0.32 0.65 0.35 0.45 0.55 0.78 0.22 0.65 0.35 0.75 0.25 0.55 0.45 0.77 0.23 0.58 0.42 0.75 0.25 0.55 0.45 0.85 0.15 0.6 0.4 0.85 0.15 0.75 0.25 0.9 0.09999999999999998 0.78 0.22 0.75 0.25 0.55 0.45 0.88 0.12 0.55 0.45 0.85 0.15 0.65 0.35 0.87 0.13 0.68 0.32 0.85 0.15 0.65 0.35 0.9 0.09999999999999998 0.65 0.35 0.9 0.09999999999999998 0.8 0.2 0.9 0.09999999999999998 0.88 0.12 0.85 0.15 0.65 0.35 0.89 0.11 0.65 0.35 0.9 0.09999999999999998 0.75 0.25 0.9 0.09999999999999998 0.78 0.22 0.5 0.5 0.3 0.7 0.6 0.4 0.35 0.65 0.65 0.35 0.45 0.55 0.67 0.33 0.48 0.52 0.45 0.55 0.25 0.75 0.58 0.42 0.45 0.55 0.55 0.45 0.35 0.65 0.57 0.43 0.38 0.62 0.55 0.45 0.35 0.65 0.65 0.35 0.4 0.6 0.7 0.3 0.55 0.45 0.77 0.23 0.58 0.42 0.55 0.45 0.54 0.46 0.68 0.32 0.35 0.65 0.65 0.35 0.45 0.55 0.67 0.33 0.48 0.52 0.65 0.35 0.45 0.55 0.75 0.25 0.5 0.5 0.75 0.25 0.65 0.35 0.8 0.2 0.68 0.32 0.65 0.35 0.45 0.55 0.78 0.22 0.45 0.55 0.75 0.25 0.55 0.45 0.77 0.23 0.58 0.42 0.75 0.25 0.55 0.45 0.8 0.2 0.55 0.45 0.8 0.2 0.7 0.3 1 0 0.7 0.3 0.9 0.09999999999999998 0.5600000000000001 0.4399999999999999 0.79 0.21 0.55 0.45 0.8 0.2 0.79 0.21 0.8 0.2 0.68 0.32 0.65 0.35 0.45 0.55 0.79 0.21 0.45 0.55 0.79 0.21 0.68 0.32 0.79 0.21 0.48 0.52 0.65 0.35 0.4 0.6 0.6899999999999999 0.3100000000000001 0.45 0.55 0.79 0.21 0.6899999999999999 0.3100000000000001 0.79 0.21 0.58 0.42 0.6 0.4 0.4 0.6 0.74 0.26 0.4 0.6 0.75 0.25 0.65 0.35 0.75 0.25 0.43 0.5700000000000001 0.6 0.4 0.35 0.65 0.64 0.36 0.4 0.6 0.75 0.25 0.64 0.36 0.75 0.25 0.53 0.47 0.7 0.3 0.4 0.6 0.7 0.3 0.45 0.55 0.8 0.2 0.7 0.3 0.8 0.2 0.63 0.37 0.6 0.4 0.35 0.65 0.64 0.36 0.4 0.6 0.75 0.25 0.64 0.36 0.75 0.25 0.53 0.47 0.65 0.35 0.45 0.55 0.7 0.3 0.45 0.55 0.7 0.3 0.6 0.4 0.9 0.09999999999999998 0.6 0.4 0.8 0.2 0.46 0.54 0.6899999999999999 0.3100000000000001 0.45 0.55 0.7 0.3 0.6899999999999999 0.3100000000000001 0.7 0.3 0.58 0.42 0.55 0.45 0.35 0.65 0.89 0.11 0.35 0.65 0.6899999999999999 0.3100000000000001 0.58 0.42 0.6899999999999999 0.3100000000000001 0.48 0.52 0.55 0.45 0.34 0.6599999999999999 0.59 0.41 0.35 0.65 0.6899999999999999 0.3100000000000001 0.59 0.41 0.6899999999999999 0.3100000000000001 0.48 0.52 0.5600000000000001 0.4399999999999999 0.34 0.6599999999999999 0.64 0.36 0.34 0.6599999999999999 0.65 0.35 0.55 0.45 0.65 0.35 0.33 0.6699999999999999 0.5600000000000001 0.4399999999999999 0.25 0.75 0.54 0.4599999999999999 0.34 0.6599999999999999 0.65 0.35 0.54 0.4599999999999999 0.65 0.35 0.43 0.5700000000000001 0.67 0.33 0.34 0.6599999999999999 0.67 0.33 0.35 0.65 0.78 0.22 0.67 0.33 0.78 0.22 0.53 0.47 0.5600000000000001 0.4399999999999999 0.25 0.75 0.54 0.4599999999999999 0.34 0.6599999999999999 0.65 0.35 0.54 0.4599999999999999 0.65 0.35 0.43 0.5700000000000001 0.6 0.4 0.4 0.6 0.78 0.22 0.45 0.55 0.75 0.25 0.55 0.45 0.77 0.23 0.58 0.42 0.45 0.55 0.35 0.65 0.68 0.32 0.35 0.65 0.65 0.35 0.45 0.55 0.67 0.33 0.48 0.52 0.65 0.35 0.45 0.55 0.75 0.25 0.5600000000000001 0.4399999999999999 0.8 0.2 0.65 0.35 0.87 0.13 0.68 0.32 0.65 0.35 0.45 0.55 0.78 0.22 0.45 0.55 0.75 0.25 0.55 0.45 0.77 0.23 0.58 0.42 0.75 0.25 0.55 0.45 0.85 0.15 0.6 0.4 0.85 0.15 0.75 0.25 0.9 0.09999999999999998 0.78 0.22 0.75 0.25 0.55 0.45 0.88 0.12 0.75 0.25 0.85 0.15 0.65 0.35 0.87 0.13 0.68 0.32 0.85 0.15 0.65 0.35 0.95 0.05000000000000004 0.65 0.35 0.9 0.09999999999999998 0.8 0.2 0.9 0.09999999999999998 0.88 0.12 0.85 0.15 0.65 0.35 0.89 0.11 0.65 0.35 0.9 0.09999999999999998 0.75 0.25 0.9 0.09999999999999998 0.78 0.22 0.5600000000000001 0.4399999999999999 0.34 0.6599999999999999 0.67 0.33 0.35 0.65 0.65 0.35 0.45 0.55 0.67 0.33 0.48 0.52 0.45 0.55 0.25 0.75 0.58 0.42 0.65 0.35 0.55 0.45 0.35 0.65 0.57 0.43 0.38 0.62 0.55 0.45 0.35 0.65 0.65 0.35 0.4 0.6 0.7 0.3 0.55 0.45 0.77 0.23 0.58 0.42 0.55 0.45 0.55 0.45 0.68 0.32 0.35 0.65 0.65 0.35 0.45 0.55 0.67 0.33 0.48 0.52 0.65 0.35 0.45 0.55 0.75 0.25 0.55 0.45 0.75 0.25 0.65 0.35 0.79 0.21 0.68 0.32 0.65 0.35 0.45 0.55 0.78 0.22 0.45 0.55 0.75 0.25 0.55 0.45 0.77 0.23 0.58 0.42 0.75 0.25 0.55 0.45 0.89 0.11 0.55 0.45 0.89 0.11 0.78 0.22 0.79 0.21 0.58 0.42 0.75 0.25 0.5 0.5 0.79 0.21 0.55 0.45 0.89 0.11 0.79 0.21 0.79 0.21 0.68 0.32 0.55 0.45 0.34 0.6599999999999999 0.68 0.32 0.35 0.65 0.65 0.35 0.45 0.55 0.67 0.33 0.48 0.52 0.35 0.65 0.25 0.75 0.58 0.42 0.25 0.75 0.55 0.45 0.35 0.65 0.57 0.43 0.38 0.62 0.55 0.45 0.35 0.65 0.65 0.35 0.46 0.54 0.78 0.22 0.55 0.45 0.77 0.23 0.58 0.42 0.55 0.45 0.35 0.65 0.68 0.32 0.35 0.65 0.65 0.35 0.45 0.55 0.67 0.33 0.48 0.52 0.65 0.35 0.45 0.55 0.75 0.25 0.5600000000000001 0.4399999999999999 0.75 0.25 0.65 0.35 0.8 0.2 0.68 0.32 0.65 0.35 0.45 0.55 0.78 0.22 0.65 0.35 0.75 0.25 0.55 0.45 0.77 0.23 0.58 0.42 0.85 0.15 0.55 0.45 0.8 0.2 0.75 0.25 0.89 0.11 0.78 0.22 0.89 0.11 0.78 0.22 0.75 0.25 0.55 0.45 0.79 0.21 0.55 0.45 0.89 0.11 0.65 0.35 0.8 0.2 0.68 0.32 0.46 0.54 0.24 0.76 0.57 0.43 0.25 0.75 0.55 0.45 0.35 0.65 0.57 0.43 0.38 0.62 0.35 0.65 0.15 0.85 0.48 0.52 0.55 0.45 0.45 0.55 0.25 0.75 0.47 0.53 0.28 0.72 0.45 0.55 0.25 0.75 0.55 0.45 0.3 0.7 0.6 0.4 0.45 0.55 0.67 0.33 0.48 0.52 0.45 0.55 0.45 0.55 0.58 0.42 0.25 0.75 0.55 0.45 0.35 0.65 0.57 0.43 0.38 0.62 0.55 0.45 0.35 0.65 0.65 0.35 0.45 0.55 0.65 0.35 0.55 0.45 0.6899999999999999 0.3100000000000001 0.58 0.42 0.55 0.45 0.35 0.65 0.68 0.32 0.35 0.65 0.65 0.35 0.45 0.55 0.67 0.33 0.48 0.52 0.65 0.35 0.45 0.55 0.79 0.21 0.45 0.55 0.79 0.21 0.68 0.32 0.6899999999999999 0.3100000000000001 0.48 0.52 0.65 0.35 0.4 0.6 0.6899999999999999 0.3100000000000001 0.45 0.55 0.79 0.21 0.6899999999999999 0.3100000000000001 0.59 0.4100000000000001 0.58 0.42 0.45 0.55 0.24 0.76 0.58 0.42 0.25 0.75 0.55 0.45 0.35 0.65 0.57 0.43 0.38 0.62 0.25 0.75 0.15 0.85 0.48 0.52 0.15 0.85 0.45 0.55 0.25 0.75 0.47 0.53 0.28 0.72 0.45 0.55 0.25 0.75 0.55 0.45 0.36 0.64 0.68 0.32 0.35 0.65 0.67 0.33 0.48 0.52 0.45 0.55 0.25 0.75 0.58 0.42 0.25 0.75 0.55 0.45 0.35 0.65 0.57 0.43 0.38 0.62 0.55 0.45 0.35 0.65 0.65 0.35 0.46 0.54 0.65 0.35 0.55 0.45 0.7 0.3 0.58 0.42 0.55 0.45 0.35 0.65 0.68 0.32 0.55 0.45 0.65 0.35 0.45 0.55 0.67 0.33 0.48 0.52 0.75 0.25 0.45 0.55 0.7 0.3 0.65 0.35 0.79 0.21 0.68 0.32 0.79 0.21 0.68 0.32 0.65 0.35 0.45 0.55 0.6899999999999999 0.3100000000000001 0.45 0.55 0.79 0.21 0.55 0.45 0.7 0.3 0.58 0.42 0.36 0.64 0.14 0.86 0.47 0.53 0.15 0.85 0.45 0.55 0.25 0.75 0.47 0.53 0.28 0.72 0.25 0.75 0.1 0.9 0.38 0.62 0.45 0.55 0.35 0.65 0.25 0.75 0.47 0.53 0.28 0.72 0.45 0.55 0.25 0.75 0.55 0.45 0.3 0.7 0.6 0.4 0.45 0.55 0.67 0.33 0.48 0.52 0.45 0.55 0.45 0.55 0.58 0.42 0.25 0.75 0.55 0.45 0.35 0.65 0.57 0.43 0.38 0.62 0.45 0.55 0.25 0.75 0.55 0.45 0.35 0.65 0.55 0.45 0.45 0.55 0.59 0.41 0.48 0.52 0.45 0.55 0.25 0.75 0.58 0.42 0.25 0.75 0.55 0.45 0.35 0.65 0.57 0.43 0.38 0.62 0.55 0.45 0.35 0.65 0.6899999999999999 0.3100000000000001 0.35 0.65 0.6899999999999999 0.3100000000000001 0.58 0.42 0.59 0.41 0.38 0.62 0.55 0.45 0.3 0.7 0.59 0.41 0.35 0.65 0.6899999999999999 0.3100000000000001 0.59 0.41 0.49 0.51 0.48 0.52</probabilities>
		</cpt>
		<cpt id="Speed_of_vessel">
			<state id="High" />
			<state id="Low" />
			<parents>Type_of_ship Size_of_ship Geography_of_voyage Type_of_engine</parents>
			<probabilities>0.2 0.8 0.09999999999999998 0.9 0.3 0.7 0.2 0.8 0.4 0.6 0.3 0.7 0.09999999999999998 0.9 0.08999999999999996 0.91 0.25 0.75 0.15 0.85 0.3499999999999999 0.65 0.25 0.75 0.09999999999999998 0.9 0.08999999999999996 0.91 0.25 0.75 0.15 0.85 0.3499999999999999 0.65 0.25 0.75 0.07999999999999997 0.92 0.07999999999999996 0.92 0.2 0.8 0.13 0.87 0.32 0.68 0.21 0.79 0.3 0.6999999999999998 0.4 0.6 0.5 0.5 0.4 0.6 0.6 0.4 0.5 0.5 0.4 0.6 0.1 0.9 0.3 0.6999999999999998 0.3 0.7 0.4 0.6 0.4 0.6</probabilities>
		</cpt>
		<cpt id="Decreaseinwatersupply">
			<state id="High" />
			<state id="Low" />
			<parents>Release</parents>
			<probabilities>0.3666667 0.6333333 0.1933333 0.8066667</probabilities>
		</cpt>
		<cpt id="Destruction_of_flora_and_fauna">
			<state id="High" />
			<state id="Low" />
			<parents>Type_of_hydrocarbon_released</parents>
			<probabilities>0.7272729999999999 0.2727270000000001 0.47 0.53</probabilities>
		</cpt>
		<cpt id="Environmentaleffect">
			<state id="High" />
			<state id="Low" />
			<parents>Release Decreaseinwatersupply Destruction_of_flora_and_fauna Typeofoil Quantityofoil Daysexpectedtospendatsea</parents>
			<probabilities>0.6 0.4 0.7 0.3 0.8 0.2 0.9 0.09999999999999998 0.64 0.36 0.74 0.26 0.83 0.17 0.92 0.07999999999999996 0.64 0.36 0.73 0.27 0.82 0.18 0.91 0.08999999999999997 0.62 0.38 0.72 0.28 0.8 0.2 0.9 0.09999999999999999 0.6 0.4000000000000001 0.7 0.3 0.75 0.25 0.85 0.15 0.55 0.45 0.65 0.35 0.7 0.3 0.8 0.2 0.55 0.45 0.6 0.4 0.65 0.35 0.75 0.25 0.45 0.55 0.55 0.45 0.67 0.33 0.78 0.22 0.5600000000000001 0.4399999999999999 0.67 0.33 0.78 0.22 0.89 0.11 0.54 0.4599999999999999 0.64 0.36 0.73 0.27 0.82 0.18 0.54 0.4599999999999999 0.63 0.37 0.72 0.28 0.8100000000000001 0.1899999999999999 0.52 0.48 0.62 0.38 0.7 0.3 0.8 0.2 0.5600000000000001 0.4399999999999999 0.67 0.33 0.65 0.35 0.75 0.25 0.45 0.55 0.55 0.45 0.67 0.33 0.78 0.22 0.45 0.55 0.5600000000000001 0.4399999999999999 0.55 0.45 0.65 0.35 0.35 0.65 0.45 0.55 0.57 0.43 0.68 0.32 0.62 0.3800000000000001 0.72 0.28 0.82 0.18 0.91 0.08999999999999996 0.65 0.35 0.75 0.25 0.84 0.16 0.95 0.05000000000000004 0.67 0.33 0.77 0.23 0.86 0.14 0.93 0.06999999999999995 0.64 0.36 0.74 0.26 0.83 0.17 0.92 0.07999999999999996 0.65 0.35 0.73 0.27 0.78 0.22 0.87 0.13 0.58 0.42 0.65 0.35 0.7 0.3 0.8 0.2 0.55 0.45 0.6 0.4 0.65 0.35 0.75 0.25 0.45 0.55 0.55 0.45 0.67 0.33 0.78 0.22 0.5600000000000001 0.4399999999999999 0.67 0.33 0.78 0.22 0.89 0.11 0.54 0.4599999999999999 0.64 0.36 0.73 0.27 0.82 0.18 0.54 0.4599999999999999 0.63 0.37 0.72 0.28 0.8100000000000001 0.1899999999999999 0.58 0.42 0.65 0.3499999999999999 0.78 0.22 0.85 0.15 0.6899999999999999 0.31 0.6899999999999999 0.3100000000000001 0.68 0.32 0.79 0.21 0.49 0.51 0.59 0.41 0.6899999999999999 0.3100000000000001 0.8 0.2 0.55 0.45 0.6 0.4 0.6 0.4 0.75 0.25 0.45 0.55 0.55 0.45 0.67 0.33 0.78 0.22 0.5600000000000001 0.4399999999999999 0.67 0.33 0.78 0.22 0.89 0.11 0.54 0.4599999999999999 0.64 0.36 0.73 0.27 0.82 0.18 0.54 0.4599999999999999 0.63 0.37 0.72 0.28 0.8100000000000001 0.1899999999999999 0.52 0.48 0.62 0.38 0.78 0.22 0.89 0.11 0.5600000000000001 0.4399999999999999 0.67 0.33 0.65 0.35 0.75 0.25 0.45 0.55 0.55 0.45 0.67 0.33 0.78 0.22 0.45 0.55 0.5600000000000001 0.4399999999999999 0.55 0.45 0.65 0.35 0.35 0.65 0.45 0.55 0.57 0.43 0.68 0.32 0.46 0.54 0.57 0.43 0.68 0.32 0.79 0.21 0.44 0.5600000000000001 0.54 0.4599999999999999 0.63 0.37 0.72 0.28 0.34 0.6599999999999999 0.53 0.47 0.62 0.38 0.71 0.29 0.42 0.5800000000000001 0.52 0.48 0.67 0.33 0.78 0.22 0.46 0.54 0.57 0.43 0.55 0.45 0.65 0.35 0.35 0.65 0.45 0.55 0.57 0.43 0.68 0.32 0.35 0.65 0.46 0.54 0.45 0.55 0.55 0.45 0.25 0.75 0.35 0.65 0.47 0.53 0.58 0.42 0.52 0.48 0.62 0.38 0.72 0.28 0.8100000000000001 0.1899999999999999 0.55 0.45 0.65 0.35 0.74 0.26 0.85 0.15 0.57 0.43 0.67 0.33 0.76 0.24 0.93 0.06999999999999995 0.64 0.36 0.74 0.26 0.83 0.17 0.92 0.07999999999999996 0.65 0.35 0.73 0.27 0.78 0.22 0.87 0.13 0.58 0.42 0.65 0.35 0.7 0.3 0.8 0.2 0.55 0.45 0.6 0.4 0.65 0.35 0.75 0.25 0.45 0.55 0.55 0.45 0.67 0.33 0.68 0.32 0.46 0.54 0.57 0.43 0.68 0.32 0.79 0.21 0.44 0.5600000000000001 0.54 0.4599999999999999 0.63 0.37 0.72 0.28 0.44 0.5600000000000001 0.53 0.47 0.62 0.38 0.71 0.29 0.48 0.52 0.55 0.45 0.68 0.32 0.75 0.25 0.59 0.4100000000000001 0.59 0.41 0.58 0.42 0.6899999999999999 0.3100000000000001 0.39 0.61 0.49 0.51 0.59 0.41 0.78 0.22 0.45 0.55 0.5 0.5 0.5 0.5 0.65 0.35 0.35 0.65 0.45 0.55 0.57 0.43 0.68 0.32</probabilities>
		</cpt>
		<cpt id="Locationofresponseequipment">
			<state id="Near_less_than_1km" />
			<state id="Far_More_than_1km" />
			<probabilities>0.4625 0.5375</probabilities>
		</cpt>
		<cpt id="Number_of_response_equipment">
			<state id="Near_less_than_1km" />
			<state id="Far_More_than_1km" />
			<probabilities>0.3 0.7</probabilities>
		</cpt>
		<cpt id="Time">
			<state id="Near_less_than_1km" />
			<state id="Far_More_than_1km" />
			<probabilities>0.5 0.5</probabilities>
		</cpt>
		<cpt id="Personnel">
			<state id="Near_less_than_1km" />
			<state id="Far_More_than_1km" />
			<probabilities>0.5 0.5</probabilities>
		</cpt>
		<cpt id="Response">
			<state id="Slow" />
			<state id="Prompt" />
			<parents>Locationofresponseequipment Number_of_response_equipment Time Personnel Release</parents>
			<probabilities>0.001 0.999 0.0003 0.9997 0.9 0.1 0.006 0.994 0.9 0.09999999999999998 0.6 0.4 0.7 0.3 0.6 0.4 0.9 0.1 0.8 0.2 0.9849999999999999 0.015 0.8500000000000001 0.15 0.9 0.1 0.95 0.05 0.91 0.09 0.9700000000000001 0.03 0.3 0.7 0.2 0.8 0.3000000000000001 0.7 0.25 0.75 0.4 0.6 0.3 0.7 0.4 0.6 0.3 0.7 0.25 0.75 0.15 0.85 0.25 0.75 0.2 0.8 0.3499999999999999 0.65 0.25 0.75 0.3499999999999999 0.65 0.25 0.75</probabilities>
		</cpt>
		<cpt id="Leveloftrust">
			<state id="High" />
			<state id="Low" />
			<parents>Release Response</parents>
			<probabilities>0.4 0.6 0.5600000000000001 0.4399999999999999 0.47 0.53 0.7 0.3</probabilities>
		</cpt>
		<cpt id="Hunting_disruption">
			<state id="High" />
			<state id="Low" />
			<parents>Response Release</parents>
			<probabilities>0.6125 0.3875 0.433333 0.566667 0.555 0.445 0.2 0.8</probabilities>
		</cpt>
		<cpt id="Disruptioninassociation">
			<state id="High" />
			<state id="Low" />
			<parents>Response Release</parents>
			<probabilities>0.9 0.09999999999999998 0.37272 0.6272799999999999 0.569231 0.430769 0.315385 0.684615</probabilities>
		</cpt>
		<cpt id="Cultureinteference">
			<state id="High_impact" />
			<state id="Low_impact" />
			<parents>Release</parents>
			<probabilities>0.728125 0.271875 0.4375 0.5625</probabilities>
		</cpt>
		<cpt id="Psychologicaleffect">
			<state id="Low" />
			<state id="High" />
			<parents>Release Response</parents>
			<probabilities>0.254545 0.745455 0.4 0.6 0.53 0.47 0.7 0.3</probabilities>
		</cpt>
		<cpt id="Social_disruption">
			<state id="High" />
			<state id="Low" />
			<parents>Response</parents>
			<probabilities>0.7 0.3 0.4 0.6</probabilities>
		</cpt>
		<cpt id="Impact">
			<state id="High" />
			<state id="Low" />
			<parents>Social_disruption Psychologicaleffect Disruptioninassociation Cultureinteference Leveloftrust Decreaseinwatersupply Hunting_disruption</parents>
			<probabilities>0.95 0.05000000000000004 0.85 0.15 0.95 0.05000000000000004 0.85 0.15 0.86 0.14 0.8 0.2 0.85 0.15 0.79 0.21 0.8 0.2 0.79 0.21 0.9 0.09999999999999998 0.85 0.15 0.85 0.15 0.8 0.2 0.8 0.2 0.7 0.3 0.9 0.09999999999999998 0.8 0.2 0.85 0.15 0.75 0.25 0.8 0.2 0.6 0.4 0.7 0.3 0.65 0.35 0.8 0.2 0.7 0.3 0.75 0.25 0.65 0.35 0.7 0.3 0.5 0.5 0.67 0.33 0.55 0.45 0.91 0.08999999999999996 0.85 0.15 0.87 0.13 0.79 0.21 0.9 0.09999999999999998 0.7 0.3 0.8 0.2 0.75 0.25 0.85 0.15 0.7 0.3 0.73 0.27 0.71 0.29 0.77 0.23 0.62 0.3799999999999999 0.75 0.25 0.62 0.3799999999999999 0.8100000000000001 0.1899999999999999 0.75 0.25 0.77 0.23 0.6899999999999999 0.3100000000000001 0.82 0.18 0.67 0.33 0.75 0.25 0.7 0.3 0.82 0.18 0.72 0.28 0.8 0.2 0.7 0.3 0.8 0.2 0.6 0.4 0.72 0.28 0.63 0.3700000000000001 0.8 0.2 0.7 0.3 0.85 0.15 0.65 0.35 0.76 0.24 0.7 0.3 0.65 0.35 0.6899999999999999 0.3100000000000001 0.7 0.3 0.6899999999999999 0.3100000000000001 0.8 0.2 0.65 0.35 0.75 0.25 0.7 0.3 0.6 0.4000000000000001 0.6 0.4 0.8 0.2 0.7 0.3 0.75 0.25 0.65 0.35 0.6 0.4000000000000001 0.5 0.5 0.6 0.4 0.55 0.45 0.7 0.3 0.6 0.4 0.65 0.35 0.55 0.45 0.67 0.33 0.4 0.6 0.57 0.43 0.45 0.55 0.8100000000000001 0.1899999999999999 0.75 0.25 0.77 0.23 0.6899999999999999 0.3100000000000001 0.8 0.2 0.6 0.4 0.7 0.3 0.65 0.35 0.75 0.25 0.67 0.33 0.63 0.37 0.61 0.39 0.67 0.33 0.52 0.48 0.65 0.35 0.72 0.28 0.8100000000000001 0.19 0.65 0.35 0.67 0.33 0.59 0.41 0.72 0.28 0.57 0.43 0.65 0.35 0.6 0.4 0.72 0.28 0.62 0.38 0.78 0.22 0.67 0.33 0.78 0.22 0.5600000000000001 0.4399999999999999 0.62 0.38 0.73 0.27</probabilities>
		</cpt>
		<decision id="Recovery_method">
			<state id="Natural_attenuation" />
			<state id="Insitu_burning" />
			<state id="Dispersant_use" />
			<state id="Mechanical_recovery" />
			<parents>Response</parents>
		</decision>
		<utility id="Social_Economic_Env">
			<parents>Impact Economic_effect Environmentaleffect Recovery_method</parents>
			<utilities>575044371 575946031 575048281 575051861 357308776 357310436 357312686 357316266 243608726 243610390 243612636 243616216 25873131 25874791 25877041 25880621 559798710.1 5598000370.1 559802620.1 559806200.1 342063114.9 342064774.9 342067024.9 342070604.9 228363065.2 228364725.2 228366975.2 228370555.2 10627470 10629130 10631380 10634960</utilities>
		</utility>
	</nodes>
	<extensions>
		<genie version="1.0" app="GeNIe 4.0.2423.2 1d9170b50187700" name="Network1">
			<node id="Quantityofoil">
				<name>Quantity of oil</name>
				<interior color="e5f6f7" />
				<outline color="000080" />
				<font color="000000" name="Arial" size="8" />
				<position>15 269 83 316</position>
			</node>
			<node id="Typeofoil">
				<name>Type of oil</name>
				<interior color="e5f6f7" />
				<outline color="000080" />
				<font color="000000" name="Arial" size="8" />
				<position>29 377 92 414</position>
			</node>
			<node id="Season">
				<name>Season</name>
				<interior color="e5f6f7" />
				<outline color="000080" />
				<font color="000000" name="Arial" size="8" />
				<position>26 463 88 501</position>
			</node>
			<node id="Temperature">
				<name>Temperature</name>
				<interior color="e5f6f7" />
				<outline color="000080" />
				<font color="000000" name="Arial" size="8" />
				<position>8 543 91 587</position>
			</node>
			<node id="Icecover">
				<name>Ice cover</name>
				<interior color="e5f6f7" />
				<outline color="000080" />
				<font color="000000" name="Arial" size="8" />
				<position>217 579 286 629</position>
			</node>
			<node id="Holesize">
				<name>Hole size</name>
				<interior color="e5f6f7" />
				<outline color="000080" />
				<font color="000000" name="Arial" size="8" />
				<position>168 331 234 370</position>
			</node>
			<node id="Node7">
				<name>Accident</name>
				<interior color="00ff00" />
				<outline color="000080" />
				<font color="000000" name="Arial" size="8" />
				<position>206 434 270 477</position>
			</node>
			<node id="Type_of_hydrocarbon_released">
				<name>Type of hydrocarbon released</name>
				<interior color="e5f6f7" />
				<outline color="000080" />
				<font color="000000" name="Arial" size="8" />
				<position>22 203 168 248</position>
			</node>
			<node id="Type_of_ship">
				<name>Type of ship</name>
				<interior color="cc99ff" />
				<outline color="000080" />
				<font color="000000" name="Arial" size="8" />
				<position>300 260 384 304</position>
			</node>
			<node id="Type_of_engine">
				<name>Type of engine</name>
				<interior color="cc99ff" />
				<outline color="000080" />
				<font color="000000" name="Arial" size="8" />
				<position>303 456 378 496</position>
			</node>
			<node id="Age_of_vessel">
				<name>Age of vessel</name>
				<interior color="cc99ff" />
				<outline color="000080" />
				<font color="000000" name="Arial" size="8" />
				<position>304 535 373 573</position>
			</node>
			<node id="Year_of_manufacture_of_ship">
				<name>Year of ship manufacture</name>
				<interior color="cc99ff" />
				<outline color="000080" />
				<font color="000000" name="Arial" size="8" />
				<position>293 609 379 656</position>
			</node>
			<node id="Material_ship_is_made_of">
				<name>Thickness of material</name>
				<interior color="cc99ff" />
				<outline color="000080" />
				<font color="000000" name="Arial" size="8" />
				<position>477 265 568 316</position>
			</node>
			<node id="Size_of_ship">
				<name>Size of ship</name>
				<interior color="cc99ff" />
				<outline color="000080" />
				<font color="000000" name="Arial" size="8" />
				<position>428 343 508 384</position>
			</node>
			<node id="Speed_of_vessel">
				<name>Speed of vessel</name>
				<interior color="cc99ff" />
				<outline color="000080" />
				<font color="000000" name="Arial" size="8" />
				<position>439 460 531 499</position>
			</node>
			<node id="Geography_of_voyage">
				<name>Geography of voyage</name>
				<interior color="cc99ff" />
				<outline color="000080" />
				<font color="000000" name="Arial" size="8" />
				<position>422 544 519 585</position>
			</node>
			<node id="Daysexpectedtospendatsea">
				<name>Days to spend at sea</name>
				<interior color="cc99ff" />
				<outline color="000080" />
				<font color="000000" name="Arial" size="8" />
				<position>616 286 711 338</position>
			</node>
			<node id="Experienceofcrew">
				<name>Experience of crew</name>
				<interior color="cc99ff" />
				<outline color="000080" />
				<font color="000000" name="Arial" size="8" />
				<position>616 424 699 472</position>
			</node>
			<node id="Decreaseinwatersupply">
				<name>Effect on water supply</name>
				<interior color="c0c0c0" />
				<outline color="000080" />
				<font color="000000" name="Arial" size="8" />
				<position>930 293 1024 339</position>
			</node>
			<node id="Leveloftrust">
				<name>Level of trust</name>
				<interior color="c0c0c0" />
				<outline color="000080" />
				<font color="000000" name="Arial" size="8" />
				<position>837 476 922 514</position>
			</node>
			<node id="Hunting_disruption">
				<name>Hunting disruption</name>
				<interior color="c0c0c0" />
				<outline color="000080" />
				<font color="000000" name="Arial" size="8" />
				<position>632 557 716 602</position>
			</node>
			<node id="Disruptioninassociation">
				<name>Disruption in association</name>
				<interior color="c0c0c0" />
				<outline color="000080" />
				<font color="000000" name="Arial" size="8" />
				<position>1031 500 1124 550</position>
			</node>
			<node id="Cultureinteference">
				<name>Culture disruption</name>
				<interior color="c0c0c0" />
				<outline color="000080" />
				<font color="000000" name="Arial" size="8" />
				<position>735 501 831 552</position>
			</node>
			<node id="Psychologicaleffect">
				<name>Psychological effect</name>
				<interior color="c0c0c0" />
				<outline color="000080" />
				<font color="000000" name="Arial" size="8" />
				<position>1037 387 1135 433</position>
			</node>
			<node id="Social_disruption">
				<name>Social disruption</name>
				<interior color="c0c0c0" />
				<outline color="000080" />
				<font color="000000" name="Arial" size="8" />
				<position>1037 285 1128 330</position>
			</node>
			<node id="Piracy">
				<name>Piracy</name>
				<interior color="ccffcc" />
				<outline color="000080" />
				<font color="000000" name="Arial" size="8" />
				<position>145 173 214 212</position>
			</node>
			<node id="Hull">
				<name>Hull</name>
				<interior color="ccffcc" />
				<outline color="000080" />
				<font color="000000" name="Arial" size="8" />
				<position>478 38 542 76</position>
			</node>
			<node id="Locationofresponseequipment">
				<name>Location</name>
				<interior color="ccffcc" />
				<outline color="000080" />
				<font color="000000" name="Arial" size="8" />
				<position>262 119 377 159</position>
			</node>
			<node id="Costofcompensation">
				<name>Cost of compensation</name>
				<interior color="ccffcc" />
				<outline color="000080" />
				<font color="000000" name="Arial" size="8" />
				<position>561 51 679 93</position>
			</node>
			<node id="Legal_cost">
				<name>Legal cost</name>
				<interior color="ccffcc" />
				<outline color="000080" />
				<font color="000000" name="Arial" size="8" />
				<position>635 148 723 188</position>
			</node>
			<node id="Impact">
				<name>Social effect</name>
				<interior color="ffcc00" />
				<outline color="000080" />
				<font color="000000" name="Arial" size="8" />
				<position>861 646 978 691</position>
			</node>
			<node id="Response">
				<name>Response</name>
				<interior color="00ff00" />
				<outline color="000080" />
				<font color="000000" name="Arial" size="8" />
				<position>653 225 742 263</position>
			</node>
			<node id="Release">
				<name>Release</name>
				<interior color="00ff00" />
				<outline color="000080" />
				<font color="000000" name="Arial" size="8" />
				<position>449 210 531 245</position>
			</node>
			<node id="Economic_effect">
				<name>Economic effect</name>
				<interior color="ffcc00" />
				<outline color="000080" />
				<font color="000000" name="Arial" size="8" />
				<position>495 612 579 664</position>
			</node>
			<node id="Environmentaleffect">
				<name>Environmental effect</name>
				<interior color="ffcc00" />
				<outline color="000080" />
				<font color="000000" name="Arial" size="8" />
				<position>114 655 212 703</position>
			</node>
			<node id="Destruction_of_flora_and_fauna">
				<name>Destruction of flora and fauna</name>
				<interior color="e5f6f7" />
				<outline color="000080" />
				<font color="000000" name="Arial" size="8" />
				<position>93 532 207 586</position>
			</node>
			<node id="Number_of_response_equipment">
				<name>Response equipment</name>
				<interior color="ccffcc" />
				<outline color="000080" />
				<font color="000000" name="Arial" size="8" />
				<position>317 29 449 83</position>
			</node>
			<node id="Time">
				<name>Time</name>
				<interior color="ccffcc" />
				<outline color="000080" />
				<font color="000000" name="Arial" size="8" />
				<position>835 84 920 124</position>
			</node>
			<node id="Personnel">
				<name>Personnel</name>
				<interior color="ccffcc" />
				<outline color="000080" />
				<font color="000000" name="Arial" size="8" />
				<position>883 168 968 208</position>
			</node>
			<node id="Recovery_method">
				<name>Recovery_method</name>
				<interior color="ff00ff" />
				<outline color="000080" />
				<font color="000000" name="Arial" size="8" />
				<position>991 184 1131 243</position>
			</node>
			<node id="Social_Economic_Env">
				<name>Social_Economic Impact</name>
				<interior color="33cccd" />
				<outline color="000080" />
				<font color="000000" name="Arial" size="8" />
				<position>640 645 757 702</position>
			</node>
			<node id="NORDREG_Zone">
				<name>NORDREG_Zone</name>
				<interior color="ccffcc" />
				<outline color="000080" />
				<font color="000000" name="Arial" size="8" />
				<position>714 73 802 113</position>
			</node>
			<node id="Sea_State">
				<name>Sea State</name>
				<interior color="e5f6f7" />
				<outline color="000080" />
				<font color="000000" name="Arial" size="8" />
				<position>227 178 288 216</position>
			</node>
		</genie>
	</extensions>
</smile>
