<?xml version="1.0" encoding="UTF-8"?>
<smile version="1.0" id="Network1" numsamples="10000" discsamples="10000">
	<nodes>
		<cpt id="Season">
			<state id="Winter" />
			<state id="Spring" />
			<state id="Summer" />
			<state id="Fall" />
			<probabilities>0.3500000000000001 0.2 0.2 0.25</probabilities>
		</cpt>
		<cpt id="Icecover">
			<state id="Large_Presence" />
			<state id="Small_small_or_No" />
			<probabilities>0.5875 0.4125</probabilities>
		</cpt>
		<cpt id="Temperature">
			<state id="High" />
			<state id="Moderate" />
			<state id="Low" />
			<probabilities>0.2000000000000001 0.2 0.6</probabilities>
			<property id="DSL_OUTCOME_ORDER">1</property>
		</cpt>
		<cpt id="Piracy">
			<state id="Presence_of_pirates" />
			<state id="No_pirates" />
			<probabilities>0.1888889 0.8111111</probabilities>
		</cpt>
		<cpt id="Geography_of_voyage">
			<state id="Heavily_ice" />
			<state id="Medium_ice" />
			<state id="Low_ice" />
			<probabilities>0.5 0.3 0.2</probabilities>
		</cpt>
		<cpt id="Experienceofcrew">
			<state id="Low_level_of_experience" />
			<state id="Experienced" />
			<probabilities>0.6375 0.3625</probabilities>
		</cpt>
		<cpt id="Hull">
			<state id="Single_Hull" />
			<state id="Double_Hull" />
			<probabilities>0.172727 0.827273</probabilities>
		</cpt>
		<cpt id="Material_ship_is_made_of">
			<state id="Thin" />
			<state id="Thick" />
			<probabilities>0.4 0.6</probabilities>
		</cpt>
		<cpt id="Holesize">
			<state id="Big" />
			<state id="Small" />
			<parents>Hull Material_ship_is_made_of</parents>
			<probabilities>0.8 0.2 0.7 0.3 0.3 0.6999999999999998 0.2 0.8</probabilities>
		</cpt>
		<cpt id="Accident">
			<state id="Yes" />
			<state id="No" />
			<parents>Season Icecover Temperature Piracy Geography_of_voyage Experienceofcrew Holesize</parents>
			<probabilities>0.7 0.3 0.6 0.4 0.6 0.4 0.5 0.5 0.6 0.4 0.5 0.5 0.5 0.5 0.4 0.6 0.5 0.5 0.4 0.6 0.3 0.7 0.3 0.7 0.7 0.3 0.6 0.4 0.6 0.4 0.5 0.5 0.6 0.4 0.5 0.5 0.4 0.6 0.4 0.6 0.7 0.3 0.7 0.3 0.6 0.4000000000000001 0.7 0.3 0.6 0.4 0.55 0.45 0.5600000000000001 0.4399999999999999 0.4 0.6 0.5600000000000001 0.4399999999999999 0.45 0.55 0.45 0.55 0.34 0.6599999999999999 0.45 0.55 0.34 0.6599999999999999 0.23 0.7699999999999999 0.2 0.7999999999999999 0.6 0.4 0.55 0.45 0.46 0.54 0.45 0.55 0.5600000000000001 0.4399999999999999 0.45 0.55 0.34 0.6599999999999999 0.3 0.7 0.7 0.3 0.7 0.3 0.6 0.4000000000000001 0.55 0.45 0.5600000000000001 0.4399999999999999 0.45 0.55 0.46 0.54 0.34 0.6599999999999999 0.46 0.54 0.35 0.65 0.34 0.6599999999999999 0.24 0.76 0.35 0.65 0.24 0.76 0.13 0.87 0.12 0.88 0.5600000000000001 0.4399999999999999 0.45 0.55 0.36 0.64 0.35 0.65 0.46 0.54 0.35 0.65 0.24 0.76 0.2 0.7999999999999999 0.6 0.4 0.6 0.4 0.55 0.45 0.45 0.55 0.7 0.3 0.75 0.25 0.78 0.22 0.77 0.23 0.7 0.3 0.6 0.4000000000000001 0.6 0.4000000000000001 0.7 0.3 0.7 0.3 0.68 0.3199999999999999 0.68 0.3199999999999999 0.58 0.4200000000000001 0.6899999999999999 0.3100000000000001 0.7 0.3 0.6899999999999999 0.3100000000000001 0.67 0.33 0.6 0.4 0.5 0.5 0.5600000000000001 0.4399999999999999 0.67 0.33 0.57 0.43 0.58 0.42 0.58 0.42 0.48 0.52 0.6899999999999999 0.3100000000000001 0.71 0.29 0.74 0.26 0.72 0.28 0.68 0.32 0.59 0.41 0.58 0.42 0.68 0.32 0.67 0.33 0.65 0.35 0.58 0.42 0.48 0.52 0.59 0.41 0.6 0.4 0.65 0.35 0.6 0.4 0.5 0.5 0.4 0.6 0.46 0.54 0.57 0.43 0.47 0.53 0.38 0.62 0.48 0.52 0.38 0.62 0.46 0.54 0.35 0.65 0.36 0.64 0.24 0.76 0.36 0.64 0.25 0.75 0.24 0.76 0.14 0.86 0.25 0.75 0.14 0.86 0.11 0.89 0.1 0.9 0.46 0.54 0.35 0.65 0.26 0.74 0.25 0.75 0.36 0.64 0.25 0.75 0.14 0.86 0.1 0.9 0.55 0.45 0.5600000000000001 0.4399999999999999 0.57 0.43 0.34 0.6599999999999999 0.36 0.64 0.25 0.75 0.26 0.74 0.14 0.86 0.26 0.74 0.15 0.85 0.14 0.86 0.1 0.9 0.15 0.85 0.1 0.9 0.09 0.91 0.06 0.9399999999999999 0.36 0.64 0.25 0.75 0.16 0.84 0.15 0.85 0.26 0.74 0.15 0.85 0.1 0.9 0.09 0.91 0.45 0.55 0.46 0.54 0.47 0.53 0.24 0.76 0.35 0.65 0.23 0.77 0.3 0.7000000000000001 0.14 0.86 0.16 0.84 0.05 0.9500000000000001 0.04 0.96 0.01 0.99 0.05 0.9500000000000001 0.01 0.99 0.008999999999999999 0.991 0.006 0.994 0.26 0.74 0.15 0.85 0.06 0.9399999999999999 0.05 0.9500000000000001 0.16 0.84 0.05 0.9500000000000001 0.01 0.99 0.008999999999999999 0.991 0.35 0.65 0.36 0.64 0.37 0.63 0.14 0.86 0.45 0.55 0.33 0.6699999999999998 0.4 0.6 0.24 0.76 0.26 0.74 0.15 0.85 0.14 0.86 0.11 0.89 0.15 0.85 0.11 0.89 0.01 0.99 0.007 0.993 0.36 0.64 0.25 0.75 0.07000000000000001 0.9299999999999999 0.06 0.9399999999999999 0.17 0.83 0.06 0.9399999999999999 0.02 0.98 0.01 0.99 0.4 0.6 0.46 0.54 0.47 0.53 0.24 0.76 0.16 0.84 0.05 0.9499999999999998 0.06 0.9400000000000001 0.04 0.96 0.03 0.97 0.01 0.9900000000000001 0.094 0.9059999999999999 0.01 0.99 0.05 0.9500000000000001 0.01 0.99 0.008999999999999999 0.991 0.006 0.994 0.16 0.84 0.05 0.9499999999999998 0.006 0.994 0.005 0.995 0.06 0.9400000000000001 0.03 0.9700000000000001 0.01 0.99 0.008999999999999999 0.991 0.15 0.85 0.16 0.84 0.17 0.83 0.04 0.9600000000000001 0.15 0.85 0.03 0.97 0.1 0.9000000000000001 0.04 0.96 0.06 0.9399999999999999 0.01 0.9899999999999999 0.002 0.998 0.001 0.999 0.01 0.9899999999999999 0.001 0.999 0.002 0.998 0.001 0.999 0.06 0.9400000000000001 0.05 0.9500000000000001 0.02 0.98 0.01 0.9899999999999999 0.01 0.99 0.002 0.998 0.001 0.999 0.0009 0.9991 0.15 0.85 0.16 0.84 0.17 0.8300000000000001 0.04 0.96 0.05 0.9499999999999998 0.03 0.97 0.1 0.9000000000000001 0.04 0.9600000000000001 0.06 0.9400000000000001 0.02 0.98 0.04 0.96 0.01 0.99 0.05 0.9500000000000001 0.01 0.99 0.001 0.999 0.0007 0.9993 0.16 0.84 0.05 0.9499999999999998 0.05 0.9500000000000001 0.04 0.96 0.15 0.85 0.03 0.97 0.001 0.999 0.001 0.999 0.1 0.9000000000000001 0.1 0.9 0.2 0.8 0.1 0.9 0.39 0.61 0.29 0.71 0.29 0.71 0.16 0.84 0.29 0.71 0.18 0.8200000000000001 0.16 0.84 0.2 0.8 0.18 0.8200000000000001 0.2 0.8 0.1 0.9 0.07000000000000001 0.9299999999999999 0.39 0.61 0.3 0.6999999999999998 0.2 0.8 0.2 0.8 0.3 0.7000000000000001 0.2 0.8 0.2 0.8 0.1 0.9 0.5 0.5 0.5 0.5 0.49 0.51 0.26 0.74 0.4 0.6 0.3 0.6999999999999998 0.4 0.6 0.2 0.8 0.21 0.79 0.09 0.91 0.05 0.95 0.04 0.96 0.08 0.92 0.04 0.96 0.05 0.95 0.02 0.98 0.29 0.71 0.19 0.8100000000000001 0.08 0.92 0.07000000000000001 0.9299999999999999 0.19 0.8100000000000001 0.08 0.92 0.05 0.9500000000000001 0.01 0.99 0.38 0.62 0.38 0.62 0.39 0.61 0.18 0.8200000000000001 0.49 0.51 0.36 0.64 0.9 0.09999999999999998 0.29 0.71 0.28 0.72 0.17 0.83 0.17 0.83 0.1 0.9 0.19 0.8100000000000001 0.1 0.9 0.04 0.96 0.008 0.992 0.38 0.62 0.28 0.7200000000000001 0.09 0.91 0.08 0.92 0.18 0.8200000000000001 0.08 0.92 0.03 0.97 0.02 0.98 0.5 0.5 0.47 0.53 0.49 0.51 0.27 0.73 0.19 0.8100000000000001 0.09 0.91 0.08 0.92 0.08 0.92 0.04 0.96 0.03 0.97 0.01 0.99 0.02 0.98 0.06 0.9399999999999999 0.02 0.98 0.01 0.99 0.007 0.993 0.18 0.8200000000000002 0.07000000000000001 0.9299999999999999 0.008 0.992 0.006 0.994 0.08 0.92 0.04 0.96 0.03 0.97 0.01 0.99 0.18 0.8200000000000001 0.18 0.8200000000000002 0.17 0.83 0.06 0.9399999999999999 0.17 0.83 0.04 0.96 0.2 0.8 0.06 0.9399999999999999 0.08 0.92 0.03 0.97 0.004 0.996 0.003 0.997 0.03 0.97 0.003 0.997 0.004 0.996 0.002 0.998 0.09 0.91 0.08 0.92 0.05 0.95 0.03 0.97 0.05 0.9500000000000001 0.004 0.996 0.003 0.997 0.001 0.999 0.19 0.8100000000000001 0.19 0.8100000000000001 0.19 0.8100000000000001 0.06 0.9399999999999999 0.07000000000000001 0.9299999999999999 0.04 0.96 0.2 0.8 0.06 0.9399999999999999 0.08 0.92 0.04 0.96 0.06 0.9399999999999999 0.03 0.97 0.07000000000000001 0.9299999999999999 0.03 0.97 0.003 0.997 0.0009 0.9991 0.18 0.8200000000000002 0.07000000000000001 0.9299999999999999 0.08 0.92 0.06 0.9399999999999999 0.17 0.83 0.05 0.9500000000000001 0.003 0.997 0.002 0.998 0.18 0.8200000000000002 0.06 0.9399999999999999 0.004 0.996 0.003 0.997 0.38 0.62 0.28 0.72 0.28 0.72 0.14 0.86 0.26 0.74 0.16 0.8400000000000001 0.14 0.86 0.09 0.91 0.14 0.86 0.09 0.91 0.08 0.92 0.05 0.9500000000000001 0.25 0.75 0.1 0.9 0.09 0.91 0.09 0.91 0.15 0.8500000000000001 0.09 0.91 0.01 0.99 0.008999999999999999 0.991 0.4 0.6 0.4 0.6 0.3 0.7 0.24 0.76 0.3 0.7 0.2 0.8 0.3 0.7 0.1 0.9 0.11 0.89 0.07000000000000001 0.9299999999999999 0.02 0.98 0.01 0.99 0.05 0.95 0.02 0.98 0.02 0.98 0.008999999999999999 0.991 0.19 0.8100000000000002 0.15 0.85 0.04 0.96 0.05 0.9500000000000001 0.15 0.85 0.06 0.9399999999999999 0.02 0.98 0.008999999999999999 0.991 0.34 0.6599999999999999 0.33 0.6699999999999999 0.32 0.6799999999999999 0.17 0.83 0.46 0.54 0.34 0.6599999999999999 0.7 0.3 0.23 0.77 0.25 0.7500000000000001 0.14 0.86 0.15 0.85 0.09 0.91 0.16 0.84 0.09 0.91 0.02 0.98 0.005 0.995 0.34 0.6599999999999999 0.24 0.7599999999999999 0.001 0.999 0.0009 0.9991 0.15 0.85 0.06 0.9399999999999999 0.01 0.99 0.01 0.99 0.3 0.7 0.43 0.5700000000000001 0.44 0.5600000000000001 0.24 0.76 0.16 0.84 0.07000000000000001 0.9299999999999999 0.05 0.95 0.07000000000000001 0.9299999999999999 0.02 0.98 0.01 0.99 0.008999999999999999 0.991 0.008999999999999999 0.991 0.04 0.96 0.01 0.99 0.008999999999999999 0.991 0.004 0.996 0.15 0.8500000000000001 0.05 0.9500000000000001 0.004 0.996 0.006 0.994 0.05 0.95 0.02 0.98 0.01 0.99 0.008999999999999999 0.991 0.15 0.85 0.16 0.84 0.16 0.84 0.04 0.96 0.15 0.85 0.02 0.98 0.1 0.9 0.06 0.9399999999999999 0.06 0.9399999999999999 0.02 0.98 0.001 0.999 0.0009 0.9991 0.01 0.99 0.001 0.999 0.001 0.999 0.0009 0.9991 0.06 0.9399999999999999 0.02 0.98 0.01 0.9900000000000001 0.008999999999999999 0.991 0.01 0.9899999999999999 0.001 0.999 0.002 0.998 0.0009 0.9991 0.15 0.85 0.12 0.8800000000000001 0.14 0.86 0.04 0.96 0.05 0.9500000000000001 0.02 0.98 0.2 0.8000000000000002 0.06 0.9399999999999999 0.04 0.96 0.01 0.99 0.04 0.96 0.01 0.99 0.05 0.9500000000000001 0.01 0.99 0.001 0.999 0.0005 0.9995000000000001 0.14 0.86 0.05 0.9500000000000001 0.05 0.95 0.04 0.96 0.15 0.85 0.02 0.98 0.003 0.997 0.002 0.998 0.16 0.84 0.04 0.96 0.002 0.998 0.001 0.999</probabilities>
		</cpt>
		<cpt id="Quantityofoil">
			<state id="T_greatherthan_700" />
			<state id="T_7_700" />
			<state id="T_lessthan_7" />
			<parents>Accident</parents>
			<probabilities>0.04999999999999994 0.15 0.8 0.001000000000000001 0.05 0.949</probabilities>
			<property id="DSL_OUTCOME_ORDER">1</property>
		</cpt>
		<cpt id="Typeofoil">
			<state id="Extra_Heavy" />
			<state id="Heavy" />
			<state id="Medium" />
			<state id="Light" />
			<probabilities>0.1 0.2 0.2 0.5</probabilities>
			<property id="DSL_OUTCOME_ORDER">1</property>
		</cpt>
		<cpt id="Type_of_hydrocarbon_released">
			<state id="Toxic" />
			<state id="Non_toxic" />
			<parents>Typeofoil</parents>
			<probabilities>0.6 0.4 0.6 0.4 0.7 0.3 0.8 0.2</probabilities>
		</cpt>
		<cpt id="Type_of_ship">
			<state id="Cruise" />
			<state id="Oil_tanker" />
			<state id="Boats" />
			<probabilities>0.7 0.1 0.2</probabilities>
		</cpt>
		<cpt id="Type_of_engine">
			<state id="High_energy" />
			<state id="Low_energy" />
			<probabilities>0.7 0.3</probabilities>
		</cpt>
		<cpt id="Age_of_vessel">
			<state id="T15_20" />
			<state id="T10_15" />
			<state id="T5_10" />
			<state id="T1_5" />
			<probabilities>0.6 0.25 0.09999999999999999 0.05000000000000003</probabilities>
		</cpt>
		<cpt id="Size_of_ship">
			<state id="Big" />
			<state id="Small" />
			<probabilities>0.7 0.3</probabilities>
		</cpt>
		<cpt id="Year_of_manufacture_of_ship">
			<state id="T2000_2005" />
			<state id="T2005_2010" />
			<state id="T2010_2015" />
			<state id="T2015_2020" />
			<probabilities>0.4 0.1 0.4 0.1</probabilities>
		</cpt>
		<cpt id="Daysexpectedtospendatsea">
			<state id="T20_25" />
			<state id="T15_20" />
			<state id="T10_15" />
			<state id="T5_10" />
			<parents>Age_of_vessel Experienceofcrew Size_of_ship Year_of_manufacture_of_ship</parents>
			<probabilities>0.3 0.3 0.3 0.09999999999999998 0.27 0.27 0.24 0.22 0.268 0.238 0.265 0.229 0.22 0.22 0.22 0.3400000000000001 0.4 0.22 0.22 0.16 0.4799999999999999 0.25 0.18 0.09 0.45 0.26 0.2 0.09 0.42 0.27 0.21 0.1 0.4 0.2 0.2 0.2000000000000001 0.27 0.27 0.24 0.22 0.268 0.238 0.265 0.229 0.22 0.22 0.22 0.3400000000000001 0.4 0.22 0.22 0.16 0.4799999999999999 0.25 0.18 0.09 0.45 0.26 0.2 0.09 0.42 0.27 0.21 0.1 0.4 0.3 0.2 0.1 0.5 0.2 0.15 0.1499999999999999 0.55 0.18 0.16 0.1099999999999999 0.6 0.15 0.15 0.09999999999999998 0.6 0.2 0.16 0.03999999999999992 0.59 0.2 0.15 0.05999999999999994 0.58 0.197 0.145 0.07799999999999996 0.579 0.19 0.139 0.09200000000000008 0.25 0.35 0.25 0.15 0.3000000000000001 0.3 0.2 0.2 0.2500000000000001 0.3 0.25 0.2 0.35 0.25 0.25 0.15 0.4600000000000001 0.3 0.18 0.06 0.4799999999999999 0.25 0.18 0.09 0.45 0.26 0.2 0.09 0.42 0.27 0.21 0.1 0.3 0.3 0.3 0.09999999999999998 0.27 0.27 0.24 0.22 0.268 0.238 0.265 0.229 0.22 0.22 0.22 0.3400000000000001 0.4 0.22 0.22 0.16 0.4799999999999999 0.25 0.18 0.09 0.45 0.26 0.2 0.09 0.42 0.27 0.21 0.1 0.4 0.2 0.2 0.2000000000000001 0.27 0.27 0.24 0.22 0.268 0.238 0.265 0.229 0.22 0.22 0.22 0.3400000000000001 0.4 0.22 0.22 0.16 0.4799999999999999 0.25 0.18 0.09 0.45 0.26 0.2 0.09 0.42 0.27 0.21 0.1 0.4 0.3 0.2 0.1 0.5 0.2 0.15 0.1499999999999999 0.55 0.18 0.16 0.1099999999999999 0.6 0.15 0.15 0.09999999999999998 0.6 0.2 0.16 0.03999999999999992 0.59 0.2 0.15 0.05999999999999994 0.58 0.197 0.145 0.07799999999999996 0.579 0.19 0.139 0.09200000000000008 0.25 0.35 0.25 0.15 0.3000000000000001 0.3 0.2 0.2 0.2500000000000001 0.3 0.25 0.2 0.35 0.25 0.25 0.15 0.4600000000000001 0.3 0.18 0.06 0.4799999999999999 0.25 0.18 0.09 0.45 0.26 0.2 0.09 0.42 0.27 0.21 0.1</probabilities>
		</cpt>
		<cpt id="Sea_State">
			<state id="Rough" />
			<state id="Calm" />
			<probabilities>0.3 0.7</probabilities>
		</cpt>
		<cpt id="Release">
			<state id="High" />
			<state id="Low" />
			<parents>Hull Accident Sea_State Quantityofoil</parents>
			<probabilities>0.737894528 0.262105472 0.588 0.412 0.35 0.65 0.57624 0.42376 0.588 0.412 0.35 0.65 0.5647152 0.4352848 0.588 0.412 0.3 0.7000000000000001 0.57624 0.42376 0.588 0.412 0.3 0.7000000000000001 0.553420896 0.446579104 0.392 0.608 0.1 0.9 0.38416 0.6158400000000001 0.392 0.608 0.1 0.9 0.3764768 0.6235232000000001 0.392 0.608 0.05 0.9500000000000001 0.38416 0.6158400000000001 0.392 0.608 0.05 0.9500000000000001</probabilities>
		</cpt>
		<cpt id="NORDREG_Zone">
			<state id="Yes" />
			<state id="No" />
			<probabilities>0.202531646 0.797468354</probabilities>
		</cpt>
		<cpt id="Legal_cost">
			<state id="High" />
			<state id="Low" />
			<parents>NORDREG_Zone</parents>
			<probabilities>0.9 0.1 0.6 0.4</probabilities>
		</cpt>
		<cpt id="Costofcompensation">
			<state id="High" />
			<state id="Low" />
			<parents>Release Legal_cost</parents>
			<probabilities>0.96 0.04000000000000004 0.8 0.2 0.6 0.4 0.2 0.8</probabilities>
		</cpt>
		<cpt id="Economic_effect">
			<state id="High" />
			<state id="Low" />
			<parents>Experienceofcrew Geography_of_voyage Type_of_engine Age_of_vessel Material_ship_is_made_of Daysexpectedtospendatsea Costofcompensation Quantityofoil</parents>
			<probabilities>0.8794999999999999 0.1205 0.6495 0.3505 0.4995 0.5004999999999999 0.879 0.121 0.649 0.351 0.499 0.501 0.8784999999999999 0.1215 0.6485 0.3515 0.4985 0.5014999999999999 0.878 0.122 0.648 0.352 0.498 0.502 0.8774999999999999 0.1225 0.6475 0.3525 0.4975 0.5024999999999999 0.877 0.123 0.647 0.353 0.497 0.503 0.8764999999999999 0.1235 0.6465 0.3535 0.4965 0.5034999999999999 0.876 0.124 0.646 0.354 0.496 0.504 0.8754999999999999 0.1245 0.6455 0.3545 0.4955 0.5044999999999999 0.875 0.125 0.645 0.355 0.495 0.505 0.8745000000000001 0.1255 0.6445 0.3555 0.4945 0.5054999999999999 0.874 0.126 0.644 0.356 0.494 0.506 0.8735000000000001 0.1265 0.6435 0.3565 0.4935 0.5065 0.873 0.127 0.643 0.357 0.493 0.507 0.8725000000000001 0.1275 0.6425 0.3575 0.4925 0.5075 0.872 0.128 0.642 0.358 0.492 0.508 0.8715000000000001 0.1285 0.6415 0.3585 0.4915 0.5085 0.871 0.129 0.641 0.359 0.491 0.509 0.8705000000000001 0.1295 0.6405 0.3595 0.4905 0.5095 0.87 0.13 0.64 0.36 0.49 0.51 0.8695000000000001 0.1305 0.6395 0.3605 0.4895 0.5105 0.869 0.131 0.639 0.361 0.489 0.511 0.8685 0.1315 0.6385 0.3615 0.4885 0.5115 0.868 0.132 0.638 0.362 0.488 0.512 0.8675 0.1325 0.6375 0.3625 0.4875 0.5125 0.867 0.133 0.637 0.363 0.487 0.513 0.8665 0.1335 0.6365 0.3635 0.4865 0.5135 0.866 0.134 0.636 0.364 0.486 0.514 0.8655 0.1345 0.6355 0.3645 0.4855 0.5145 0.865 0.135 0.635 0.365 0.485 0.515 0.8645 0.1355 0.6345 0.3655 0.4845 0.5155 0.864 0.136 0.634 0.366 0.484 0.516 0.8635 0.1365 0.6335 0.3665 0.4835 0.5165 0.863 0.137 0.633 0.367 0.483 0.517 0.8625 0.1375 0.6325 0.3675 0.4825 0.5175 0.862 0.138 0.632 0.368 0.482 0.518 0.8615 0.1385 0.6315 0.3685 0.4815 0.5185 0.861 0.139 0.631 0.369 0.481 0.519 0.8605 0.1395 0.6304999999999999 0.3695 0.4805 0.5195 0.86 0.14 0.63 0.37 0.48 0.52 0.8595 0.1405 0.6294999999999999 0.3705 0.4795 0.5205 0.859 0.141 0.629 0.371 0.479 0.521 0.8585 0.1415 0.6284999999999999 0.3715 0.4785 0.5215 0.858 0.142 0.628 0.372 0.478 0.522 0.8575 0.1425 0.6274999999999999 0.3725 0.4775 0.5225 0.857 0.143 0.627 0.373 0.477 0.523 0.8565 0.1435 0.6264999999999999 0.3735 0.4765 0.5235 0.856 0.144 0.626 0.374 0.476 0.524 0.8555 0.1445 0.6254999999999999 0.3745 0.4755 0.5245 0.855 0.145 0.625 0.375 0.475 0.525 0.8545 0.1455 0.6245000000000001 0.3755 0.4745 0.5255 0.854 0.146 0.624 0.376 0.474 0.526 0.8535 0.1465 0.6235000000000001 0.3765 0.4735 0.5265 0.853 0.147 0.623 0.377 0.473 0.527 0.8525 0.1475 0.6225000000000001 0.3775 0.4725 0.5275 0.852 0.148 0.622 0.378 0.472 0.528 0.8515 0.1485 0.6215000000000001 0.3785 0.4715 0.5285 0.851 0.149 0.621 0.379 0.471 0.529 0.8505 0.1495 0.6205000000000001 0.3795 0.4705 0.5295 0.85 0.15 0.62 0.38 0.47 0.53 0.8495 0.1505 0.6195000000000001 0.3805 0.4695 0.5305 0.849 0.151 0.619 0.381 0.469 0.531 0.8485 0.1515 0.6185 0.3815 0.4685 0.5315 0.848 0.152 0.618 0.382 0.468 0.532 0.8475 0.1525 0.6175 0.3825 0.4675 0.5325 0.847 0.153 0.617 0.383 0.467 0.533 0.8465 0.1535 0.6165 0.3835 0.4665 0.5335 0.846 0.154 0.616 0.384 0.466 0.534 0.8455 0.1545 0.6155 0.3845 0.4655 0.5345 0.845 0.155 0.615 0.385 0.465 0.535 0.8445 0.1555 0.6145 0.3855 0.4645 0.5355 0.844 0.156 0.614 0.386 0.464 0.536 0.8435 0.1565 0.6135 0.3865 0.4635 0.5365 0.843 0.157 0.613 0.387 0.463 0.537 0.8425 0.1575 0.6125 0.3875 0.4625 0.5375 0.842 0.158 0.612 0.388 0.462 0.538 0.8415 0.1585 0.6115 0.3885 0.4615 0.5385 0.841 0.159 0.611 0.389 0.461 0.539 0.8405 0.1595 0.6105 0.3895 0.4605 0.5395 0.84 0.16 0.61 0.39 0.46 0.54 0.8395 0.1605 0.6095 0.3905 0.4595 0.5405 0.839 0.161 0.609 0.391 0.459 0.541 0.8385 0.1615 0.6085 0.3915 0.4585 0.5415 0.838 0.162 0.608 0.392 0.458 0.542 0.8375 0.1625 0.6075 0.3925 0.4575 0.5425 0.837 0.163 0.607 0.393 0.457 0.543 0.8365 0.1635 0.6065 0.3935 0.4565 0.5435 0.836 0.164 0.606 0.394 0.456 0.544 0.8355 0.1645 0.6055 0.3945 0.4555 0.5445 0.835 0.165 0.605 0.395 0.455 0.545 0.8345 0.1655 0.6045 0.3955 0.4545 0.5455 0.834 0.166 0.604 0.396 0.454 0.546 0.8335 0.1665 0.6035 0.3965 0.4535 0.5465 0.833 0.167 0.603 0.397 0.453 0.547 0.8325 0.1675 0.6025 0.3975 0.4525 0.5475 0.832 0.168 0.602 0.398 0.452 0.548 0.8315 0.1685 0.6015 0.3985 0.4515 0.5485 0.831 0.169 0.601 0.399 0.451 0.549 0.8305 0.1695 0.6005 0.3995 0.4505 0.5495 0.83 0.17 0.6 0.4 0.45 0.55 0.8295 0.1705 0.5995 0.4005 0.4495 0.5505 0.829 0.171 0.599 0.401 0.449 0.551 0.8285 0.1715 0.5985 0.4015 0.4485 0.5515 0.828 0.172 0.598 0.402 0.448 0.552 0.8275 0.1725 0.5975 0.4025 0.4475 0.5525 0.827 0.173 0.597 0.403 0.447 0.553 0.8265 0.1735 0.5965 0.4035 0.4465 0.5535 0.826 0.174 0.596 0.404 0.446 0.554 0.8255 0.1745 0.5955 0.4045 0.4455 0.5545 0.825 0.175 0.595 0.405 0.445 0.555 0.8245 0.1755 0.5945 0.4055 0.4445 0.5555 0.824 0.176 0.594 0.406 0.444 0.556 0.8235 0.1765 0.5935 0.4065 0.4435 0.5565 0.823 0.177 0.593 0.407 0.443 0.5570000000000001 0.8225 0.1775 0.5925 0.4075 0.4425 0.5575 0.822 0.178 0.592 0.408 0.442 0.5580000000000001 0.8215 0.1785 0.5915 0.4085 0.4415 0.5585 0.821 0.179 0.591 0.409 0.441 0.5590000000000001 0.8205 0.1795 0.5905 0.4095 0.4405 0.5595 0.82 0.18 0.59 0.41 0.44 0.5600000000000001 0.8195 0.1805 0.5895 0.4105 0.4395 0.5605 0.819 0.181 0.589 0.411 0.439 0.5610000000000001 0.8185 0.1815 0.5885 0.4115 0.4385 0.5615 0.8179999999999999 0.182 0.588 0.412 0.438 0.5620000000000001 0.8175 0.1825 0.5875 0.4125 0.4375 0.5625 0.8169999999999999 0.183 0.587 0.413 0.437 0.5629999999999999 0.8165 0.1835 0.5865 0.4135 0.4365 0.5635 0.8159999999999999 0.184 0.586 0.414 0.436 0.5639999999999999 0.8155 0.1845 0.5855 0.4145 0.4355 0.5645 0.8149999999999999 0.185 0.585 0.415 0.435 0.5649999999999999 0.8145 0.1855 0.5845 0.4155 0.4345 0.5655 0.8139999999999999 0.186 0.584 0.416 0.434 0.5659999999999999 0.8135 0.1865 0.5835 0.4165 0.4335 0.5665 0.8129999999999999 0.187 0.583 0.417 0.433 0.5669999999999999 0.8125 0.1875 0.5825 0.4175 0.4325 0.5675 0.8120000000000001 0.188 0.582 0.418 0.432 0.5679999999999999 0.8115 0.1885 0.5815 0.4185 0.4315 0.5685 0.8110000000000001 0.189 0.581 0.419 0.431 0.569 0.8105 0.1895 0.5805 0.4195 0.4305 0.5695 0.8100000000000001 0.19 0.58 0.42 0.43 0.57 0.8095 0.1905 0.5795 0.4205 0.4295 0.5705 0.8090000000000001 0.191 0.579 0.421 0.429 0.571 0.8085 0.1915 0.5785 0.4215 0.4285 0.5715 0.8080000000000001 0.192 0.578 0.422 0.428 0.572 0.8075 0.1925 0.5775 0.4225 0.4275 0.5725 0.8070000000000001 0.193 0.577 0.423 0.427 0.573 0.8065 0.1935 0.5765 0.4235 0.4265 0.5735 0.806 0.194 0.576 0.424 0.426 0.574 0.8055 0.1945 0.5755 0.4245 0.4255 0.5745 0.805 0.195 0.575 0.425 0.425 0.575 0.8045 0.1955 0.5745 0.4255 0.4245 0.5755 0.804 0.196 0.574 0.426 0.424 0.576 0.8035 0.1965 0.5735 0.4265 0.4235 0.5765 0.803 0.197 0.573 0.427 0.423 0.577 0.8025 0.1975 0.5725 0.4275 0.4225 0.5775 0.802 0.198 0.572 0.428 0.422 0.578 0.8015 0.1985 0.5715 0.4285 0.4215 0.5785 0.801 0.199 0.571 0.429 0.421 0.579 0.8005 0.1995 0.5705 0.4295 0.4205 0.5795 0.8 0.2 0.57 0.43 0.42 0.58 0.7995 0.2005 0.5695 0.4305 0.4195 0.5805 0.799 0.201 0.569 0.431 0.419 0.581 0.7985 0.2015 0.5685 0.4315 0.4185 0.5815 0.798 0.202 0.5679999999999999 0.432 0.418 0.582 0.7975 0.2025 0.5675 0.4325 0.4175 0.5825 0.797 0.203 0.5669999999999999 0.433 0.417 0.583 0.7965 0.2035 0.5665 0.4335 0.4165 0.5835 0.796 0.204 0.5659999999999999 0.434 0.416 0.584 0.7955 0.2045 0.5655 0.4345 0.4155 0.5845 0.795 0.205 0.5649999999999999 0.435 0.415 0.585 0.7945 0.2055 0.5645 0.4355 0.4145 0.5855 0.794 0.206 0.5639999999999999 0.436 0.414 0.586 0.7935 0.2065 0.5635 0.4365 0.4135 0.5865 0.793 0.207 0.5629999999999999 0.437 0.413 0.587 0.7925 0.2075 0.5625 0.4375 0.4125 0.5875 0.792 0.208 0.5620000000000001 0.438 0.412 0.588 0.7915 0.2085 0.5615 0.4385 0.4115 0.5885 0.791 0.209 0.5610000000000001 0.439 0.411 0.589 0.7905 0.2095 0.5605 0.4395 0.4105 0.5895 0.79 0.21 0.5600000000000001 0.44 0.41 0.59 0.7895 0.2105 0.5595 0.4405 0.4095 0.5905 0.789 0.211 0.5590000000000001 0.441 0.409 0.591 0.7885 0.2115 0.5585 0.4415 0.4085 0.5915 0.788 0.212 0.5580000000000001 0.442 0.408 0.592 0.7875 0.2125 0.5575 0.4425 0.4075 0.5925 0.787 0.213 0.5570000000000001 0.443 0.407 0.593 0.7865 0.2135 0.5565 0.4435 0.4065 0.5935 0.786 0.214 0.556 0.444 0.406 0.594 0.7855 0.2145 0.5555 0.4445 0.4055 0.5945 0.785 0.215 0.555 0.445 0.405 0.595 0.7845 0.2155 0.5545 0.4455 0.4045 0.5955 0.784 0.216 0.554 0.446 0.404 0.596 0.7835 0.2165 0.5535 0.4465 0.4035 0.5965 0.783 0.217 0.553 0.447 0.403 0.597 0.7825 0.2175 0.5525 0.4475 0.4025 0.5975 0.782 0.218 0.552 0.448 0.402 0.598 0.7815 0.2185 0.5515 0.4485 0.4015 0.5985 0.781 0.219 0.551 0.449 0.401 0.599 0.7805 0.2195 0.5505 0.4495 0.4005 0.5995 0.78 0.22 0.55 0.45 0.4 0.6 0.7795 0.2205 0.5495 0.4505 0.3995 0.6005 0.779 0.221 0.549 0.451 0.399 0.601 0.7785 0.2215 0.5485 0.4515 0.3985 0.6015 0.778 0.222 0.548 0.452 0.398 0.602 0.7775 0.2225 0.5475 0.4525 0.3975 0.6025 0.777 0.223 0.547 0.453 0.397 0.603 0.7765 0.2235 0.5465 0.4535 0.3965 0.6035 0.776 0.224 0.546 0.454 0.396 0.604 0.7755 0.2245 0.5455 0.4545 0.3955 0.6045 0.775 0.225 0.545 0.455 0.395 0.605 0.7745 0.2255 0.5445 0.4555 0.3945 0.6055 0.774 0.226 0.544 0.456 0.394 0.606 0.7735 0.2265 0.5435 0.4565 0.3935 0.6065 0.773 0.227 0.543 0.457 0.393 0.607 0.7725 0.2275 0.5425 0.4575 0.3925 0.6075 0.772 0.228 0.542 0.458 0.392 0.608 0.7715 0.2285 0.5415 0.4585 0.3915 0.6085 0.771 0.229 0.541 0.459 0.391 0.609 0.7705 0.2295 0.5405 0.4595 0.3905 0.6095 0.77 0.23 0.54 0.46 0.39 0.61 0.7695 0.2305 0.5395 0.4605 0.3895 0.6105 0.769 0.231 0.539 0.461 0.389 0.611 0.7685 0.2315 0.5385 0.4615 0.3885 0.6115 0.768 0.232 0.538 0.462 0.388 0.612 0.7675 0.2325 0.5375 0.4625 0.3875 0.6125 0.767 0.233 0.537 0.463 0.387 0.613 0.7665 0.2335 0.5365 0.4635 0.3865 0.6135 0.766 0.234 0.536 0.464 0.386 0.614 0.7655 0.2345 0.5355 0.4645 0.3855 0.6145 0.765 0.235 0.535 0.465 0.385 0.615 0.7645 0.2355 0.5345 0.4655 0.3845 0.6155 0.764 0.236 0.534 0.466 0.384 0.616 0.7635 0.2365 0.5335 0.4665 0.3835 0.6165 0.763 0.237 0.533 0.467 0.383 0.617 0.7625 0.2375 0.5325 0.4675 0.3825 0.6175 0.762 0.238 0.532 0.468 0.382 0.618 0.7615 0.2385 0.5315 0.4685 0.3815 0.6185 0.761 0.239 0.531 0.469 0.381 0.619 0.7605 0.2395 0.5305 0.4695 0.3805 0.6195000000000001 0.76 0.24 0.53 0.47 0.38 0.62 0.7595 0.2405 0.5295 0.4705 0.3795 0.6205000000000001 0.759 0.241 0.529 0.471 0.379 0.621 0.7585 0.2415 0.5285 0.4715 0.3785 0.6215000000000001 0.758 0.242 0.528 0.472 0.378 0.622 0.7575 0.2425 0.5275 0.4725 0.3775 0.6225000000000001 0.757 0.243 0.527 0.473 0.377 0.623 0.7565 0.2435 0.5265 0.4735 0.3765 0.6235000000000001 0.756 0.244 0.526 0.474 0.376 0.624 0.7554999999999999 0.2445 0.5255 0.4745 0.3755 0.6245000000000001 0.755 0.245 0.525 0.475 0.375 0.625 0.7544999999999999 0.2455 0.5245 0.4755 0.3745 0.6254999999999999 0.754 0.246 0.524 0.476 0.374 0.626 0.7534999999999999 0.2465 0.5235 0.4765 0.3735 0.6264999999999999 0.753 0.247 0.523 0.477 0.373 0.627 0.7524999999999999 0.2475 0.5225 0.4775 0.3725 0.6274999999999999 0.752 0.248 0.522 0.478 0.372 0.628 0.7514999999999999 0.2485 0.5215 0.4785 0.3715 0.6284999999999999 0.751 0.249 0.521 0.479 0.371 0.629 0.7504999999999999 0.2495 0.5205 0.4795 0.3705 0.6294999999999999 0.75 0.25 0.52 0.48 0.37 0.63 0.7495000000000001 0.2505 0.5195 0.4805 0.3695 0.6304999999999999 0.749 0.251 0.519 0.481 0.369 0.631 0.7485000000000001 0.2515 0.5185 0.4815 0.3685 0.6315 0.748 0.252 0.518 0.482 0.368 0.632 0.7475000000000001 0.2525 0.5175 0.4825 0.3675 0.6325 0.747 0.253 0.517 0.483 0.367 0.633 0.7465000000000001 0.2535 0.5165 0.4835 0.3665 0.6335 0.746 0.254 0.516 0.484 0.366 0.634 0.7455000000000001 0.2545 0.5155 0.4845 0.3655 0.6345 0.745 0.255 0.515 0.485 0.365 0.635 0.7445000000000001 0.2555 0.5145 0.4855 0.3645 0.6355 0.744 0.256 0.514 0.486 0.364 0.636 0.7435 0.2565 0.5135 0.4865 0.3635 0.6365 0.743 0.257 0.513 0.487 0.363 0.637 0.7425 0.2575 0.5125 0.4875 0.3625 0.6375 0.742 0.258 0.512 0.488 0.362 0.638 0.7415 0.2585 0.5115 0.4885 0.3615 0.6385 0.741 0.259 0.511 0.489 0.361 0.639 0.7405 0.2595 0.5105 0.4895 0.3605 0.6395 0.74 0.26 0.51 0.49 0.36 0.64 0.7395 0.2605 0.5095 0.4905 0.3595 0.6405 0.739 0.261 0.509 0.491 0.359 0.641 0.7385 0.2615 0.5085 0.4915 0.3585 0.6415 0.738 0.262 0.508 0.492 0.358 0.642 0.7375 0.2625 0.5075 0.4925 0.3575 0.6425 0.737 0.263 0.507 0.493 0.357 0.643 0.7365 0.2635 0.5065 0.4935 0.3565 0.6435 0.736 0.264 0.506 0.494 0.356 0.644 0.7355 0.2645 0.5054999999999999 0.4945 0.3555 0.6445 0.735 0.265 0.505 0.495 0.355 0.645 0.7345 0.2655 0.5044999999999999 0.4955 0.3545 0.6455 0.734 0.266 0.504 0.496 0.354 0.646 0.7335 0.2665 0.5034999999999999 0.4965 0.3535 0.6465 0.733 0.267 0.503 0.497 0.353 0.647 0.7325 0.2675 0.5024999999999999 0.4975 0.3525 0.6475 0.732 0.268 0.502 0.498 0.352 0.648 0.7315 0.2685 0.5014999999999999 0.4985 0.3515 0.6485 0.731 0.269 0.501 0.499 0.351 0.649 0.7305 0.2695 0.5004999999999999 0.4995 0.3505 0.6495 0.73 0.27 0.5 0.5 0.35 0.65 0.7295 0.2705 0.4995 0.5004999999999999 0.3495 0.6505 0.729 0.271 0.499 0.501 0.349 0.651 0.7285 0.2715 0.4985 0.5014999999999999 0.3485 0.6515 0.728 0.272 0.498 0.502 0.348 0.652 0.7275 0.2725 0.4975 0.5024999999999999 0.3475 0.6525 0.727 0.273 0.497 0.503 0.347 0.653 0.7265 0.2735 0.4965 0.5034999999999999 0.3465 0.6535 0.726 0.274 0.496 0.504 0.346 0.654 0.7255 0.2745 0.4955 0.5044999999999999 0.3455 0.6545 0.725 0.275 0.495 0.505 0.345 0.655 0.7245 0.2755 0.4945 0.5054999999999999 0.3445 0.6555 0.724 0.276 0.494 0.506 0.344 0.656 0.7235 0.2765 0.4935 0.5065 0.3435 0.6565 0.723 0.277 0.493 0.507 0.343 0.657 0.7225 0.2775 0.4925 0.5075 0.3425 0.6575 0.722 0.278 0.492 0.508 0.342 0.658 0.7215 0.2785 0.4915 0.5085 0.3415 0.6585 0.721 0.279 0.491 0.509 0.341 0.659 0.7205 0.2795 0.4905 0.5095 0.3405 0.6595 0.72 0.28 0.49 0.51 0.34 0.66 0.7195 0.2805 0.4895 0.5105 0.3395 0.6605 0.719 0.281 0.489 0.511 0.339 0.661 0.7185 0.2815 0.4885 0.5115 0.3385 0.6615 0.718 0.282 0.488 0.512 0.338 0.662 0.7175 0.2825 0.4875 0.5125 0.3375 0.6625 0.717 0.283 0.487 0.513 0.337 0.663 0.7165 0.2835 0.4865 0.5135 0.3365 0.6635 0.716 0.284 0.486 0.514 0.336 0.664 0.7155 0.2845 0.4855 0.5145 0.3355 0.6645 0.715 0.285 0.485 0.515 0.335 0.665 0.7145 0.2855 0.4845 0.5155 0.3345 0.6655 0.714 0.286 0.484 0.516 0.334 0.666 0.7135 0.2865 0.4835 0.5165 0.3335 0.6665 0.713 0.287 0.483 0.517 0.333 0.667 0.7125 0.2875 0.4825 0.5175 0.3325 0.6675 0.712 0.288 0.482 0.518 0.332 0.668 0.7115 0.2885 0.4815 0.5185 0.3315 0.6685 0.711 0.289 0.481 0.519 0.331 0.669 0.7105 0.2895 0.4805 0.5195 0.3305 0.6695 0.71 0.29 0.48 0.52 0.33 0.67 0.7095 0.2905 0.4795 0.5205 0.3295 0.6705 0.709 0.291 0.479 0.521 0.329 0.671 0.7085 0.2915 0.4785 0.5215 0.3285 0.6715 0.708 0.292 0.478 0.522 0.328 0.672 0.7075 0.2925 0.4775 0.5225 0.3275 0.6725 0.707 0.293 0.477 0.523 0.327 0.673 0.7065 0.2935 0.4765 0.5235 0.3265 0.6735 0.706 0.294 0.476 0.524 0.326 0.674 0.7055 0.2945 0.4755 0.5245 0.3255 0.6745 0.705 0.295 0.475 0.525 0.325 0.675 0.7045 0.2955 0.4745 0.5255 0.3245 0.6755 0.704 0.296 0.474 0.526 0.324 0.676 0.7035 0.2965 0.4735 0.5265 0.3235 0.6765 0.703 0.297 0.473 0.527 0.323 0.677 0.7025 0.2975 0.4725 0.5275 0.3225 0.6775 0.702 0.298 0.472 0.528 0.322 0.678 0.7015 0.2985 0.4715 0.5285 0.3215 0.6785 0.701 0.299 0.471 0.529 0.321 0.679 0.7005 0.2995 0.4705 0.5295 0.3205 0.6795 0.7 0.3 0.47 0.53 0.32 0.68 0.6995 0.3005 0.4695 0.5305 0.3195 0.6805 0.699 0.301 0.469 0.531 0.319 0.681 0.6985 0.3015 0.4685 0.5315 0.3185 0.6815 0.698 0.302 0.468 0.532 0.318 0.6820000000000001 0.6975 0.3025 0.4675 0.5325 0.3175 0.6825 0.697 0.303 0.467 0.533 0.317 0.6830000000000001 0.6965 0.3035 0.4665 0.5335 0.3165 0.6835 0.696 0.304 0.466 0.534 0.316 0.6840000000000001 0.6955 0.3045 0.4655 0.5345 0.3155 0.6845 0.695 0.305 0.465 0.535 0.315 0.6850000000000001 0.6945 0.3055 0.4645 0.5355 0.3145 0.6855 0.694 0.306 0.464 0.536 0.314 0.6860000000000001 0.6935 0.3065 0.4635 0.5365 0.3135 0.6865 0.6929999999999999 0.307 0.463 0.537 0.313 0.6870000000000001 0.6925 0.3075 0.4625 0.5375 0.3125 0.6875 0.6919999999999999 0.308 0.462 0.538 0.312 0.6879999999999999 0.6915 0.3085 0.4615 0.5385 0.3115 0.6885 0.6909999999999999 0.309 0.461 0.539 0.311 0.6889999999999999 0.6905 0.3095 0.4605 0.5395 0.3105 0.6895 0.6899999999999999 0.31 0.46 0.54 0.31 0.6899999999999999 0.6895 0.3105 0.4595 0.5405 0.3095 0.6905 0.6889999999999999 0.311 0.459 0.541 0.309 0.6909999999999999 0.6885 0.3115 0.4585 0.5415 0.3085 0.6915 0.6879999999999999 0.312 0.458 0.542 0.308 0.6919999999999999 0.6875 0.3125 0.4575 0.5425 0.3075 0.6925 0.6870000000000001 0.313 0.457 0.543 0.307 0.6929999999999999 0.6865 0.3135 0.4565 0.5435 0.3065 0.6935 0.6860000000000001 0.314 0.456 0.544 0.306 0.694 0.6855 0.3145 0.4555 0.5445 0.3055 0.6945 0.6850000000000001 0.315 0.455 0.545 0.305 0.695 0.6845 0.3155 0.4545 0.5455 0.3045 0.6955 0.6840000000000001 0.316 0.454 0.546 0.304 0.696 0.6835 0.3165 0.4535 0.5465 0.3035 0.6965 0.6830000000000001 0.317 0.453 0.547 0.303 0.697 0.6825 0.3175 0.4525 0.5475 0.3025 0.6975 0.6820000000000001 0.318 0.452 0.548 0.302 0.698 0.6815 0.3185 0.4515 0.5485 0.3015 0.6985 0.681 0.319 0.451 0.549 0.301 0.699 0.6805 0.3195 0.4505 0.5495 0.3005 0.6995 0.68 0.32 0.45 0.55 0.3 0.7 0.6795 0.3205 0.4495 0.5505 0.2995 0.7005 0.679 0.321 0.449 0.551 0.299 0.701 0.6785 0.3215 0.4485 0.5515 0.2985 0.7015 0.678 0.322 0.448 0.552 0.298 0.702 0.6775 0.3225 0.4475 0.5525 0.2975 0.7025 0.677 0.323 0.447 0.553 0.297 0.703 0.6765 0.3235 0.4465 0.5535 0.2965 0.7035 0.676 0.324 0.446 0.554 0.296 0.704 0.6755 0.3245 0.4455 0.5545 0.2955 0.7045 0.675 0.325 0.445 0.555 0.295 0.705 0.6745 0.3255 0.4445 0.5555 0.2945 0.7055 0.674 0.326 0.444 0.556 0.294 0.706 0.6735 0.3265 0.4435 0.5565 0.2935 0.7065 0.673 0.327 0.443 0.5570000000000001 0.293 0.707 0.6725 0.3275 0.4425 0.5575 0.2925 0.7075 0.672 0.328 0.442 0.5580000000000001 0.292 0.708 0.6715 0.3285 0.4415 0.5585 0.2915 0.7085 0.671 0.329 0.441 0.5590000000000001 0.291 0.709 0.6705 0.3295 0.4405 0.5595 0.2905 0.7095 0.67 0.33 0.44 0.5600000000000001 0.29 0.71 0.6695 0.3305 0.4395 0.5605 0.2895 0.7105 0.669 0.331 0.439 0.5610000000000001 0.289 0.711 0.6685 0.3315 0.4385 0.5615 0.2885 0.7115 0.668 0.332 0.438 0.5620000000000001 0.288 0.712 0.6675 0.3325 0.4375 0.5625 0.2875 0.7125 0.667 0.333 0.437 0.5629999999999999 0.287 0.713 0.6665 0.3335 0.4365 0.5635 0.2865 0.7135 0.666 0.334 0.436 0.5639999999999999 0.286 0.714 0.6655 0.3345 0.4355 0.5645 0.2855 0.7145 0.665 0.335 0.435 0.5649999999999999 0.285 0.715 0.6645 0.3355 0.4345 0.5655 0.2845 0.7155 0.664 0.336 0.434 0.5659999999999999 0.284 0.716 0.6635 0.3365 0.4335 0.5665 0.2835 0.7165 0.663 0.337 0.433 0.5669999999999999 0.283 0.717 0.6625 0.3375 0.4325 0.5675 0.2825 0.7175 0.662 0.338 0.432 0.5679999999999999 0.282 0.718 0.6615 0.3385 0.4315 0.5685 0.2815 0.7185 0.661 0.339 0.431 0.569 0.281 0.719 0.6605 0.3395 0.4305 0.5695 0.2805 0.7195 0.66 0.34 0.43 0.57 0.28 0.72 0.6595 0.3405 0.4295 0.5705 0.2795 0.7205 0.659 0.341 0.429 0.571 0.279 0.721 0.6585 0.3415 0.4285 0.5715 0.2785 0.7215 0.658 0.342 0.428 0.572 0.278 0.722 0.6575 0.3425 0.4275 0.5725 0.2775 0.7225 0.657 0.343 0.427 0.573 0.277 0.723 0.6565 0.3435 0.4265 0.5735 0.2765 0.7235 0.656 0.344 0.426 0.574 0.276 0.724 0.6555 0.3445 0.4255 0.5745 0.2755 0.7245 0.655 0.345 0.425 0.575 0.275 0.725 0.6545 0.3455 0.4245 0.5755 0.2745 0.7255 0.654 0.346 0.424 0.576 0.274 0.726 0.6535 0.3465 0.4235 0.5765 0.2735 0.7265 0.653 0.347 0.423 0.577 0.273 0.727 0.6525 0.3475 0.4225 0.5775 0.2725 0.7275 0.652 0.348 0.422 0.578 0.272 0.728 0.6515 0.3485 0.4215 0.5785 0.2715 0.7285 0.651 0.349 0.421 0.579 0.271 0.729 0.6505 0.3495 0.4205 0.5795 0.2705 0.7295 0.65 0.35 0.42 0.58 0.27 0.73 0.6495 0.3505 0.4195 0.5805 0.2695 0.7305 0.649 0.351 0.419 0.581 0.269 0.731 0.6485 0.3515 0.4185 0.5815 0.2685 0.7315 0.648 0.352 0.418 0.582 0.268 0.732 0.6475 0.3525 0.4175 0.5825 0.2675 0.7325 0.647 0.353 0.417 0.583 0.267 0.733 0.6465 0.3535 0.4165 0.5835 0.2665 0.7335 0.646 0.354 0.416 0.584 0.266 0.734 0.6455 0.3545 0.4155 0.5845 0.2655 0.7345 0.645 0.355 0.415 0.585 0.265 0.735 0.6445 0.3555 0.4145 0.5855 0.2645 0.7355 0.644 0.356 0.414 0.586 0.264 0.736 0.6435 0.3565 0.4135 0.5865 0.2635 0.7365 0.643 0.357 0.413 0.587 0.263 0.737 0.6425 0.3575 0.4125 0.5875 0.2625 0.7375 0.642 0.358 0.412 0.588 0.262 0.738 0.6415 0.3585 0.4115 0.5885 0.2615 0.7385 0.641 0.359 0.411 0.589 0.261 0.739 0.6405 0.3595 0.4105 0.5895 0.2605 0.7395 0.64 0.36 0.41 0.59 0.26 0.74 0.6395 0.3605 0.4095 0.5905 0.2595 0.7405 0.639 0.361 0.409 0.591 0.259 0.741 0.6385 0.3615 0.4085 0.5915 0.2585 0.7415 0.638 0.362 0.408 0.592 0.258 0.742 0.6375 0.3625 0.4075 0.5925 0.2575 0.7425 0.637 0.363 0.407 0.593 0.257 0.743 0.6365 0.3635 0.4065 0.5935 0.2565 0.7435 0.636 0.364 0.406 0.594 0.256 0.744 0.6355 0.3645 0.4055 0.5945 0.2555 0.7445000000000001 0.635 0.365 0.405 0.595 0.255 0.745 0.6345 0.3655 0.4045 0.5955 0.2545 0.7455000000000001 0.634 0.366 0.404 0.596 0.254 0.746 0.6335 0.3665 0.4035 0.5965 0.2535 0.7465000000000001 0.633 0.367 0.403 0.597 0.253 0.747 0.6325 0.3675 0.4025 0.5975 0.2525 0.7475000000000001 0.632 0.368 0.402 0.598 0.252 0.748 0.6315 0.3685 0.4015 0.5985 0.2515 0.7485000000000001 0.631 0.369 0.401 0.599 0.251 0.749 0.6304999999999999 0.3695 0.4005 0.5995 0.2505 0.7495000000000001 0.63 0.37 0.4 0.6 0.25 0.75 0.6294999999999999 0.3705 0.3995 0.6005 0.2495 0.7504999999999999 0.629 0.371 0.399 0.601 0.249 0.751 0.6284999999999999 0.3715 0.3985 0.6015 0.2485 0.7514999999999999 0.628 0.372 0.398 0.602 0.248 0.752 0.6274999999999999 0.3725 0.3975 0.6025 0.2475 0.7524999999999999 0.627 0.373 0.397 0.603 0.247 0.753 0.6264999999999999 0.3735 0.3965 0.6035 0.2465 0.7534999999999999 0.626 0.374 0.396 0.604 0.246 0.754 0.6254999999999999 0.3745 0.3955 0.6045 0.2455 0.7544999999999999 0.625 0.375 0.395 0.605 0.245 0.755 0.6245000000000001 0.3755 0.3945 0.6055 0.2445 0.7554999999999999 0.624 0.376 0.394 0.606 0.244 0.756 0.6235000000000001 0.3765 0.3935 0.6065 0.2435 0.7565 0.623 0.377 0.393 0.607 0.243 0.757 0.6225000000000001 0.3775 0.3925 0.6075 0.2425 0.7575 0.622 0.378 0.392 0.608 0.242 0.758 0.6215000000000001 0.3785 0.3915 0.6085 0.2415 0.7585 0.621 0.379 0.391 0.609 0.241 0.759 0.6205000000000001 0.3795 0.3905 0.6095 0.2405 0.7595 0.62 0.38 0.39 0.61 0.24 0.76 0.6195000000000001 0.3805 0.3895 0.6105 0.2395 0.7605 0.619 0.381 0.389 0.611 0.239 0.761 0.6185 0.3815 0.3885 0.6115 0.2385 0.7615 0.618 0.382 0.388 0.612 0.238 0.762 0.6175 0.3825 0.3875 0.6125 0.2375 0.7625 0.617 0.383 0.387 0.613 0.237 0.763 0.6165 0.3835 0.3865 0.6135 0.2365 0.7635 0.616 0.384 0.386 0.614 0.236 0.764 0.6155 0.3845 0.3855 0.6145 0.2355 0.7645 0.615 0.385 0.385 0.615 0.235 0.765 0.6145 0.3855 0.3845 0.6155 0.2345 0.7655 0.614 0.386 0.384 0.616 0.234 0.766 0.6135 0.3865 0.3835 0.6165 0.2335 0.7665 0.613 0.387 0.383 0.617 0.233 0.767 0.6125 0.3875 0.3825 0.6175 0.2325 0.7675 0.612 0.388 0.382 0.618 0.232 0.768 0.6115 0.3885 0.3815 0.6185 0.2315 0.7685 0.611 0.389 0.381 0.619 0.231 0.769 0.6105 0.3895 0.3805 0.6195000000000001 0.2305 0.7695 0.61 0.39 0.38 0.62 0.23 0.77 0.6095 0.3905 0.3795 0.6205000000000001 0.2295 0.7705 0.609 0.391 0.379 0.621 0.229 0.771 0.6085 0.3915 0.3785 0.6215000000000001 0.2285 0.7715 0.608 0.392 0.378 0.622 0.228 0.772 0.6075 0.3925 0.3775 0.6225000000000001 0.2275 0.7725 0.607 0.393 0.377 0.623 0.227 0.773 0.6065 0.3935 0.3765 0.6235000000000001 0.2265 0.7735 0.606 0.394 0.376 0.624 0.226 0.774 0.6055 0.3945 0.3755 0.6245000000000001 0.2255 0.7745 0.605 0.395 0.375 0.625 0.225 0.775 0.6045 0.3955 0.3745 0.6254999999999999 0.2245 0.7755 0.604 0.396 0.374 0.626 0.224 0.776 0.6035 0.3965 0.3735 0.6264999999999999 0.2235 0.7765 0.603 0.397 0.373 0.627 0.223 0.777 0.6025 0.3975 0.3725 0.6274999999999999 0.2225 0.7775 0.602 0.398 0.372 0.628 0.222 0.778 0.6015 0.3985 0.3715 0.6284999999999999 0.2215 0.7785 0.601 0.399 0.371 0.629 0.221 0.779 0.6005 0.3995 0.3705 0.6294999999999999 0.2205 0.7795 0.6 0.4 0.37 0.63 0.22 0.78 0.5995 0.4005 0.3695 0.6304999999999999 0.2195 0.7805 0.599 0.401 0.369 0.631 0.219 0.781 0.5985 0.4015 0.3685 0.6315 0.2185 0.7815 0.598 0.402 0.368 0.632 0.218 0.782 0.5975 0.4025 0.3675 0.6325 0.2175 0.7825 0.597 0.403 0.367 0.633 0.217 0.783 0.5965 0.4035 0.3665 0.6335 0.2165 0.7835 0.596 0.404 0.366 0.634 0.216 0.784 0.5955 0.4045 0.3655 0.6345 0.2155 0.7845 0.595 0.405 0.365 0.635 0.215 0.785 0.5945 0.4055 0.3645 0.6355 0.2145 0.7855 0.594 0.406 0.364 0.636 0.214 0.786 0.5935 0.4065 0.3635 0.6365 0.2135 0.7865 0.593 0.407 0.363 0.637 0.213 0.787 0.5925 0.4075 0.3625 0.6375 0.2125 0.7875 0.592 0.408 0.362 0.638 0.212 0.788 0.5915 0.4085 0.3615 0.6385 0.2115 0.7885 0.591 0.409 0.361 0.639 0.211 0.789 0.5905 0.4095 0.3605 0.6395 0.2105 0.7895 0.59 0.41 0.36 0.64 0.21 0.79 0.5895 0.4105 0.3595 0.6405 0.2095 0.7905 0.589 0.411 0.359 0.641 0.209 0.791 0.5885 0.4115 0.3585 0.6415 0.2085 0.7915 0.588 0.412 0.358 0.642 0.208 0.792 0.5875 0.4125 0.3575 0.6425 0.2075 0.7925 0.587 0.413 0.357 0.643 0.207 0.793 0.5865 0.4135 0.3565 0.6435 0.2065 0.7935 0.586 0.414 0.356 0.644 0.206 0.794 0.5855 0.4145 0.3555 0.6445 0.2055 0.7945 0.585 0.415 0.355 0.645 0.205 0.795 0.5845 0.4155 0.3545 0.6455 0.2045 0.7955 0.584 0.416 0.354 0.646 0.204 0.796 0.5835 0.4165 0.3535 0.6465 0.2035 0.7965 0.583 0.417 0.353 0.647 0.203 0.797 0.5825 0.4175 0.3525 0.6475 0.2025 0.7975 0.582 0.418 0.352 0.648 0.202 0.798 0.5815 0.4185 0.3515 0.6485 0.2015 0.7985 0.581 0.419 0.351 0.649 0.201 0.799 0.5805 0.4195 0.3505 0.6495 0.2005 0.7995 0.58 0.42 0.35 0.65 0.2 0.8 0.5795 0.4205 0.3495 0.6505 0.1995 0.8005 0.579 0.421 0.349 0.651 0.199 0.801 0.5785 0.4215 0.3485 0.6515 0.1985 0.8015 0.578 0.422 0.348 0.652 0.198 0.802 0.5775 0.4225 0.3475 0.6525 0.1975 0.8025 0.577 0.423 0.347 0.653 0.197 0.803 0.5765 0.4235 0.3465 0.6535 0.1965 0.8035 0.576 0.424 0.346 0.654 0.196 0.804 0.5755 0.4245 0.3455 0.6545 0.1955 0.8045 0.575 0.425 0.345 0.655 0.195 0.805 0.5745 0.4255 0.3445 0.6555 0.1945 0.8055 0.574 0.426 0.344 0.656 0.194 0.806 0.5735 0.4265 0.3435 0.6565 0.1935 0.8065 0.573 0.427 0.343 0.657 0.193 0.8070000000000001 0.5725 0.4275 0.3425 0.6575 0.1925 0.8075 0.572 0.428 0.342 0.658 0.192 0.8080000000000001 0.5715 0.4285 0.3415 0.6585 0.1915 0.8085 0.571 0.429 0.341 0.659 0.191 0.8090000000000001 0.5705 0.4295 0.3405 0.6595 0.1905 0.8095 0.57 0.43 0.34 0.66 0.19 0.8100000000000001 0.5695 0.4305 0.3395 0.6605 0.1895 0.8105 0.569 0.431 0.339 0.661 0.189 0.8110000000000001 0.5685 0.4315 0.3385 0.6615 0.1885 0.8115 0.5679999999999999 0.432 0.338 0.662 0.188 0.8120000000000001 0.5675 0.4325 0.3375 0.6625 0.1875 0.8125 0.5669999999999999 0.433 0.337 0.663 0.187 0.8129999999999999 0.5665 0.4335 0.3365 0.6635 0.1865 0.8135 0.5659999999999999 0.434 0.336 0.664 0.186 0.8139999999999999 0.5655 0.4345 0.3355 0.6645 0.1855 0.8145 0.5649999999999999 0.435 0.335 0.665 0.185 0.8149999999999999 0.5645 0.4355 0.3345 0.6655 0.1845 0.8155 0.5639999999999999 0.436 0.334 0.666 0.184 0.8159999999999999 0.5635 0.4365 0.3335 0.6665 0.1835 0.8165 0.5629999999999999 0.437 0.333 0.667 0.183 0.8169999999999999 0.5625 0.4375 0.3325 0.6675 0.1825 0.8175 0.5620000000000001 0.438 0.332 0.668 0.182 0.8179999999999999 0.5615 0.4385 0.3315 0.6685 0.1815 0.8185 0.5610000000000001 0.439 0.331 0.669 0.181 0.819 0.5605 0.4395 0.3305 0.6695 0.1805 0.8195 0.5600000000000001 0.44 0.33 0.67 0.18 0.82 0.5595 0.4405 0.3295 0.6705 0.1795 0.8205 0.5590000000000001 0.441 0.329 0.671 0.179 0.821 0.5585 0.4415 0.3285 0.6715 0.1785 0.8215 0.5580000000000001 0.442 0.328 0.672 0.178 0.822 0.5575 0.4425 0.3275 0.6725 0.1775 0.8225 0.5570000000000001 0.443 0.327 0.673 0.177 0.823 0.5565 0.4435 0.3265 0.6735 0.1765 0.8235 0.556 0.444 0.326 0.674 0.176 0.824 0.5555 0.4445 0.3255 0.6745 0.1755 0.8245 0.555 0.445 0.325 0.675 0.175 0.825 0.5545 0.4455 0.3245 0.6755 0.1745 0.8255 0.554 0.446 0.324 0.676 0.174 0.826 0.5535 0.4465 0.3235 0.6765 0.1735 0.8265 0.553 0.447 0.323 0.677 0.173 0.827 0.5525 0.4475 0.3225 0.6775 0.1725 0.8275 0.552 0.448 0.322 0.678 0.172 0.828 0.5515 0.4485 0.3215 0.6785 0.1715 0.8285 0.551 0.449 0.321 0.679 0.171 0.829 0.5505 0.4495 0.3205 0.6795 0.1705 0.8295 0.55 0.45 0.32 0.68 0.17 0.83 0.5495 0.4505 0.3195 0.6805 0.1695 0.8305 0.549 0.451 0.319 0.681 0.169 0.831 0.5485 0.4515 0.3185 0.6815 0.1685 0.8315 0.548 0.452 0.318 0.6820000000000001 0.168 0.832 0.5475 0.4525 0.3175 0.6825 0.1675 0.8325 0.547 0.453 0.317 0.6830000000000001 0.167 0.833 0.5465 0.4535 0.3165 0.6835 0.1665 0.8335 0.546 0.454 0.316 0.6840000000000001 0.166 0.834 0.5455 0.4545 0.3155 0.6845 0.1655 0.8345 0.545 0.455 0.315 0.6850000000000001 0.165 0.835 0.5445 0.4555 0.3145 0.6855 0.1645 0.8355 0.544 0.456 0.314 0.6860000000000001 0.164 0.836 0.5435 0.4565 0.3135 0.6865 0.1635 0.8365 0.543 0.457 0.313 0.6870000000000001 0.163 0.837 0.5425 0.4575 0.3125 0.6875 0.1625 0.8375 0.542 0.458 0.312 0.6879999999999999 0.162 0.838 0.5415 0.4585 0.3115 0.6885 0.1615 0.8385 0.541 0.459 0.311 0.6889999999999999 0.161 0.839 0.5405 0.4595 0.3105 0.6895 0.1605 0.8395 0.54 0.46 0.31 0.6899999999999999 0.16 0.84 0.5395 0.4605 0.3095 0.6905 0.1595 0.8405 0.539 0.461 0.309 0.6909999999999999 0.159 0.841 0.5385 0.4615 0.3085 0.6915 0.1585 0.8415 0.538 0.462 0.308 0.6919999999999999 0.158 0.842 0.5375 0.4625 0.3075 0.6925 0.1575 0.8425 0.537 0.463 0.307 0.6929999999999999 0.157 0.843 0.5365 0.4635 0.3065 0.6935 0.1565 0.8435 0.536 0.464 0.306 0.694 0.156 0.844 0.5355 0.4645 0.3055 0.6945 0.1555 0.8445 0.535 0.465 0.305 0.695 0.155 0.845 0.5345 0.4655 0.3045 0.6955 0.1545 0.8455 0.534 0.466 0.304 0.696 0.154 0.846 0.5335 0.4665 0.3035 0.6965 0.1535 0.8465 0.533 0.467 0.303 0.697 0.153 0.847 0.5325 0.4675 0.3025 0.6975 0.1525 0.8475 0.532 0.468 0.302 0.698 0.152 0.848 0.5315 0.4685 0.3015 0.6985 0.1515 0.8485 0.531 0.469 0.301 0.699 0.151 0.849 0.5305 0.4695 0.3005 0.6995 0.1505 0.8495 0.53 0.47 0.3 0.7 0.15 0.85 0.5295 0.4705 0.2995 0.7005 0.1495 0.8505 0.529 0.471 0.299 0.701 0.149 0.851 0.5285 0.4715 0.2985 0.7015 0.1485 0.8515 0.528 0.472 0.298 0.702 0.148 0.852 0.5275 0.4725 0.2975 0.7025 0.1475 0.8525 0.527 0.473 0.297 0.703 0.147 0.853 0.5265 0.4735 0.2965 0.7035 0.1465 0.8535 0.526 0.474 0.296 0.704 0.146 0.854 0.5255 0.4745 0.2955 0.7045 0.1455 0.8545 0.525 0.475 0.295 0.705 0.145 0.855 0.5245 0.4755 0.2945 0.7055 0.1445 0.8555 0.524 0.476 0.294 0.706 0.144 0.856 0.5235 0.4765 0.2935 0.7065 0.1435 0.8565 0.523 0.477 0.293 0.707 0.143 0.857 0.5225 0.4775 0.2925 0.7075 0.1425 0.8575 0.522 0.478 0.292 0.708 0.142 0.858 0.5215 0.4785 0.2915 0.7085 0.1415 0.8585 0.521 0.479 0.291 0.709 0.141 0.859 0.5205 0.4795 0.2905 0.7095 0.1405 0.8595 0.52 0.48 0.29 0.71 0.14 0.86 0.5195 0.4805 0.2895 0.7105 0.1395 0.8605 0.519 0.481 0.289 0.711 0.139 0.861 0.5185 0.4815 0.2885 0.7115 0.1385 0.8615 0.518 0.482 0.288 0.712 0.138 0.862 0.5175 0.4825 0.2875 0.7125 0.1375 0.8625 0.517 0.483 0.287 0.713 0.137 0.863 0.5165 0.4835 0.2865 0.7135 0.1365 0.8635 0.516 0.484 0.286 0.714 0.136 0.864 0.5155 0.4845 0.2855 0.7145 0.1355 0.8645 0.515 0.485 0.285 0.715 0.135 0.865 0.5145 0.4855 0.2845 0.7155 0.1345 0.8655 0.514 0.486 0.284 0.716 0.134 0.866 0.5135 0.4865 0.2835 0.7165 0.1335 0.8665 0.513 0.487 0.283 0.717 0.133 0.867 0.5125 0.4875 0.2825 0.7175 0.1325 0.8675 0.512 0.488 0.282 0.718 0.132 0.868 0.5115 0.4885 0.2815 0.7185 0.1315 0.8685 0.511 0.489 0.281 0.719 0.131 0.869 0.5105 0.4895 0.2805 0.7195 0.1305 0.8695000000000001 0.51 0.49 0.28 0.72 0.13 0.87 0.5095 0.4905 0.2795 0.7205 0.1295 0.8705000000000001 0.509 0.491 0.279 0.721 0.129 0.871 0.5085 0.4915 0.2785 0.7215 0.1285 0.8715000000000001 0.508 0.492 0.278 0.722 0.128 0.872 0.5075 0.4925 0.2775 0.7225 0.1275 0.8725000000000001 0.507 0.493 0.277 0.723 0.127 0.873 0.5065 0.4935 0.2765 0.7235 0.1265 0.8735000000000001 0.506 0.494 0.276 0.724 0.126 0.874 0.5054999999999999 0.4945 0.2755 0.7245 0.1255 0.8745000000000001 0.505 0.495 0.275 0.725 0.125 0.875 0.5044999999999999 0.4955 0.2745 0.7255 0.1245 0.8754999999999999 0.504 0.496 0.274 0.726 0.124 0.876 0.5034999999999999 0.4965 0.2735 0.7265 0.1235 0.8764999999999999 0.503 0.497 0.273 0.727 0.123 0.877 0.5024999999999999 0.4975 0.2725 0.7275 0.1225 0.8774999999999999 0.502 0.498 0.272 0.728 0.122 0.878 0.5014999999999999 0.4985 0.2715 0.7285 0.1215 0.8784999999999999 0.501 0.499 0.271 0.729 0.121 0.879 0.5004999999999999 0.4995 0.2705 0.7295 0.1205 0.8794999999999999 0.5 0.5 0.27 0.73 0.12 0.88 0.4995 0.5004999999999999 0.2695 0.7305 0.1195 0.8804999999999999 0.499 0.501 0.269 0.731 0.119 0.881 0.4985 0.5014999999999999 0.2685 0.7315 0.1185 0.8815 0.498 0.502 0.268 0.732 0.118 0.882 0.4975 0.5024999999999999 0.2675 0.7325 0.1175 0.8825 0.497 0.503 0.267 0.733 0.117 0.883 0.4965 0.5034999999999999 0.2665 0.7335 0.1165 0.8835 0.496 0.504 0.266 0.734 0.116 0.884</probabilities>
		</cpt>
		<cpt id="Speed_of_vessel">
			<state id="High" />
			<state id="Low" />
			<parents>Type_of_ship Size_of_ship Geography_of_voyage Type_of_engine</parents>
			<probabilities>0.2 0.8 0.09999999999999998 0.9 0.3 0.7 0.2 0.8 0.4 0.6 0.3 0.7 0.09999999999999998 0.9 0.08999999999999996 0.91 0.25 0.75 0.15 0.85 0.3499999999999999 0.65 0.25 0.75 0.09999999999999998 0.9 0.08999999999999996 0.91 0.25 0.75 0.15 0.85 0.3499999999999999 0.65 0.25 0.75 0.07999999999999997 0.92 0.07999999999999996 0.92 0.2 0.8 0.13 0.87 0.32 0.68 0.21 0.79 0.3 0.6999999999999998 0.4 0.6 0.5 0.5 0.4 0.6 0.6 0.4 0.5 0.5 0.4 0.6 0.1 0.9 0.3 0.6999999999999998 0.3 0.7 0.4 0.6 0.4 0.6</probabilities>
		</cpt>
		<cpt id="Decreaseinwatersupply">
			<state id="High" />
			<state id="Low" />
			<parents>Release</parents>
			<probabilities>0.3666667 0.6333333 0.1933333 0.8066667</probabilities>
		</cpt>
		<cpt id="Locationofresponseequipment">
			<state id="Near_less_than_1km" />
			<state id="Far_More_than_1km" />
			<probabilities>0.4625 0.5375</probabilities>
		</cpt>
		<cpt id="Number_of_response_equipment">
			<state id="Near_less_than_1km" />
			<state id="Far_More_than_1km" />
			<probabilities>0.3 0.7</probabilities>
		</cpt>
		<cpt id="Time">
			<state id="Near_less_than_1km" />
			<state id="Far_More_than_1km" />
			<probabilities>0.7 0.3</probabilities>
		</cpt>
		<cpt id="Personnel">
			<state id="Near_less_than_1km" />
			<state id="Far_More_than_1km" />
			<probabilities>0.7 0.3</probabilities>
		</cpt>
		<cpt id="Response">
			<state id="Prompt" />
			<state id="Slow" />
			<parents>Locationofresponseequipment Number_of_response_equipment Time Personnel Release</parents>
			<probabilities>0.9467 0.0533 0.73 0.27 0.1 0.9 0.15 0.8500000000000001 0.2 0.7999999999999999 0.17 0.83 0.2 0.8 0.13 0.87 0.1 0.9 0.13 0.87 0.05 0.95 0.04 0.96 0.08 0.9199999999999999 0.08 0.9199999999999999 0.05 0.95 0.04 0.96 0.75 0.25 0.7821 0.2179 0.11 0.8899999999999999 0.13 0.87 0.25 0.75 0.15 0.85 0.14 0.86 0.17 0.83 0.66 0.34 0.62 0.38 0.2 0.8 0.12 0.88 0.35 0.65 0.12 0.88 0.1028 0.8972 0.05 0.95</probabilities>
		</cpt>
		<cpt id="Destruction_of_flora_and_fauna">
			<state id="High" />
			<state id="Low" />
			<parents>Type_of_hydrocarbon_released Response</parents>
			<probabilities>0.35 0.65 0.7272729999999999 0.2727270000000001 0.1 0.9 0.27 0.73</probabilities>
		</cpt>
		<cpt id="Environmentaleffect">
			<state id="High" />
			<state id="Low" />
			<parents>Release Decreaseinwatersupply Destruction_of_flora_and_fauna Typeofoil Daysexpectedtospendatsea Quantityofoil</parents>
			<probabilities>0.9167 0.0833 0.4977 0.5023 0.2987 0.7013 0.9134 0.0866 0.4954 0.5046 0.2974 0.7026 0.9101 0.08989999999999999 0.4931 0.5069 0.2961 0.7039 0.9068000000000001 0.09320000000000001 0.4908 0.5092 0.2948 0.7052 0.9035 0.0965 0.4885 0.5115 0.2935 0.7065 0.9002 0.0998 0.4862 0.5138 0.2922 0.7078 0.8969 0.1031 0.4839 0.5161 0.2909 0.7091 0.8935999999999999 0.1064 0.4816 0.5184 0.2896 0.7104 0.8903 0.1097 0.4793 0.5207000000000001 0.2883 0.7117 0.887 0.113 0.477 0.523 0.287 0.713 0.8837 0.1163 0.4747 0.5253 0.2857 0.7143 0.8804 0.1196 0.4724 0.5276 0.2844 0.7156 0.8771 0.1229 0.4701 0.5299 0.2831 0.7169 0.8738 0.1262 0.4678 0.5322 0.2818 0.7181999999999999 0.8705000000000001 0.1295 0.4655 0.5345 0.2805 0.7195 0.8672 0.1328 0.4632 0.5368000000000001 0.2792 0.7208 0.8639 0.1361 0.4609 0.5391 0.2779 0.7221 0.8606 0.1394 0.4586 0.5414 0.2766 0.7234 0.8573 0.1427 0.4563 0.5437 0.2753 0.7247 0.854 0.146 0.454 0.546 0.274 0.726 0.8507 0.1493 0.4517 0.5483 0.2727 0.7272999999999999 0.8474 0.1526 0.4494 0.5506 0.2714 0.7286 0.8441 0.1559 0.4471 0.5528999999999999 0.2701 0.7299 0.8408 0.1592 0.4448 0.5552 0.2688 0.7312 0.8375 0.1625 0.4425 0.5575 0.2675 0.7325 0.8342000000000001 0.1658 0.4402 0.5598 0.2662 0.7338 0.8309 0.1691 0.4379 0.5621 0.2649 0.7351 0.8276 0.1724 0.4356 0.5644 0.2636 0.7364000000000001 0.8243 0.1757 0.4333 0.5667 0.2623 0.7377 0.821 0.179 0.431 0.569 0.261 0.739 0.8177 0.1823 0.4287 0.5713 0.2597 0.7403 0.8144 0.1856 0.4264 0.5736 0.2584 0.7416 0.8111 0.1889 0.4241 0.5759 0.2571 0.7429 0.8078 0.1922 0.4218 0.5782 0.2558 0.7442 0.8045 0.1955 0.4195 0.5805 0.2545 0.7455000000000001 0.8012 0.1988 0.4172 0.5828 0.2532 0.7468 0.7979000000000001 0.2021 0.4149 0.5851 0.2519 0.7481 0.7946 0.2054 0.4126 0.5874 0.2506 0.7494 0.7913 0.2087 0.4103 0.5897 0.2493 0.7507 0.788 0.212 0.408 0.592 0.248 0.752 0.7847 0.2153 0.4057 0.5943000000000001 0.2467 0.7533 0.7814 0.2186 0.4034 0.5966 0.2454 0.7546 0.7781 0.2219 0.4011 0.5989 0.2441 0.7559 0.7748 0.2252 0.3988 0.6012 0.2428 0.7572 0.7715 0.2285 0.3965 0.6035 0.2415 0.7585 0.7682 0.2318 0.3942 0.6058 0.2402 0.7598 0.7649 0.2351 0.3919 0.6081 0.2389 0.7611 0.7616000000000001 0.2384 0.3896 0.6104000000000001 0.2376 0.7624 0.7583 0.2417 0.3873 0.6127 0.2363 0.7637 0.755 0.245 0.385 0.615 0.235 0.765 0.7517 0.2483 0.3827 0.6173 0.2337 0.7663 0.7484 0.2516 0.3804 0.6196 0.2324 0.7675999999999999 0.7451 0.2549 0.3781 0.6219 0.2311 0.7689 0.7418 0.2582 0.3758 0.6242 0.2298 0.7702 0.7385 0.2615 0.3735 0.6264999999999999 0.2285 0.7715 0.7352 0.2648 0.3712 0.6288 0.2272 0.7728 0.7319 0.2681 0.3689 0.6311 0.2259 0.7741 0.7286 0.2714 0.3666 0.6334 0.2246 0.7754 0.7252999999999999 0.2747 0.3643 0.6357 0.2233 0.7766999999999999 0.722 0.278 0.362 0.638 0.222 0.778 0.7187 0.2813 0.3597 0.6403 0.2207 0.7793 0.7154 0.2846 0.3574 0.6425999999999999 0.2194 0.7806 0.7121 0.2879 0.3551 0.6449 0.2181 0.7819 0.7088 0.2912 0.3528 0.6472 0.2168 0.7832 0.7055 0.2945 0.3505 0.6495 0.2155 0.7845 0.7022 0.2978 0.3482 0.6518 0.2142 0.7858000000000001 0.6989 0.3011 0.3459 0.6541 0.2129 0.7871 0.6956 0.3044 0.3436 0.6564 0.2116 0.7884 0.6923 0.3077 0.3413 0.6587 0.2103 0.7897 0.6889999999999999 0.311 0.339 0.661 0.209 0.791 0.6857 0.3143 0.3367 0.6633 0.2077 0.7923 0.6824 0.3176 0.3344 0.6656 0.2064 0.7936 0.6791 0.3209 0.3321 0.6679 0.2051 0.7949000000000001 0.6758 0.3242 0.3298 0.6702 0.2038 0.7962 0.6725 0.3275 0.3275 0.6725 0.2025 0.7975 0.6692 0.3308 0.3252 0.6748 0.2012 0.7988 0.6659 0.3341 0.3229 0.6771 0.1999 0.8001 0.6626 0.3374 0.3206 0.6794 0.1986 0.8014 0.6593 0.3407 0.3183 0.6817 0.1973 0.8027 0.656 0.344 0.316 0.6840000000000001 0.196 0.804 0.6526999999999999 0.3473 0.3137 0.6863 0.1947 0.8053 0.6494 0.3506 0.3114 0.6886 0.1934 0.8066 0.6461 0.3539 0.3091 0.6909 0.1921 0.8079 0.6428 0.3572 0.3068 0.6932 0.1908 0.8092 0.6395 0.3605 0.3045 0.6955 0.1895 0.8105 0.6362 0.3638 0.3022 0.6978 0.1882 0.8118 0.6329 0.3671 0.2999 0.7000999999999999 0.1869 0.8131 0.6296 0.3704 0.2976 0.7024 0.1856 0.8144 0.6263 0.3737 0.2953 0.7047 0.1843 0.8157 0.623 0.377 0.293 0.707 0.183 0.8169999999999999 0.6197 0.3803 0.2907 0.7093 0.1817 0.8183 0.6163999999999999 0.3836 0.2884 0.7116 0.1804 0.8196 0.6131 0.3869 0.2861 0.7139 0.1791 0.8209 0.6098 0.3902 0.2838 0.7161999999999999 0.1778 0.8222 0.6065 0.3935 0.2815 0.7185 0.1765 0.8235 0.6032 0.3968 0.2792 0.7208 0.1752 0.8248 0.5999 0.4001 0.2769 0.7231 0.1739 0.8260999999999999 0.5966 0.4034 0.2746 0.7254 0.1726 0.8274 0.5933 0.4067 0.2723 0.7277 0.1713 0.8287 0.59 0.41 0.27 0.73 0.17 0.83 0.5867 0.4133 0.2677 0.7323 0.1687 0.8313 0.5834 0.4166 0.2654 0.7346 0.1674 0.8326 0.5800999999999999 0.4199 0.2631 0.7369 0.1661 0.8339 0.5768 0.4232 0.2608 0.7392 0.1648 0.8352000000000001 0.5735 0.4265 0.2585 0.7415 0.1635 0.8365 0.5702 0.4298 0.2562 0.7438 0.1622 0.8378 0.5669 0.4331 0.2539 0.7461 0.1609 0.8391 0.5636 0.4364 0.2516 0.7484 0.1596 0.8404 0.5603 0.4397 0.2493 0.7507 0.1583 0.8417 0.5570000000000001 0.443 0.247 0.753 0.157 0.843 0.5537 0.4463 0.2447 0.7553 0.1557 0.8443000000000001 0.5504 0.4496 0.2424 0.7576000000000001 0.1544 0.8456 0.5471 0.4529 0.2401 0.7599 0.1531 0.8469 0.5438 0.4562 0.2378 0.7622 0.1518 0.8482 0.5405 0.4595 0.2355 0.7645 0.1505 0.8495 0.5372 0.4628 0.2332 0.7668 0.1492 0.8508 0.5339 0.4661 0.2309 0.7691 0.1479 0.8521 0.5306 0.4694 0.2286 0.7714 0.1466 0.8534 0.5273 0.4727 0.2263 0.7737000000000001 0.1453 0.8547 0.524 0.476 0.224 0.776 0.144 0.856 0.5207000000000001 0.4793 0.2217 0.7783 0.1427 0.8573 0.5174 0.4826 0.2194 0.7806 0.1414 0.8586 0.5141 0.4859 0.2171 0.7829 0.1401 0.8599 0.5108 0.4892 0.2148 0.7852 0.1388 0.8612 0.5075 0.4925 0.2125 0.7875 0.1375 0.8625 0.5042 0.4958 0.2102 0.7897999999999999 0.1362 0.8638 0.5009 0.4991 0.2079 0.7921 0.1349 0.8651 0.4976 0.5024 0.2056 0.7944 0.1336 0.8663999999999999</probabilities>
		</cpt>
		<cpt id="Leveloftrust">
			<state id="Low" />
			<state id="High" />
			<parents>Response</parents>
			<probabilities>0.22 0.7799999999999999 0.66 0.3399999999999999</probabilities>
		</cpt>
		<cpt id="Hunting_disruption">
			<state id="High" />
			<state id="Low" />
			<parents>Response Release</parents>
			<probabilities>0.555 0.445 0.15 0.85 0.7887999999999999 0.2112000000000001 0.255 0.745</probabilities>
		</cpt>
		<cpt id="Disruptioninassociation">
			<state id="High" />
			<state id="Low" />
			<parents>Response</parents>
			<probabilities>0.569231 0.430769 0.9 0.09999999999999998</probabilities>
		</cpt>
		<cpt id="Cultureinteference">
			<state id="High_impact" />
			<state id="Low_impact" />
			<parents>Release</parents>
			<probabilities>0.728125 0.271875 0.4375 0.5625</probabilities>
		</cpt>
		<cpt id="Psychologicaleffect">
			<state id="High" />
			<state id="Low" />
			<parents>Response</parents>
			<probabilities>0.4 0.6 0.7700000000000001 0.23</probabilities>
		</cpt>
		<cpt id="Social_disruption">
			<state id="High" />
			<state id="Low" />
			<parents>Response</parents>
			<probabilities>0.15 0.85 0.2 0.8</probabilities>
		</cpt>
		<cpt id="Impact">
			<state id="High" />
			<state id="Low" />
			<parents>Social_disruption Psychologicaleffect Disruptioninassociation Cultureinteference Leveloftrust Decreaseinwatersupply Hunting_disruption Quantityofoil</parents>
			<probabilities>0.927 0.073 0.7385 0.2615 0.3493 0.6506999999999999 0.924 0.076 0.737 0.263 0.3486 0.6514 0.921 0.079 0.7355 0.2645 0.3479 0.6521 0.918 0.082 0.734 0.266 0.3472 0.6528 0.915 0.08500000000000001 0.7325 0.2675 0.3465 0.6535 0.912 0.08799999999999999 0.731 0.269 0.3458 0.6542 0.909 0.091 0.7295 0.2705 0.3451 0.6549 0.906 0.094 0.728 0.272 0.3444 0.6556 0.903 0.097 0.7265 0.2735 0.3437 0.6563 0.9 0.1 0.725 0.275 0.343 0.657 0.897 0.103 0.7235 0.2765 0.3423 0.6577 0.894 0.106 0.722 0.278 0.3416 0.6584 0.891 0.109 0.7205 0.2795 0.3409 0.6591 0.888 0.112 0.719 0.281 0.3402 0.6598000000000001 0.885 0.115 0.7175 0.2825 0.3395 0.6605 0.882 0.118 0.716 0.284 0.3388 0.6612 0.879 0.121 0.7145 0.2855 0.3381 0.6619 0.876 0.124 0.713 0.287 0.3374 0.6626 0.873 0.127 0.7115 0.2885 0.3367 0.6633 0.87 0.13 0.71 0.29 0.336 0.664 0.867 0.133 0.7085 0.2915 0.3353 0.6647 0.864 0.136 0.707 0.293 0.3346 0.6654 0.861 0.139 0.7055 0.2945 0.3339 0.6661 0.858 0.142 0.704 0.296 0.3332 0.6667999999999999 0.855 0.145 0.7025 0.2975 0.3325 0.6675 0.852 0.148 0.701 0.299 0.3318 0.6682 0.849 0.151 0.6995 0.3005 0.3311 0.6689000000000001 0.846 0.154 0.698 0.302 0.3304 0.6696 0.843 0.157 0.6965 0.3035 0.3297 0.6703 0.84 0.16 0.695 0.305 0.329 0.671 0.837 0.163 0.6935 0.3065 0.3283 0.6717 0.834 0.166 0.6919999999999999 0.308 0.3276 0.6724 0.831 0.169 0.6905 0.3095 0.3269 0.6731 0.828 0.172 0.6889999999999999 0.311 0.3262 0.6738 0.825 0.175 0.6875 0.3125 0.3255 0.6745 0.822 0.178 0.6860000000000001 0.314 0.3248 0.6752 0.819 0.181 0.6845 0.3155 0.3241 0.6758999999999999 0.8159999999999999 0.184 0.6830000000000001 0.317 0.3234 0.6766 0.8129999999999999 0.187 0.6815 0.3185 0.3227 0.6773 0.8100000000000001 0.19 0.68 0.32 0.322 0.678 0.8070000000000001 0.193 0.6785 0.3215 0.3213 0.6787 0.804 0.196 0.677 0.323 0.3206 0.6794 0.801 0.199 0.6755 0.3245 0.3199 0.6801 0.798 0.202 0.674 0.326 0.3192 0.6808 0.795 0.205 0.6725 0.3275 0.3185 0.6815 0.792 0.208 0.671 0.329 0.3178 0.6822 0.789 0.211 0.6695 0.3305 0.3171 0.6829 0.786 0.214 0.668 0.332 0.3164 0.6836 0.783 0.217 0.6665 0.3335 0.3157 0.6843 0.78 0.22 0.665 0.335 0.315 0.6850000000000001 0.777 0.223 0.6635 0.3365 0.3143 0.6857 0.774 0.226 0.662 0.338 0.3136 0.6864 0.771 0.229 0.6605 0.3395 0.3129 0.6871 0.768 0.232 0.659 0.341 0.3122 0.6878 0.765 0.235 0.6575 0.3425 0.3115 0.6885 0.762 0.238 0.656 0.344 0.3108 0.6892 0.759 0.241 0.6545 0.3455 0.3101 0.6899 0.756 0.244 0.653 0.347 0.3094 0.6906 0.753 0.247 0.6515 0.3485 0.3087 0.6913 0.75 0.25 0.65 0.35 0.308 0.6919999999999999 0.747 0.253 0.6485 0.3515 0.3073 0.6927 0.744 0.256 0.647 0.353 0.3066 0.6934 0.741 0.259 0.6455 0.3545 0.3059 0.6941000000000001 0.738 0.262 0.644 0.356 0.3052 0.6948 0.735 0.265 0.6425 0.3575 0.3045 0.6955 0.732 0.268 0.641 0.359 0.3038 0.6962 0.729 0.271 0.6395 0.3605 0.3031 0.6969 0.726 0.274 0.638 0.362 0.3024 0.6976 0.723 0.277 0.6365 0.3635 0.3017 0.6983 0.72 0.28 0.635 0.365 0.301 0.699 0.717 0.283 0.6335 0.3665 0.3003 0.6997 0.714 0.286 0.632 0.368 0.2996 0.7004 0.711 0.289 0.6304999999999999 0.3695 0.2989 0.7010999999999999 0.708 0.292 0.629 0.371 0.2982 0.7018 0.705 0.295 0.6274999999999999 0.3725 0.2975 0.7025 0.702 0.298 0.626 0.374 0.2968 0.7032 0.699 0.301 0.6245000000000001 0.3755 0.2961 0.7039 0.696 0.304 0.623 0.377 0.2954 0.7046 0.6929999999999999 0.307 0.6215000000000001 0.3785 0.2947 0.7053 0.6899999999999999 0.31 0.62 0.38 0.294 0.706 0.6870000000000001 0.313 0.6185 0.3815 0.2933 0.7067 0.6840000000000001 0.316 0.617 0.383 0.2926 0.7074 0.681 0.319 0.6155 0.3845 0.2919 0.7081 0.678 0.322 0.614 0.386 0.2912 0.7088 0.675 0.325 0.6125 0.3875 0.2905 0.7095 0.672 0.328 0.611 0.389 0.2898 0.7102000000000001 0.669 0.331 0.6095 0.3905 0.2891 0.7109 0.666 0.334 0.608 0.392 0.2884 0.7116 0.663 0.337 0.6065 0.3935 0.2877 0.7123 0.66 0.34 0.605 0.395 0.287 0.713 0.657 0.343 0.6035 0.3965 0.2863 0.7137 0.654 0.346 0.602 0.398 0.2856 0.7144 0.651 0.349 0.6005 0.3995 0.2849 0.7151 0.648 0.352 0.599 0.401 0.2842 0.7158 0.645 0.355 0.5975 0.4025 0.2835 0.7165 0.642 0.358 0.596 0.404 0.2828 0.7171999999999999 0.639 0.361 0.5945 0.4055 0.2821 0.7179 0.636 0.364 0.593 0.407 0.2814 0.7186 0.633 0.367 0.5915 0.4085 0.2807 0.7193000000000001 0.63 0.37 0.59 0.41 0.28 0.72 0.627 0.373 0.5885 0.4115 0.2793 0.7207 0.624 0.376 0.587 0.413 0.2786 0.7214 0.621 0.379 0.5855 0.4145 0.2779 0.7221 0.618 0.382 0.584 0.416 0.2772 0.7228 0.615 0.385 0.5825 0.4175 0.2765 0.7235 0.612 0.388 0.581 0.419 0.2758 0.7242 0.609 0.391 0.5795 0.4205 0.2751 0.7249 0.606 0.394 0.578 0.422 0.2744 0.7256 0.603 0.397 0.5765 0.4235 0.2737 0.7262999999999999 0.6 0.4 0.575 0.425 0.273 0.727 0.597 0.403 0.5735 0.4265 0.2723 0.7277 0.594 0.406 0.572 0.428 0.2716 0.7284 0.591 0.409 0.5705 0.4295 0.2709 0.7291 0.588 0.412 0.569 0.431 0.2702 0.7298 0.585 0.415 0.5675 0.4325 0.2695 0.7305 0.582 0.418 0.5659999999999999 0.434 0.2688 0.7312 0.579 0.421 0.5645 0.4355 0.2681 0.7319 0.576 0.424 0.5629999999999999 0.437 0.2674 0.7326 0.573 0.427 0.5615 0.4385 0.2667 0.7333 0.57 0.43 0.5600000000000001 0.44 0.266 0.734 0.5669999999999999 0.433 0.5585 0.4415 0.2653 0.7347 0.5639999999999999 0.436 0.5570000000000001 0.443 0.2646 0.7354000000000001 0.5610000000000001 0.439 0.5555 0.4445 0.2639 0.7361 0.5580000000000001 0.442 0.554 0.446 0.2632 0.7368 0.555 0.445 0.5525 0.4475 0.2625 0.7375 0.552 0.448 0.551 0.449 0.2618 0.7382 0.549 0.451 0.5495 0.4505 0.2611 0.7389 0.546 0.454 0.548 0.452 0.2604 0.7396</probabilities>
		</cpt>
		<decision id="Recovery_method">
			<state id="Natural_attenuation" />
			<state id="Insitu_burning" />
			<state id="Dispersant_use" />
			<state id="Mechanical_recovery" />
			<parents>Response</parents>
		</decision>
		<utility id="SEI">
			<parents>Impact Economic_effect Environmentaleffect Recovery_method</parents>
			<utilities>575044371 575946031 575048281 575051861 357308776 357310436 357312686 357316266 243608726 243610390 243612636 243616216 25873131 25874791 25877041 25880621 559798710.1 5598000370.1 559802620.1 559806200.1 342063114.9 342064774.9 342067024.9 342070604.9 228363065.2 228364725.2 228366975.2 228370555.2 10627470 10629130 10631380 10634960</utilities>
		</utility>
	</nodes>
	<extensions>
		<genie version="1.0" app="GeNIe 4.1.3402.2 1d9f5773304b480" name="Network1" arccolor="ff6600">
			<node id="Quantityofoil">
				<name>Quantity of oil</name>
				<interior color="e5f6f7" />
				<outline color="000080" />
				<font color="000000" name="Arial" size="8" />
				<position>94 40 162 87</position>
				<barchart width="128" height="72" />
			</node>
			<node id="Typeofoil">
				<name>Type of oil</name>
				<interior color="e5f6f7" />
				<outline color="000080" />
				<font color="000000" name="Arial" size="8" />
				<position>205 20 268 57</position>
				<barchart width="128" height="90" />
			</node>
			<node id="Season">
				<name>Season</name>
				<interior color="e5f6f7" />
				<outline color="000080" />
				<font color="000000" name="Arial" size="8" />
				<position>61 95 123 133</position>
				<barchart width="128" height="90" />
			</node>
			<node id="Temperature">
				<name>Temperature</name>
				<interior color="e5f6f7" />
				<outline color="000080" />
				<font color="000000" name="Arial" size="8" />
				<position>35 162 118 206</position>
				<barchart width="128" height="72" />
			</node>
			<node id="Icecover">
				<name>Ice cover</name>
				<interior color="e5f6f7" />
				<outline color="000080" />
				<font color="000000" name="Arial" size="8" />
				<position>31 221 100 271</position>
				<barchart width="128" height="64" />
			</node>
			<node id="Holesize">
				<name>Hole size</name>
				<interior color="e5f6f7" />
				<outline color="000080" />
				<font color="000000" name="Arial" size="8" />
				<position>305 226 371 265</position>
				<barchart width="128" height="64" />
			</node>
			<node id="Accident">
				<name>Accident</name>
				<interior color="00ff00" />
				<outline color="000080" />
				<font color="000000" name="Arial" size="8" />
				<position>291 370 355 413</position>
				<barchart width="128" height="64" />
			</node>
			<node id="Type_of_hydrocarbon_released">
				<name>Type of hydrocarbon released</name>
				<interior color="e5f6f7" />
				<outline color="000080" />
				<font color="000000" name="Arial" size="8" />
				<position>148 159 294 204</position>
				<barchart width="128" height="64" />
			</node>
			<node id="Type_of_ship">
				<name>Type of ship</name>
				<interior color="cc99ff" />
				<outline color="000080" />
				<font color="000000" name="Arial" size="8" />
				<position>356 13 440 57</position>
				<barchart width="128" height="72" />
			</node>
			<node id="Type_of_engine">
				<name>Type of engine</name>
				<interior color="cc99ff" />
				<outline color="000080" />
				<font color="000000" name="Arial" size="8" />
				<position>302 57 377 97</position>
				<barchart width="128" height="64" />
			</node>
			<node id="Age_of_vessel">
				<name>Age of vessel</name>
				<interior color="cc99ff" />
				<outline color="000080" />
				<font color="000000" name="Arial" size="8" />
				<position>1065 136 1134 174</position>
				<barchart width="128" height="90" />
			</node>
			<node id="Year_of_manufacture_of_ship">
				<name>Year of ship manufacture</name>
				<interior color="cc99ff" />
				<outline color="000080" />
				<font color="000000" name="Arial" size="8" />
				<position>636 3 722 50</position>
				<barchart width="128" height="90" />
			</node>
			<node id="Material_ship_is_made_of">
				<name>Thickness of material</name>
				<interior color="cc99ff" />
				<outline color="000080" />
				<font color="000000" name="Arial" size="8" />
				<position>725 75 816 126</position>
				<barchart width="128" height="64" />
			</node>
			<node id="Size_of_ship">
				<name>Size of ship</name>
				<interior color="cc99ff" />
				<outline color="000080" />
				<font color="000000" name="Arial" size="8" />
				<position>406 65 486 106</position>
				<barchart width="128" height="64" />
			</node>
			<node id="Speed_of_vessel">
				<name>Speed of vessel</name>
				<interior color="cc99ff" />
				<outline color="000080" />
				<font color="000000" name="Arial" size="8" />
				<position>411 473 503 512</position>
				<barchart width="128" height="64" />
			</node>
			<node id="Geography_of_voyage">
				<name>Geography of voyage</name>
				<interior color="cc99ff" />
				<outline color="000080" />
				<font color="000000" name="Arial" size="8" />
				<position>44 311 141 352</position>
				<barchart width="128" height="72" />
			</node>
			<node id="Daysexpectedtospendatsea">
				<name>Days spent at sea</name>
				<interior color="cc99ff" />
				<outline color="000080" />
				<font color="000000" name="Arial" size="8" />
				<position>680 280 775 332</position>
				<barchart width="128" height="90" />
			</node>
			<node id="Experienceofcrew">
				<name>Experience of crew</name>
				<interior color="cc99ff" />
				<outline color="000080" />
				<font color="000000" name="Arial" size="8" />
				<position>34 360 117 408</position>
				<barchart width="128" height="64" />
			</node>
			<node id="Decreaseinwatersupply">
				<name>Effect on water supply</name>
				<interior color="c0c0c0" />
				<outline color="000080" />
				<font color="000000" name="Arial" size="8" />
				<position>844 349 938 395</position>
				<barchart width="128" height="64" />
			</node>
			<node id="Leveloftrust">
				<name>Level of trust</name>
				<interior color="c0c0c0" />
				<outline color="000080" />
				<font color="000000" name="Arial" size="8" />
				<position>904 432 989 470</position>
				<barchart width="128" height="64" />
			</node>
			<node id="Hunting_disruption">
				<name>Hunting disruption</name>
				<interior color="c0c0c0" />
				<outline color="000080" />
				<font color="000000" name="Arial" size="8" />
				<position>722 496 806 541</position>
				<barchart width="128" height="64" />
			</node>
			<node id="Disruptioninassociation">
				<name>Disruption in association</name>
				<interior color="c0c0c0" />
				<outline color="000080" />
				<font color="000000" name="Arial" size="8" />
				<position>962 352 1055 402</position>
				<barchart width="128" height="64" />
			</node>
			<node id="Cultureinteference">
				<name>Culture disruption</name>
				<interior color="c0c0c0" />
				<outline color="000080" />
				<font color="000000" name="Arial" size="8" />
				<position>823 464 919 515</position>
				<barchart width="128" height="64" />
			</node>
			<node id="Psychologicaleffect">
				<name>Psychological effect</name>
				<interior color="c0c0c0" />
				<outline color="000080" />
				<font color="000000" name="Arial" size="8" />
				<position>1084 408 1182 454</position>
				<barchart width="128" height="64" />
			</node>
			<node id="Social_disruption">
				<name>Social disruption</name>
				<interior color="c0c0c0" />
				<outline color="000080" />
				<font color="000000" name="Arial" size="8" />
				<position>1066 347 1157 392</position>
				<barchart width="128" height="64" />
			</node>
			<node id="Piracy">
				<name>Piracy</name>
				<interior color="ccffcc" />
				<outline color="000080" width="3" />
				<font color="000000" name="Arial" size="8" />
				<position>274 13 343 52</position>
				<barchart width="128" height="64" />
			</node>
			<node id="Hull">
				<name>Hull</name>
				<interior color="ccffcc" />
				<outline color="000080" width="3" />
				<font color="000000" name="Arial" size="8" />
				<position>541 12 605 50</position>
				<barchart width="128" height="64" />
			</node>
			<node id="Locationofresponseequipment">
				<name>Location</name>
				<interior color="ccffcc" />
				<outline color="000080" width="3" />
				<font color="000000" name="Arial" size="8" />
				<position>1038 7 1153 47</position>
				<barchart width="128" height="64" />
			</node>
			<node id="Costofcompensation">
				<name>Cost of compensation</name>
				<interior color="ccffcc" />
				<outline color="000080" width="2" />
				<font color="000000" name="Arial" size="8" />
				<position>596 156 714 198</position>
				<barchart width="128" height="64" />
			</node>
			<node id="Legal_cost">
				<name>Legal cost</name>
				<interior color="ccffcc" />
				<outline color="000080" />
				<font color="000000" name="Arial" size="8" />
				<position>593 58 681 98</position>
				<barchart width="128" height="64" />
			</node>
			<node id="Impact">
				<name>Social effect</name>
				<interior color="ffcc00" />
				<outline color="000080" />
				<font color="000000" name="Arial" size="8" />
				<position>957 523 1074 568</position>
				<barchart width="128" height="64" />
			</node>
			<node id="Response">
				<name>Response</name>
				<interior color="00ff00" />
				<outline color="000080" />
				<font color="000000" name="Arial" size="8" />
				<position>832 200 921 238</position>
				<barchart width="128" height="64" />
			</node>
			<node id="Release">
				<name>Release</name>
				<interior color="00ff00" />
				<outline color="000080" />
				<font color="000000" name="Arial" size="8" />
				<position>491 237 573 272</position>
				<barchart width="128" height="64" />
			</node>
			<node id="Economic_effect">
				<name>Economic effect</name>
				<interior color="ffcc00" />
				<outline color="000080" />
				<font color="000000" name="Arial" size="8" />
				<position>574 515 658 567</position>
				<barchart width="128" height="64" />
			</node>
			<node id="Environmentaleffect">
				<name>Environmental effect</name>
				<interior color="ffcc00" />
				<outline color="000080" />
				<font color="000000" name="Arial" size="8" />
				<position>250 527 348 575</position>
				<barchart width="128" height="64" />
			</node>
			<node id="Destruction_of_flora_and_fauna">
				<name>Destruction of flora and fauna</name>
				<interior color="e5f6f7" />
				<outline color="000080" />
				<font color="000000" name="Arial" size="8" />
				<position>86 479 200 533</position>
				<barchart width="128" height="64" />
			</node>
			<node id="Number_of_response_equipment">
				<name>Response equipment</name>
				<interior color="ccffcc" />
				<outline color="000080" width="3" />
				<font color="000000" name="Arial" size="8" />
				<position>891 7 1023 61</position>
				<barchart width="128" height="64" />
			</node>
			<node id="Time">
				<name>Time</name>
				<interior color="ccffcc" />
				<outline color="000080" width="3" />
				<font color="000000" name="Arial" size="8" />
				<position>837 60 922 100</position>
				<barchart width="128" height="64" />
			</node>
			<node id="Personnel">
				<name>Personnel</name>
				<interior color="ccffcc" />
				<outline color="000080" width="3" />
				<font color="000000" name="Arial" size="8" />
				<position>1056 67 1141 107</position>
				<barchart width="128" height="64" />
			</node>
			<node id="Recovery_method">
				<name>Recovery_method</name>
				<interior color="ff00ff" />
				<outline color="000080" />
				<font color="000000" name="Arial" size="8" />
				<position>820 605 960 664</position>
				<barchart width="128" height="90" />
			</node>
			<node id="SEI">
				<name>Socio-Economic Impact (SEI)</name>
				<interior color="33cccd" />
				<outline color="000080" />
				<font color="000000" name="Arial" size="8" />
				<position>631 609 748 666</position>
				<barchart width="128" height="64" />
			</node>
			<node id="NORDREG_Zone">
				<name>NORDREG_Zone</name>
				<interior color="ccffcc" />
				<outline color="000080" width="3" />
				<font color="000000" name="Arial" size="8" />
				<position>751 22 839 62</position>
				<barchart width="128" height="64" />
			</node>
			<node id="Sea_State">
				<name>Sea State</name>
				<interior color="e5f6f7" />
				<outline color="000080" />
				<font color="000000" name="Arial" size="8" />
				<position>461 16 522 54</position>
				<barchart width="128" height="64" />
			</node>
			<textbox>
				<caption>Updated model</caption>
				<font color="000000" name="Arial" size="16" bold="true" />
				<position>1134 535 1286 559</position>
			</textbox>
		</genie>
	</extensions>
</smile>
